FANN_FLO_2.1
num_layers=3
learning_rate=0.700000
connection_rate=1.000000
network_type=0
learning_momentum=0.000000
training_algorithm=2
train_error_function=1
train_stop_function=0
cascade_output_change_fraction=0.010000
quickprop_decay=-0.000100
quickprop_mu=1.750000
rprop_increase_factor=1.200000
rprop_decrease_factor=0.500000
rprop_delta_min=0.000000
rprop_delta_max=50.000000
rprop_delta_zero=0.100000
cascade_output_stagnation_epochs=12
cascade_candidate_change_fraction=0.010000
cascade_candidate_stagnation_epochs=12
cascade_max_out_epochs=150
cascade_min_out_epochs=50
cascade_max_cand_epochs=150
cascade_min_cand_epochs=50
cascade_num_candidate_groups=2
bit_fail_limit=3.49999999999999977796e-01
cascade_candidate_limit=1.00000000000000000000e+03
cascade_weight_multiplier=4.00000000000000022204e-01
cascade_activation_functions_count=10
cascade_activation_functions=3 5 7 8 10 11 14 15 16 17 
cascade_activation_steepnesses_count=4
cascade_activation_steepnesses=2.50000000000000000000e-01 5.00000000000000000000e-01 7.50000000000000000000e-01 1.00000000000000000000e+00 
layer_sizes=17 17 17 
scale_included=0
neurons (num_inputs, activation_function, activation_steepness)=(0, 0, 0.00000000000000000000e+00) (0, 0, 0.00000000000000000000e+00) (0, 0, 0.00000000000000000000e+00) (0, 0, 0.00000000000000000000e+00) (0, 0, 0.00000000000000000000e+00) (0, 0, 0.00000000000000000000e+00) (0, 0, 0.00000000000000000000e+00) (0, 0, 0.00000000000000000000e+00) (0, 0, 0.00000000000000000000e+00) (0, 0, 0.00000000000000000000e+00) (0, 0, 0.00000000000000000000e+00) (0, 0, 0.00000000000000000000e+00) (0, 0, 0.00000000000000000000e+00) (0, 0, 0.00000000000000000000e+00) (0, 0, 0.00000000000000000000e+00) (0, 0, 0.00000000000000000000e+00) (0, 0, 0.00000000000000000000e+00) (17, 4, 5.00000000000000000000e-01) (17, 4, 5.00000000000000000000e-01) (17, 4, 5.00000000000000000000e-01) (17, 4, 5.00000000000000000000e-01) (17, 4, 5.00000000000000000000e-01) (17, 4, 5.00000000000000000000e-01) (17, 4, 5.00000000000000000000e-01) (17, 4, 5.00000000000000000000e-01) (17, 4, 5.00000000000000000000e-01) (17, 4, 5.00000000000000000000e-01) (17, 4, 5.00000000000000000000e-01) (17, 4, 5.00000000000000000000e-01) (17, 4, 5.00000000000000000000e-01) (17, 4, 5.00000000000000000000e-01) (17, 4, 5.00000000000000000000e-01) (17, 4, 5.00000000000000000000e-01) (0, 0, 0.00000000000000000000e+00) (17, 4, 5.00000000000000000000e-01) (17, 4, 5.00000000000000000000e-01) (17, 4, 5.00000000000000000000e-01) (17, 4, 5.00000000000000000000e-01) (17, 4, 5.00000000000000000000e-01) (17, 4, 5.00000000000000000000e-01) (17, 4, 5.00000000000000000000e-01) (17, 4, 5.00000000000000000000e-01) (17, 4, 5.00000000000000000000e-01) (17, 4, 5.00000000000000000000e-01) (17, 4, 5.00000000000000000000e-01) (17, 4, 5.00000000000000000000e-01) (17, 4, 5.00000000000000000000e-01) (17, 4, 5.00000000000000000000e-01) (17, 4, 5.00000000000000000000e-01) (17, 4, 5.00000000000000000000e-01) (0, 0, 0.00000000000000000000e+00) 
connections (connected_to_neuron, weight)=(0, -1.50000000000000000000e+03) (1, -1.49999817700707785662e+03) (2, -1.49902024832548272570e+03) (3, 1.50000000000000000000e+03) (4, -1.42880946543720665431e+03) (5, -1.50000000000000000000e+03) (6, -1.50000000000000000000e+03) (7, -1.50000000000000000000e+03) (8, -1.50000000000000000000e+03) (9, -1.50000000000000000000e+03) (10, -1.49950349228452114403e+03) (11, -1.50000000000000000000e+03) (12, -1.50000000000000000000e+03) (13, -1.50000000000000000000e+03) (14, -1.49994489990022725578e+03) (15, 1.50000000000000000000e+03) (16, -1.50000000000000000000e+03) (0, -4.08774148407284787510e+00) (1, 1.21491741441096898768e+01) (2, -1.19068956435472586008e+01) (3, 2.57348202146078293140e+01) (4, -5.10305030320568953073e-01) (5, 2.50524780240775761797e+01) (6, 2.57380425753510433395e+00) (7, -9.50036078159006258659e+00) (8, -3.09126841756607273481e+00) (9, 3.59860765801514617124e+01) (10, 1.81184668776760844366e+01) (11, -3.46256449253226961105e+01) (12, 5.72835719438235102530e+00) (13, -1.38552388570739264395e+01) (14, 2.86452383337669180818e+00) (15, 1.70118730752640878734e+01) (16, -5.02211684946834058252e+00) (0, -8.47099431879207287466e+00) (1, 1.54514645243193360358e+01) (2, -3.30327990266800952668e+01) (3, -1.28715718499513744888e+01) (4, 7.28944440478633648439e+00) (5, 1.52710848774858920507e+01) (6, -1.42177583451650217938e+01) (7, 1.08905669406707801272e+01) (8, 5.21567130736615141018e+01) (9, 9.77779793735551550071e+00) (10, -1.14206598805735843882e+01) (11, 9.45535261102080504259e+00) (12, -4.09880870049274259603e-01) (13, -4.64683818452785857289e+01) (14, -9.21499084077754382349e+00) (15, 2.69749896035842318121e-01) (16, 2.85104460237651613497e+00) (0, -7.76378358151600735937e+01) (1, -3.83467664894379538509e+01) (2, -6.50955941974976592945e+00) (3, -3.89091801699704689099e+01) (4, -1.70931225428522395760e+02) (5, -7.20794588586111188988e+01) (6, 8.48386785281232675970e+01) (7, 1.43997931901678981603e+01) (8, -2.08542547736643115286e+02) (9, 1.03871666245078387192e+02) (10, 2.63416568344323707151e+02) (11, 1.00356049538008520017e+02) (12, -2.08010513821350535579e+01) (13, -4.80317734057468115338e+01) (14, -3.82520991008723498794e+01) (15, 4.53576107452707972811e+01) (16, 2.12506745541077179951e+00) (0, -9.71556547047127949668e+00) (1, -8.44476472564069347015e+00) (2, -8.41790229444543314230e+00) (3, -1.13892614712236657226e+01) (4, -1.45914018410747670096e+00) (5, 5.55228500040002970195e+00) (6, 1.66009290920064280783e+01) (7, 8.41947284775996429573e+00) (8, 1.92900028271651380329e+00) (9, 1.77925554940232899526e+01) (10, -1.22633973517202790049e+01) (11, 1.39717361546253613369e+01) (12, 4.60546874219943358497e+00) (13, -1.97067250747410973588e+01) (14, -2.01331024176562536354e+01) (15, 7.78785650489331970903e+00) (16, -4.12615366241196102060e-01) (0, -1.50000000000000000000e+03) (1, -1.49999817700707785662e+03) (2, -1.49902024832548272570e+03) (3, 1.50000000000000000000e+03) (4, -1.42880946543720665431e+03) (5, -1.50000000000000000000e+03) (6, -1.50000000000000000000e+03) (7, -1.50000000000000000000e+03) (8, -1.50000000000000000000e+03) (9, -1.50000000000000000000e+03) (10, -1.49950349228452114403e+03) (11, -1.50000000000000000000e+03) (12, -1.50000000000000000000e+03) (13, -1.50000000000000000000e+03) (14, -1.49994489990022725578e+03) (15, 1.50000000000000000000e+03) (16, -1.50000000000000000000e+03) (0, -1.73164580264233229911e+01) (1, 4.69018047202615928626e+00) (2, 6.46125812906278795822e+00) (3, -2.00805651520125971743e+00) (4, -6.19432327021916862009e+00) (5, 5.02073802805021696116e+00) (6, -1.13070489728735541490e+01) (7, 4.19106831917942734833e+00) (8, -6.76904655653089992740e+00) (9, 5.75263254794538436698e+00) (10, 1.25448150995100871086e+01) (11, 4.19899478134097137172e+00) (12, 2.42120448164249202350e+00) (13, -4.11357810419277569736e+00) (14, 8.19596310830915619761e+00) (15, -3.51381867996930052911e+00) (16, -2.75808325797523568035e-01) (0, 2.53301716255402702416e+01) (1, -2.38316775761585901705e+01) (2, -1.99043976252415504291e+01) (3, 1.64705956067287857536e+01) (4, 1.20313641276576763772e+01) (5, 8.34461783186031169635e+00) (6, -1.35575652238349224632e+01) (7, 2.26319053800060103754e+01) (8, -5.88976973381531099250e+00) (9, 1.54787975895203828713e+01) (10, -4.50468291220093330907e+00) (11, 1.94461829877132963418e+01) (12, 7.63602000503248667940e+00) (13, 1.14816179495045709302e+01) (14, 4.88754716610531581011e+00) (15, -3.04565731115680051744e+01) (16, 2.68525189151758769679e-01) (0, 1.58162954635239358936e+01) (1, -1.81489928112579299579e+01) (2, -1.18745930550829337236e+00) (3, 1.25499628396197748792e+00) (4, 6.57405756512482586373e+00) (5, -1.70285479621908457659e+01) (6, 7.25118878365898300586e+00) (7, -9.42803832987485357364e+00) (8, -8.08937238211969678048e+00) (9, 2.74666526197813887222e+00) (10, -3.79086325195398243793e+00) (11, 4.03170052394275391094e+00) (12, 8.35289621663680215136e+00) (13, 1.06399048377706311186e+01) (14, 5.78351869721478806241e+00) (15, 1.89258626808534313746e+00) (16, 8.92798416699393193596e-01) (0, -2.06617495196002032287e+01) (1, 5.52240683427113587811e+00) (2, -1.43359047289781003087e+01) (3, -1.58739533630364899608e+01) (4, 1.46223508329007589879e+01) (5, -1.41420112005371017005e+01) (6, 3.16247149858676621648e+01) (7, 5.69995440504236494661e+00) (8, 3.52838282199673924922e+00) (9, -1.43909190626070770946e+01) (10, 1.31598501093297404196e+01) (11, -2.62637143192564981309e-01) (12, -6.61153993117613847375e+00) (13, 7.90146099121835554513e+00) (14, -1.58426118085057829887e+01) (15, 3.19995150172148079548e+01) (16, -2.46053332730372709136e+00) (0, 2.58856340793550820933e+01) (1, -2.88382634835372257953e+01) (2, -3.40494416630153153847e+01) (3, -5.52991857554599963720e+00) (4, 3.22782403637644250693e+01) (5, 6.05879548559869434143e+01) (6, 1.47703880739112189957e+01) (7, -4.87366009452656712142e+01) (8, 7.24305299633615096155e+00) (9, -8.02754184709447371482e-01) (10, -9.04036664290549651923e+00) (11, 1.20511870240023455381e+00) (12, -4.55692406752865242225e+00) (13, 2.64844199734680678660e+01) (14, -2.74252935431292783619e+01) (15, -1.82314828132193120780e+01) (16, 1.63565864239059471918e-01) (0, 1.24212947236419637420e+01) (1, -1.69873602720933050136e+01) (2, -4.13053655674462749658e+00) (3, -1.68717452396692841887e+01) (4, 9.43068274746498902417e-01) (5, 2.74967716220813107597e+00) (6, 6.86344095285089572656e+00) (7, 1.78871383616632462221e+00) (8, 7.47906755339958628781e+00) (9, 1.09025406231372858912e+01) (10, -2.43514138797285806248e+00) (11, 7.00410696521343911769e+00) (12, -1.29923930304226580290e+01) (13, 3.89105138606708617077e-02) (14, 9.52337270962385495920e+00) (15, -1.15358273060804492616e+01) (16, 1.25092095871300368337e+00) (0, 2.55324393524180104365e+00) (1, -5.54206442499389240197e+00) (2, -8.67393812553305210145e+00) (3, 7.13043423259977715567e-01) (4, -1.21774693026174212207e+01) (5, -2.80988354246282456828e+00) (6, -1.65791194298468136381e+00) (7, -2.59712259117879407100e+00) (8, 2.64591294846633795501e+00) (9, 2.53454881057981040726e+00) (10, 6.79754561654367783774e+00) (11, 1.21706338493825017011e+00) (12, 6.61539343524013556674e+00) (13, -7.13092000433848660634e+00) (14, -9.98359058248574804395e+00) (15, -6.52596833143693100254e+00) (16, 3.55776330475214308535e+00) (0, -1.50000000000000000000e+03) (1, -1.49999817700707785662e+03) (2, -1.49902024832548272570e+03) (3, 1.50000000000000000000e+03) (4, -1.42880946543720665431e+03) (5, -1.50000000000000000000e+03) (6, -1.50000000000000000000e+03) (7, -1.50000000000000000000e+03) (8, -1.50000000000000000000e+03) (9, -1.50000000000000000000e+03) (10, -1.49950349228452114403e+03) (11, -1.50000000000000000000e+03) (12, -1.50000000000000000000e+03) (13, -1.50000000000000000000e+03) (14, -1.49994489990022725578e+03) (15, 1.50000000000000000000e+03) (16, -1.50000000000000000000e+03) (0, 2.71768592299695157521e+01) (1, -1.23558279800931742898e+01) (2, 3.82356766033923056725e+00) (3, 3.62536708251705830364e+00) (4, 1.97481311513982333850e+01) (5, -1.93054950679315702189e+01) (6, 1.99000418258469444766e+01) (7, 1.07381627641033383647e+00) (8, -9.02104534311387418200e+00) (9, -1.29544351538538187185e+01) (10, 1.07502317754954272999e+01) (11, 7.74747744084248957108e+00) (12, 8.72529162909845190654e+00) (13, -8.95621273529021344473e+00) (14, -1.91255477932153006293e+01) (15, 1.09620323366488126027e+01) (16, -1.43044785949128239189e+00) (0, -1.50000000000000000000e+03) (1, -1.49999817700707785662e+03) (2, -1.49902024832548272570e+03) (3, 1.50000000000000000000e+03) (4, -1.42880946543720665431e+03) (5, -1.50000000000000000000e+03) (6, -1.50000000000000000000e+03) (7, -1.50000000000000000000e+03) (8, -1.50000000000000000000e+03) (9, -1.50000000000000000000e+03) (10, -1.49950349228452114403e+03) (11, -1.50000000000000000000e+03) (12, -1.50000000000000000000e+03) (13, -1.50000000000000000000e+03) (14, -1.49994489990022725578e+03) (15, 1.50000000000000000000e+03) (16, -1.50000000000000000000e+03) (17, 1.50000000000000000000e+03) (18, 1.09862406574482598387e+01) (19, 3.38506510486127076831e+00) (20, 9.45410330730953774037e+00) (21, -1.05735533820119727011e+01) (22, 1.50000000000000000000e+03) (23, -6.68336098785481595996e+01) (24, -2.95986751865835628905e+01) (25, -2.01920938530491014262e+01) (26, 2.60160372095041925178e+00) (27, 3.69323935914780250300e+01) (28, -4.96343149933380889394e+00) (29, 7.39012800539380521059e+01) (30, 1.50000000000000000000e+03) (31, -5.00897823836028877054e+01) (32, 1.50000000000000000000e+03) (33, -1.28549626185979661841e+01) (17, 1.50000000000000000000e+03) (18, -2.12072645352291750953e+01) (19, 2.15922580337704914655e+01) (20, 3.24496747835838164065e+01) (21, 2.01423366465494844135e+01) (22, 1.50000000000000000000e+03) (23, 3.13262621488714572138e+01) (24, 2.84679227566753656475e+00) (25, -5.51788576699433619410e+01) (26, -3.41934727442675665543e+01) (27, 6.31893415250338321698e+01) (28, -1.43942277131171358917e+01) (29, -8.29775139991108829918e+01) (30, 1.50000000000000000000e+03) (31, 2.34615753749809279327e+01) (32, 1.50000000000000000000e+03) (33, -4.27864642264071690647e+01) (17, 1.50000000000000000000e+03) (18, -1.89903949600570278733e+01) (19, 2.78627650439093841328e+01) (20, 4.23950259371012307952e+01) (21, -3.14695522430425000948e+01) (22, 1.50000000000000000000e+03) (23, -1.73132058399097275014e+01) (24, -1.20877874505061768673e+01) (25, -1.54468452869853706488e+02) (26, -8.42724771654908408891e+01) (27, -9.70868406609910437055e+01) (28, 6.16100729646111489046e+01) (29, -3.25462307692406369597e+01) (30, 1.50000000000000000000e+03) (31, 1.34273326293172146961e+02) (32, 1.50000000000000000000e+03) (33, -8.97768726725322530058e+00) (17, 1.50000000000000000000e+03) (18, 1.52062657903302458351e+01) (19, 5.30274668642061186574e+01) (20, -2.46542321225823037878e+01) (21, 2.77317985897002827755e+01) (22, 1.50000000000000000000e+03) (23, -2.42305149094682228395e+01) (24, 3.66979734863181850102e+00) (25, 2.77830996797979032920e+01) (26, 3.61141426295705727512e+01) (27, -3.68280278268907821371e+01) (28, -4.18254342959849552130e+01) (29, -5.42521771723339174542e+00) (30, 1.50000000000000000000e+03) (31, -3.83161808249174157481e+02) (32, 1.50000000000000000000e+03) (33, -2.25163740930076805569e+01) (17, 1.50000000000000000000e+03) (18, -1.61736134468482575244e+01) (19, -4.06511847284269904890e+01) (20, 7.79546423555331191579e+00) (21, -3.07914974946315211923e+00) (22, 1.50000000000000000000e+03) (23, 2.33387249772459846042e+01) (24, -7.77273491283452244716e+01) (25, -4.68756207376730849035e+00) (26, -1.85112420826989314548e+01) (27, 3.67955113262976851729e+01) (28, -1.70955562975360741973e+01) (29, -4.98498915462230041129e+00) (30, 1.50000000000000000000e+03) (31, -4.42677077460778107820e+01) (32, 1.50000000000000000000e+03) (33, 1.21445162861249578157e+01) (17, 1.50000000000000000000e+03) (18, -7.72571809460735536845e+00) (19, -8.36946593552430186946e+01) (20, -3.22830768661415987708e+01) (21, -1.50000000000000000000e+03) (22, 1.50000000000000000000e+03) (23, 3.19758335404328413176e+01) (24, 6.55607769986022361763e+01) (25, 9.48797182487530976758e-01) (26, -1.21045701604341964241e+01) (27, -1.14733658808045717592e+02) (28, 2.80950373579152952175e+01) (29, -1.52880368100912221507e+02) (30, 1.50000000000000000000e+03) (31, -4.00293980993161468973e+01) (32, 1.50000000000000000000e+03) (33, -3.72704421058088186669e+01) (17, 1.50000000000000000000e+03) (18, 7.47421375959114175913e-01) (19, -5.65135076451886675386e+01) (20, 8.36081870311835473331e+00) (21, -1.85839192422497717416e+02) (22, 1.50000000000000000000e+03) (23, -7.54876737569412625817e+01) (24, 1.62909047903484420772e+01) (25, 1.04123189695067974725e+01) (26, 3.57959997392328022059e+00) (27, 6.41877951383787035411e+01) (28, -5.08313029963729601235e+00) (29, -5.55633778012959140824e+01) (30, 1.50000000000000000000e+03) (31, -1.09960945378504902692e+02) (32, 1.50000000000000000000e+03) (33, -4.26703995718072270904e+00) (17, 1.50000000000000000000e+03) (18, -1.89457201581425813686e+01) (19, 2.15925658887787541573e+00) (20, -3.98455435239111466217e+00) (21, -4.16191431697242819610e+01) (22, 1.50000000000000000000e+03) (23, -2.67719986293173519698e+02) (24, 1.18252833059518658310e+00) (25, -6.56279735637486538735e+00) (26, -4.52517486280372693841e+01) (27, 7.19224952468097278313e+00) (28, 4.74123615549885712994e+00) (29, -2.80491471397738116877e+01) (30, 1.50000000000000000000e+03) (31, 4.15447874598362218990e+01) (32, 1.50000000000000000000e+03) (33, 2.16738480489391083239e+00) (17, 1.50000000000000000000e+03) (18, 4.78483176874838211923e-01) (19, 3.26254012614898414313e+00) (20, -1.00485379631576616788e+01) (21, 7.13749888914217045510e+00) (22, 1.50000000000000000000e+03) (23, -1.90914847880894189558e+00) (24, -1.40399456082131575130e+01) (25, 3.64734481474915384069e+00) (26, 6.78972777176471620209e+00) (27, -1.72508741354500694243e+00) (28, 1.90541299358387874463e+01) (29, -3.27085291204728711989e+00) (30, 1.50000000000000000000e+03) (31, 1.25498501703072822266e+01) (32, 1.50000000000000000000e+03) (33, -2.63382160184066798081e+01) (17, 1.50000000000000000000e+03) (18, 1.12635977112378462550e+01) (19, -1.11132055815413295363e+01) (20, 1.18933105309237348024e+01) (21, 1.33155726603972635047e+01) (22, 1.50000000000000000000e+03) (23, -1.10418886058908150005e+01) (24, 7.10640980375135367098e+00) (25, -2.39158303754171335243e+01) (26, 1.05848693848105366300e+01) (27, 2.98544300873327550505e+00) (28, 1.45428021914320044772e+01) (29, -6.48214799619618453619e+00) (30, 1.50000000000000000000e+03) (31, 1.41268394568547339674e+00) (32, 1.50000000000000000000e+03) (33, -2.50525834297361917891e+01) (17, 1.50000000000000000000e+03) (18, 4.09302743716011505626e+01) (19, 7.60832063857651008654e-02) (20, 1.33742199937106551744e+01) (21, -3.58200894667370093316e+01) (22, 1.50000000000000000000e+03) (23, -2.67656474663546077863e+01) (24, 4.83860353185339278070e+01) (25, -1.72828909398119137109e+01) (26, 2.16157511538619679925e+01) (27, 7.32911514015573573033e+00) (28, -5.23755080806713593233e+01) (29, -1.52529580944569502776e+01) (30, 1.50000000000000000000e+03) (31, -1.93524758583781308907e+00) (32, 1.50000000000000000000e+03) (33, -4.56095980880767370991e+01) (17, 1.50000000000000000000e+03) (18, 2.36914380950254255254e+01) (19, 7.26061737567318399300e+00) (20, -1.74869006711678687260e+00) (21, -6.74172501937733925637e-01) (22, 1.50000000000000000000e+03) (23, -1.46277669804901955253e+00) (24, -5.57484908658939559700e+01) (25, 4.80810447052100400356e+01) (26, 3.06569911394789258452e+01) (27, -2.96867684511404794634e+00) (28, -1.76874793556677900597e+01) (29, -5.88474483382524908848e+01) (30, 1.50000000000000000000e+03) (31, 1.14317295276638404289e+01) (32, 1.50000000000000000000e+03) (33, -6.11273826479666837486e+01) (17, 1.50000000000000000000e+03) (18, 9.81055926922943477564e+00) (19, -1.55399144091987384542e+01) (20, 1.32226388128729350768e+01) (21, -1.65976594558044077132e+01) (22, 1.50000000000000000000e+03) (23, -3.17732769987022267699e+00) (24, -1.08688387006883413477e+01) (25, -2.55062219355347465921e+01) (26, 7.74145924785474015550e+00) (27, -4.78637121189850311964e+00) (28, 1.66988674821447879992e+01) (29, 6.86319345987214859406e+01) (30, 1.50000000000000000000e+03) (31, 1.08830450474133755279e+01) (32, 1.50000000000000000000e+03) (33, -6.06955977309163614564e+01) (17, 1.50000000000000000000e+03) (18, -1.70307621613804727190e+01) (19, -1.58350091425406294121e+01) (20, -5.24875703061652743031e+00) (21, 7.74531261242899944364e+01) (22, 1.50000000000000000000e+03) (23, -1.51760810326585673380e+01) (24, 4.52699356524540590385e+01) (25, -1.63542316874963056250e+01) (26, -3.30748451834376098191e+01) (27, -1.37970046817702947095e+01) (28, -9.28325148980623140460e+01) (29, 2.51211479473928420703e+01) (30, 1.50000000000000000000e+03) (31, -2.83996865052603131296e-01) (32, 1.50000000000000000000e+03) (33, -6.50333113248558181141e+00) (17, 1.50000000000000000000e+03) (18, 3.17860532859590598775e+01) (19, -3.23488190790282992282e+00) (20, 9.69610505738517147734e+00) (21, 1.21464784144990129988e+01) (22, 1.50000000000000000000e+03) (23, 9.55469913887223221138e+00) (24, -8.54635145695192832704e+00) (25, -2.33204609284241328737e+01) (26, -1.22379195783571237399e+01) (27, 6.09933332491618163118e+00) (28, 3.77402588266315888177e+01) (29, 2.39004484245785704388e+01) (30, 1.50000000000000000000e+03) (31, 7.08215055297312545690e+00) (32, 1.50000000000000000000e+03) (33, -8.41080693114345621098e+01) (17, 1.50000000000000000000e+03) (18, -2.37163927637627764966e+01) (19, -1.64773457846667725768e+00) (20, 7.96252898965731858993e+00) (21, 4.38923504352813420581e+00) (22, 1.50000000000000000000e+03) (23, 1.17624078148256980825e+01) (24, 4.26573165895464789799e+00) (25, 4.85096021882864714136e-01) (26, -4.54199416566376612536e+00) (27, 3.98794709776398637047e+00) (28, 1.85392422881014056202e+01) (29, 1.39037987759927386122e+01) (30, 1.50000000000000000000e+03) (31, 3.87630025177239057044e+00) (32, 1.50000000000000000000e+03) (33, -4.53961642011634651794e+01) 
