FANN_FLO_2.1
num_layers=3
learning_rate=0.700000
connection_rate=1.000000
network_type=0
learning_momentum=0.000000
training_algorithm=2
train_error_function=1
train_stop_function=0
cascade_output_change_fraction=0.010000
quickprop_decay=-0.000100
quickprop_mu=1.750000
rprop_increase_factor=1.200000
rprop_decrease_factor=0.500000
rprop_delta_min=0.000000
rprop_delta_max=50.000000
rprop_delta_zero=0.100000
cascade_output_stagnation_epochs=12
cascade_candidate_change_fraction=0.010000
cascade_candidate_stagnation_epochs=12
cascade_max_out_epochs=150
cascade_min_out_epochs=50
cascade_max_cand_epochs=150
cascade_min_cand_epochs=50
cascade_num_candidate_groups=2
bit_fail_limit=3.49999999999999977796e-01
cascade_candidate_limit=1.00000000000000000000e+03
cascade_weight_multiplier=4.00000000000000022204e-01
cascade_activation_functions_count=10
cascade_activation_functions=3 5 7 8 10 11 14 15 16 17 
cascade_activation_steepnesses_count=4
cascade_activation_steepnesses=2.50000000000000000000e-01 5.00000000000000000000e-01 7.50000000000000000000e-01 1.00000000000000000000e+00 
layer_sizes=328 167 7 
scale_included=0
neurons (num_inputs, activation_function, activation_steepness)=(0, 0, 0.00000000000000000000e+00) (0, 0, 0.00000000000000000000e+00) (0, 0, 0.00000000000000000000e+00) (0, 0, 0.00000000000000000000e+00) (0, 0, 0.00000000000000000000e+00) (0, 0, 0.00000000000000000000e+00) (0, 0, 0.00000000000000000000e+00) (0, 0, 0.00000000000000000000e+00) (0, 0, 0.00000000000000000000e+00) (0, 0, 0.00000000000000000000e+00) (0, 0, 0.00000000000000000000e+00) (0, 0, 0.00000000000000000000e+00) (0, 0, 0.00000000000000000000e+00) (0, 0, 0.00000000000000000000e+00) (0, 0, 0.00000000000000000000e+00) (0, 0, 0.00000000000000000000e+00) (0, 0, 0.00000000000000000000e+00) (0, 0, 0.00000000000000000000e+00) (0, 0, 0.00000000000000000000e+00) (0, 0, 0.00000000000000000000e+00) (0, 0, 0.00000000000000000000e+00) (0, 0, 0.00000000000000000000e+00) (0, 0, 0.00000000000000000000e+00) (0, 0, 0.00000000000000000000e+00) (0, 0, 0.00000000000000000000e+00) (0, 0, 0.00000000000000000000e+00) (0, 0, 0.00000000000000000000e+00) (0, 0, 0.00000000000000000000e+00) (0, 0, 0.00000000000000000000e+00) (0, 0, 0.00000000000000000000e+00) (0, 0, 0.00000000000000000000e+00) (0, 0, 0.00000000000000000000e+00) (0, 0, 0.00000000000000000000e+00) (0, 0, 0.00000000000000000000e+00) (0, 0, 0.00000000000000000000e+00) (0, 0, 0.00000000000000000000e+00) (0, 0, 0.00000000000000000000e+00) (0, 0, 0.00000000000000000000e+00) (0, 0, 0.00000000000000000000e+00) (0, 0, 0.00000000000000000000e+00) (0, 0, 0.00000000000000000000e+00) (0, 0, 0.00000000000000000000e+00) (0, 0, 0.00000000000000000000e+00) (0, 0, 0.00000000000000000000e+00) (0, 0, 0.00000000000000000000e+00) (0, 0, 0.00000000000000000000e+00) (0, 0, 0.00000000000000000000e+00) (0, 0, 0.00000000000000000000e+00) (0, 0, 0.00000000000000000000e+00) (0, 0, 0.00000000000000000000e+00) (0, 0, 0.00000000000000000000e+00) (0, 0, 0.00000000000000000000e+00) (0, 0, 0.00000000000000000000e+00) (0, 0, 0.00000000000000000000e+00) (0, 0, 0.00000000000000000000e+00) (0, 0, 0.00000000000000000000e+00) (0, 0, 0.00000000000000000000e+00) (0, 0, 0.00000000000000000000e+00) (0, 0, 0.00000000000000000000e+00) (0, 0, 0.00000000000000000000e+00) (0, 0, 0.00000000000000000000e+00) (0, 0, 0.00000000000000000000e+00) (0, 0, 0.00000000000000000000e+00) (0, 0, 0.00000000000000000000e+00) (0, 0, 0.00000000000000000000e+00) (0, 0, 0.00000000000000000000e+00) (0, 0, 0.00000000000000000000e+00) (0, 0, 0.00000000000000000000e+00) (0, 0, 0.00000000000000000000e+00) (0, 0, 0.00000000000000000000e+00) (0, 0, 0.00000000000000000000e+00) (0, 0, 0.00000000000000000000e+00) (0, 0, 0.00000000000000000000e+00) (0, 0, 0.00000000000000000000e+00) (0, 0, 0.00000000000000000000e+00) (0, 0, 0.00000000000000000000e+00) (0, 0, 0.00000000000000000000e+00) (0, 0, 0.00000000000000000000e+00) (0, 0, 0.00000000000000000000e+00) (0, 0, 0.00000000000000000000e+00) (0, 0, 0.00000000000000000000e+00) (0, 0, 0.00000000000000000000e+00) (0, 0, 0.00000000000000000000e+00) (0, 0, 0.00000000000000000000e+00) (0, 0, 0.00000000000000000000e+00) (0, 0, 0.00000000000000000000e+00) (0, 0, 0.00000000000000000000e+00) (0, 0, 0.00000000000000000000e+00) (0, 0, 0.00000000000000000000e+00) (0, 0, 0.00000000000000000000e+00) (0, 0, 0.00000000000000000000e+00) (0, 0, 0.00000000000000000000e+00) (0, 0, 0.00000000000000000000e+00) (0, 0, 0.00000000000000000000e+00) (0, 0, 0.00000000000000000000e+00) (0, 0, 0.00000000000000000000e+00) (0, 0, 0.00000000000000000000e+00) (0, 0, 0.00000000000000000000e+00) (0, 0, 0.00000000000000000000e+00) (0, 0, 0.00000000000000000000e+00) (0, 0, 0.00000000000000000000e+00) (0, 0, 0.00000000000000000000e+00) (0, 0, 0.00000000000000000000e+00) (0, 0, 0.00000000000000000000e+00) (0, 0, 0.00000000000000000000e+00) (0, 0, 0.00000000000000000000e+00) (0, 0, 0.00000000000000000000e+00) (0, 0, 0.00000000000000000000e+00) (0, 0, 0.00000000000000000000e+00) (0, 0, 0.00000000000000000000e+00) (0, 0, 0.00000000000000000000e+00) (0, 0, 0.00000000000000000000e+00) (0, 0, 0.00000000000000000000e+00) (0, 0, 0.00000000000000000000e+00) (0, 0, 0.00000000000000000000e+00) (0, 0, 0.00000000000000000000e+00) (0, 0, 0.00000000000000000000e+00) (0, 0, 0.00000000000000000000e+00) (0, 0, 0.00000000000000000000e+00) (0, 0, 0.00000000000000000000e+00) (0, 0, 0.00000000000000000000e+00) (0, 0, 0.00000000000000000000e+00) (0, 0, 0.00000000000000000000e+00) (0, 0, 0.00000000000000000000e+00) (0, 0, 0.00000000000000000000e+00) (0, 0, 0.00000000000000000000e+00) (0, 0, 0.00000000000000000000e+00) (0, 0, 0.00000000000000000000e+00) (0, 0, 0.00000000000000000000e+00) (0, 0, 0.00000000000000000000e+00) (0, 0, 0.00000000000000000000e+00) (0, 0, 0.00000000000000000000e+00) (0, 0, 0.00000000000000000000e+00) (0, 0, 0.00000000000000000000e+00) (0, 0, 0.00000000000000000000e+00) (0, 0, 0.00000000000000000000e+00) (0, 0, 0.00000000000000000000e+00) (0, 0, 0.00000000000000000000e+00) (0, 0, 0.00000000000000000000e+00) (0, 0, 0.00000000000000000000e+00) (0, 0, 0.00000000000000000000e+00) (0, 0, 0.00000000000000000000e+00) (0, 0, 0.00000000000000000000e+00) (0, 0, 0.00000000000000000000e+00) (0, 0, 0.00000000000000000000e+00) (0, 0, 0.00000000000000000000e+00) (0, 0, 0.00000000000000000000e+00) (0, 0, 0.00000000000000000000e+00) (0, 0, 0.00000000000000000000e+00) (0, 0, 0.00000000000000000000e+00) (0, 0, 0.00000000000000000000e+00) (0, 0, 0.00000000000000000000e+00) (0, 0, 0.00000000000000000000e+00) (0, 0, 0.00000000000000000000e+00) (0, 0, 0.00000000000000000000e+00) (0, 0, 0.00000000000000000000e+00) (0, 0, 0.00000000000000000000e+00) (0, 0, 0.00000000000000000000e+00) (0, 0, 0.00000000000000000000e+00) (0, 0, 0.00000000000000000000e+00) (0, 0, 0.00000000000000000000e+00) (0, 0, 0.00000000000000000000e+00) (0, 0, 0.00000000000000000000e+00) (0, 0, 0.00000000000000000000e+00) (0, 0, 0.00000000000000000000e+00) (0, 0, 0.00000000000000000000e+00) (0, 0, 0.00000000000000000000e+00) (0, 0, 0.00000000000000000000e+00) (0, 0, 0.00000000000000000000e+00) (0, 0, 0.00000000000000000000e+00) (0, 0, 0.00000000000000000000e+00) (0, 0, 0.00000000000000000000e+00) (0, 0, 0.00000000000000000000e+00) (0, 0, 0.00000000000000000000e+00) (0, 0, 0.00000000000000000000e+00) (0, 0, 0.00000000000000000000e+00) (0, 0, 0.00000000000000000000e+00) (0, 0, 0.00000000000000000000e+00) (0, 0, 0.00000000000000000000e+00) (0, 0, 0.00000000000000000000e+00) (0, 0, 0.00000000000000000000e+00) (0, 0, 0.00000000000000000000e+00) (0, 0, 0.00000000000000000000e+00) (0, 0, 0.00000000000000000000e+00) (0, 0, 0.00000000000000000000e+00) (0, 0, 0.00000000000000000000e+00) (0, 0, 0.00000000000000000000e+00) (0, 0, 0.00000000000000000000e+00) (0, 0, 0.00000000000000000000e+00) (0, 0, 0.00000000000000000000e+00) (0, 0, 0.00000000000000000000e+00) (0, 0, 0.00000000000000000000e+00) (0, 0, 0.00000000000000000000e+00) (0, 0, 0.00000000000000000000e+00) (0, 0, 0.00000000000000000000e+00) (0, 0, 0.00000000000000000000e+00) (0, 0, 0.00000000000000000000e+00) (0, 0, 0.00000000000000000000e+00) (0, 0, 0.00000000000000000000e+00) (0, 0, 0.00000000000000000000e+00) (0, 0, 0.00000000000000000000e+00) (0, 0, 0.00000000000000000000e+00) (0, 0, 0.00000000000000000000e+00) (0, 0, 0.00000000000000000000e+00) (0, 0, 0.00000000000000000000e+00) (0, 0, 0.00000000000000000000e+00) (0, 0, 0.00000000000000000000e+00) (0, 0, 0.00000000000000000000e+00) (0, 0, 0.00000000000000000000e+00) (0, 0, 0.00000000000000000000e+00) (0, 0, 0.00000000000000000000e+00) (0, 0, 0.00000000000000000000e+00) (0, 0, 0.00000000000000000000e+00) (0, 0, 0.00000000000000000000e+00) (0, 0, 0.00000000000000000000e+00) (0, 0, 0.00000000000000000000e+00) (0, 0, 0.00000000000000000000e+00) (0, 0, 0.00000000000000000000e+00) (0, 0, 0.00000000000000000000e+00) (0, 0, 0.00000000000000000000e+00) (0, 0, 0.00000000000000000000e+00) (0, 0, 0.00000000000000000000e+00) (0, 0, 0.00000000000000000000e+00) (0, 0, 0.00000000000000000000e+00) (0, 0, 0.00000000000000000000e+00) (0, 0, 0.00000000000000000000e+00) (0, 0, 0.00000000000000000000e+00) (0, 0, 0.00000000000000000000e+00) (0, 0, 0.00000000000000000000e+00) (0, 0, 0.00000000000000000000e+00) (0, 0, 0.00000000000000000000e+00) (0, 0, 0.00000000000000000000e+00) (0, 0, 0.00000000000000000000e+00) (0, 0, 0.00000000000000000000e+00) (0, 0, 0.00000000000000000000e+00) (0, 0, 0.00000000000000000000e+00) (0, 0, 0.00000000000000000000e+00) (0, 0, 0.00000000000000000000e+00) (0, 0, 0.00000000000000000000e+00) (0, 0, 0.00000000000000000000e+00) (0, 0, 0.00000000000000000000e+00) (0, 0, 0.00000000000000000000e+00) (0, 0, 0.00000000000000000000e+00) (0, 0, 0.00000000000000000000e+00) (0, 0, 0.00000000000000000000e+00) (0, 0, 0.00000000000000000000e+00) (0, 0, 0.00000000000000000000e+00) (0, 0, 0.00000000000000000000e+00) (0, 0, 0.00000000000000000000e+00) (0, 0, 0.00000000000000000000e+00) (0, 0, 0.00000000000000000000e+00) (0, 0, 0.00000000000000000000e+00) (0, 0, 0.00000000000000000000e+00) (0, 0, 0.00000000000000000000e+00) (0, 0, 0.00000000000000000000e+00) (0, 0, 0.00000000000000000000e+00) (0, 0, 0.00000000000000000000e+00) (0, 0, 0.00000000000000000000e+00) (0, 0, 0.00000000000000000000e+00) (0, 0, 0.00000000000000000000e+00) (0, 0, 0.00000000000000000000e+00) (0, 0, 0.00000000000000000000e+00) (0, 0, 0.00000000000000000000e+00) (0, 0, 0.00000000000000000000e+00) (0, 0, 0.00000000000000000000e+00) (0, 0, 0.00000000000000000000e+00) (0, 0, 0.00000000000000000000e+00) (0, 0, 0.00000000000000000000e+00) (0, 0, 0.00000000000000000000e+00) (0, 0, 0.00000000000000000000e+00) (0, 0, 0.00000000000000000000e+00) (0, 0, 0.00000000000000000000e+00) (0, 0, 0.00000000000000000000e+00) (0, 0, 0.00000000000000000000e+00) (0, 0, 0.00000000000000000000e+00) (0, 0, 0.00000000000000000000e+00) (0, 0, 0.00000000000000000000e+00) (0, 0, 0.00000000000000000000e+00) (0, 0, 0.00000000000000000000e+00) (0, 0, 0.00000000000000000000e+00) (0, 0, 0.00000000000000000000e+00) (0, 0, 0.00000000000000000000e+00) (0, 0, 0.00000000000000000000e+00) (0, 0, 0.00000000000000000000e+00) (0, 0, 0.00000000000000000000e+00) (0, 0, 0.00000000000000000000e+00) (0, 0, 0.00000000000000000000e+00) (0, 0, 0.00000000000000000000e+00) (0, 0, 0.00000000000000000000e+00) (0, 0, 0.00000000000000000000e+00) (0, 0, 0.00000000000000000000e+00) (0, 0, 0.00000000000000000000e+00) (0, 0, 0.00000000000000000000e+00) (0, 0, 0.00000000000000000000e+00) (0, 0, 0.00000000000000000000e+00) (0, 0, 0.00000000000000000000e+00) (0, 0, 0.00000000000000000000e+00) (0, 0, 0.00000000000000000000e+00) (0, 0, 0.00000000000000000000e+00) (0, 0, 0.00000000000000000000e+00) (0, 0, 0.00000000000000000000e+00) (0, 0, 0.00000000000000000000e+00) (0, 0, 0.00000000000000000000e+00) (0, 0, 0.00000000000000000000e+00) (0, 0, 0.00000000000000000000e+00) (0, 0, 0.00000000000000000000e+00) (0, 0, 0.00000000000000000000e+00) (0, 0, 0.00000000000000000000e+00) (0, 0, 0.00000000000000000000e+00) (0, 0, 0.00000000000000000000e+00) (0, 0, 0.00000000000000000000e+00) (0, 0, 0.00000000000000000000e+00) (0, 0, 0.00000000000000000000e+00) (0, 0, 0.00000000000000000000e+00) (0, 0, 0.00000000000000000000e+00) (0, 0, 0.00000000000000000000e+00) (0, 0, 0.00000000000000000000e+00) (0, 0, 0.00000000000000000000e+00) (0, 0, 0.00000000000000000000e+00) (0, 0, 0.00000000000000000000e+00) (0, 0, 0.00000000000000000000e+00) (0, 0, 0.00000000000000000000e+00) (0, 0, 0.00000000000000000000e+00) (0, 0, 0.00000000000000000000e+00) (0, 0, 0.00000000000000000000e+00) (0, 0, 0.00000000000000000000e+00) (0, 0, 0.00000000000000000000e+00) (0, 0, 0.00000000000000000000e+00) (328, 4, 5.00000000000000000000e-01) (328, 4, 5.00000000000000000000e-01) (328, 4, 5.00000000000000000000e-01) (328, 4, 5.00000000000000000000e-01) (328, 4, 5.00000000000000000000e-01) (328, 4, 5.00000000000000000000e-01) (328, 4, 5.00000000000000000000e-01) (328, 4, 5.00000000000000000000e-01) (328, 4, 5.00000000000000000000e-01) (328, 4, 5.00000000000000000000e-01) (328, 4, 5.00000000000000000000e-01) (328, 4, 5.00000000000000000000e-01) (328, 4, 5.00000000000000000000e-01) (328, 4, 5.00000000000000000000e-01) (328, 4, 5.00000000000000000000e-01) (328, 4, 5.00000000000000000000e-01) (328, 4, 5.00000000000000000000e-01) (328, 4, 5.00000000000000000000e-01) (328, 4, 5.00000000000000000000e-01) (328, 4, 5.00000000000000000000e-01) (328, 4, 5.00000000000000000000e-01) (328, 4, 5.00000000000000000000e-01) (328, 4, 5.00000000000000000000e-01) (328, 4, 5.00000000000000000000e-01) (328, 4, 5.00000000000000000000e-01) (328, 4, 5.00000000000000000000e-01) (328, 4, 5.00000000000000000000e-01) (328, 4, 5.00000000000000000000e-01) (328, 4, 5.00000000000000000000e-01) (328, 4, 5.00000000000000000000e-01) (328, 4, 5.00000000000000000000e-01) (328, 4, 5.00000000000000000000e-01) (328, 4, 5.00000000000000000000e-01) (328, 4, 5.00000000000000000000e-01) (328, 4, 5.00000000000000000000e-01) (328, 4, 5.00000000000000000000e-01) (328, 4, 5.00000000000000000000e-01) (328, 4, 5.00000000000000000000e-01) (328, 4, 5.00000000000000000000e-01) (328, 4, 5.00000000000000000000e-01) (328, 4, 5.00000000000000000000e-01) (328, 4, 5.00000000000000000000e-01) (328, 4, 5.00000000000000000000e-01) (328, 4, 5.00000000000000000000e-01) (328, 4, 5.00000000000000000000e-01) (328, 4, 5.00000000000000000000e-01) (328, 4, 5.00000000000000000000e-01) (328, 4, 5.00000000000000000000e-01) (328, 4, 5.00000000000000000000e-01) (328, 4, 5.00000000000000000000e-01) (328, 4, 5.00000000000000000000e-01) (328, 4, 5.00000000000000000000e-01) (328, 4, 5.00000000000000000000e-01) (328, 4, 5.00000000000000000000e-01) (328, 4, 5.00000000000000000000e-01) (328, 4, 5.00000000000000000000e-01) (328, 4, 5.00000000000000000000e-01) (328, 4, 5.00000000000000000000e-01) (328, 4, 5.00000000000000000000e-01) (328, 4, 5.00000000000000000000e-01) (328, 4, 5.00000000000000000000e-01) (328, 4, 5.00000000000000000000e-01) (328, 4, 5.00000000000000000000e-01) (328, 4, 5.00000000000000000000e-01) (328, 4, 5.00000000000000000000e-01) (328, 4, 5.00000000000000000000e-01) (328, 4, 5.00000000000000000000e-01) (328, 4, 5.00000000000000000000e-01) (328, 4, 5.00000000000000000000e-01) (328, 4, 5.00000000000000000000e-01) (328, 4, 5.00000000000000000000e-01) (328, 4, 5.00000000000000000000e-01) (328, 4, 5.00000000000000000000e-01) (328, 4, 5.00000000000000000000e-01) (328, 4, 5.00000000000000000000e-01) (328, 4, 5.00000000000000000000e-01) (328, 4, 5.00000000000000000000e-01) (328, 4, 5.00000000000000000000e-01) (328, 4, 5.00000000000000000000e-01) (328, 4, 5.00000000000000000000e-01) (328, 4, 5.00000000000000000000e-01) (328, 4, 5.00000000000000000000e-01) (328, 4, 5.00000000000000000000e-01) (328, 4, 5.00000000000000000000e-01) (328, 4, 5.00000000000000000000e-01) (328, 4, 5.00000000000000000000e-01) (328, 4, 5.00000000000000000000e-01) (328, 4, 5.00000000000000000000e-01) (328, 4, 5.00000000000000000000e-01) (328, 4, 5.00000000000000000000e-01) (328, 4, 5.00000000000000000000e-01) (328, 4, 5.00000000000000000000e-01) (328, 4, 5.00000000000000000000e-01) (328, 4, 5.00000000000000000000e-01) (328, 4, 5.00000000000000000000e-01) (328, 4, 5.00000000000000000000e-01) (328, 4, 5.00000000000000000000e-01) (328, 4, 5.00000000000000000000e-01) (328, 4, 5.00000000000000000000e-01) (328, 4, 5.00000000000000000000e-01) (328, 4, 5.00000000000000000000e-01) (328, 4, 5.00000000000000000000e-01) (328, 4, 5.00000000000000000000e-01) (328, 4, 5.00000000000000000000e-01) (328, 4, 5.00000000000000000000e-01) (328, 4, 5.00000000000000000000e-01) (328, 4, 5.00000000000000000000e-01) (328, 4, 5.00000000000000000000e-01) (328, 4, 5.00000000000000000000e-01) (328, 4, 5.00000000000000000000e-01) (328, 4, 5.00000000000000000000e-01) (328, 4, 5.00000000000000000000e-01) (328, 4, 5.00000000000000000000e-01) (328, 4, 5.00000000000000000000e-01) (328, 4, 5.00000000000000000000e-01) (328, 4, 5.00000000000000000000e-01) (328, 4, 5.00000000000000000000e-01) (328, 4, 5.00000000000000000000e-01) (328, 4, 5.00000000000000000000e-01) (328, 4, 5.00000000000000000000e-01) (328, 4, 5.00000000000000000000e-01) (328, 4, 5.00000000000000000000e-01) (328, 4, 5.00000000000000000000e-01) (328, 4, 5.00000000000000000000e-01) (328, 4, 5.00000000000000000000e-01) (328, 4, 5.00000000000000000000e-01) (328, 4, 5.00000000000000000000e-01) (328, 4, 5.00000000000000000000e-01) (328, 4, 5.00000000000000000000e-01) (328, 4, 5.00000000000000000000e-01) (328, 4, 5.00000000000000000000e-01) (328, 4, 5.00000000000000000000e-01) (328, 4, 5.00000000000000000000e-01) (328, 4, 5.00000000000000000000e-01) (328, 4, 5.00000000000000000000e-01) (328, 4, 5.00000000000000000000e-01) (328, 4, 5.00000000000000000000e-01) (328, 4, 5.00000000000000000000e-01) (328, 4, 5.00000000000000000000e-01) (328, 4, 5.00000000000000000000e-01) (328, 4, 5.00000000000000000000e-01) (328, 4, 5.00000000000000000000e-01) (328, 4, 5.00000000000000000000e-01) (328, 4, 5.00000000000000000000e-01) (328, 4, 5.00000000000000000000e-01) (328, 4, 5.00000000000000000000e-01) (328, 4, 5.00000000000000000000e-01) (328, 4, 5.00000000000000000000e-01) (328, 4, 5.00000000000000000000e-01) (328, 4, 5.00000000000000000000e-01) (328, 4, 5.00000000000000000000e-01) (328, 4, 5.00000000000000000000e-01) (328, 4, 5.00000000000000000000e-01) (328, 4, 5.00000000000000000000e-01) (328, 4, 5.00000000000000000000e-01) (328, 4, 5.00000000000000000000e-01) (328, 4, 5.00000000000000000000e-01) (328, 4, 5.00000000000000000000e-01) (328, 4, 5.00000000000000000000e-01) (328, 4, 5.00000000000000000000e-01) (328, 4, 5.00000000000000000000e-01) (328, 4, 5.00000000000000000000e-01) (328, 4, 5.00000000000000000000e-01) (328, 4, 5.00000000000000000000e-01) (328, 4, 5.00000000000000000000e-01) (328, 4, 5.00000000000000000000e-01) (0, 0, 0.00000000000000000000e+00) (167, 4, 5.00000000000000000000e-01) (167, 4, 5.00000000000000000000e-01) (167, 4, 5.00000000000000000000e-01) (167, 4, 5.00000000000000000000e-01) (167, 4, 5.00000000000000000000e-01) (167, 4, 5.00000000000000000000e-01) (0, 0, 0.00000000000000000000e+00) 
connections (connected_to_neuron, weight)=(0, 7.45917096625536313326e+00) (1, 3.17287753305943942550e+00) (2, 2.46139689736687428123e-01) (3, 3.91200461890408206500e+01) (4, 6.02981350620451994615e-01) (5, -7.20967225733170624657e-01) (6, 2.83561050611559228862e-01) (7, 2.56736701891404628384e-01) (8, -2.28476690260646070341e-01) (9, 3.91973649691650081195e+01) (10, 1.94691462089097877541e-01) (11, 5.61001094547339040908e-01) (12, 1.01890706071436767388e+01) (13, -6.87584044399990901297e+00) (14, 5.91507363291352006307e-03) (15, -2.04696819424082347705e-02) (16, 1.60788325458481429209e-01) (17, 8.15000118923435157292e-02) (18, 1.51590110147770934512e-01) (19, 2.82794656734093145800e-02) (20, -1.01137108426431510111e+00) (21, -1.01561974715710601203e+00) (22, 4.69657687870554008125e-01) (23, 3.78512469210363688976e-01) (24, -1.52839415461621913606e-01) (25, 3.92311240266868281878e+01) (26, -4.08347188650926540276e+00) (27, 3.40525751146928332136e-02) (28, 1.29014180316919024882e+00) (29, -1.98658898509618958572e-02) (30, 5.18019861169499407083e+00) (31, 4.77503135725778626863e-02) (32, -1.01010645162583312384e+00) (33, -8.29816750105997202880e-01) (34, 3.80455037649378047249e-01) (35, 1.36365916710998125172e-01) (36, 1.01499384293139343072e+01) (37, 1.65866652587539270547e-01) (38, -2.14650416367751784019e-02) (39, 9.10226474107046001905e+00) (40, 2.28382716039306182809e-01) (41, 6.54541429343593605950e+00) (42, 2.82492161552722720330e+00) (43, 1.95735245493938420092e-01) (44, -7.30204198626149825202e-02) (45, 1.18703921600574191508e+00) (46, -8.97692159524954513827e-01) (47, -4.35512987860141365104e-01) (48, 2.83393929413218836899e-01) (49, 1.07648098194578586972e-01) (50, 1.00899992199421291161e+01) (51, -5.02318719978716243801e-01) (52, -1.88946638592455529171e-01) (53, -2.18852764645625619266e+00) (54, 6.69534341002170574342e-01) (55, 1.94684915691482135491e-01) (56, 6.48809483858716973259e+00) (57, 9.67635371369690439058e-02) (58, 4.78351652453158915357e-02) (59, 8.60617216611544305627e-03) (60, 5.25255747380300230809e-01) (61, 6.52774706799332138374e-01) (62, -1.22545102656168025668e-01) (63, 2.02051232705882238827e-01) (64, 5.36852829351786783874e-02) (65, 1.87241775438048263513e-01) (66, 2.98020949225242404168e+00) (67, 1.19030490068485192423e-01) (68, -8.66848237224442236259e-02) (69, -9.75672455685771211620e-01) (70, 3.91135483365365672626e+01) (71, -7.54288033515117728456e+00) (72, -4.27843230386010464628e-01) (73, 6.71933838748280942710e-01) (74, -7.63946564439319103501e-02) (75, 9.87871478431570776424e-02) (76, 1.11465506181392101648e-01) (77, 3.68526019908324564689e-01) (78, -1.00958197545529326788e+00) (79, 3.98963991434103881772e+00) (80, 5.86966848435854338106e+00) (81, 3.90883833300182033099e+01) (82, 2.92903406183536318963e+00) (83, 7.46200459394415815950e-01) (84, 1.38287639764149594690e-01) (85, 1.64818203627205690509e+01) (86, 1.31830799574719298439e-01) (87, 6.94272781107386549593e-01) (88, 7.83341741182867756788e-02) (89, 3.91443744059511828937e+01) (90, 1.17824946489577364606e-01) (91, 2.72393198277998682677e-02) (92, 3.06294784411093423682e-01) (93, 6.56161159778301028567e-01) (94, -9.39349843370354875560e-01) (95, 9.47649138998490347952e-02) (96, 1.10057668489490140251e-01) (97, 9.15718733669061535352e+00) (98, 4.56047637788347337562e-01) (99, 3.92455297689744639911e+01) (100, 6.49748027826015261965e-01) (101, -2.87071835671647346278e-01) (102, -1.60808418331182814143e+01) (103, 2.42974219092287135879e+00) (104, 6.33960023119979876327e+00) (105, -2.01133010772692216728e-01) (106, 5.71572471589449238039e-01) (107, 1.58551446778927684900e-01) (108, 6.27419981922667346907e-01) (109, -1.72907773318046575906e-01) (110, 4.25750501697992667083e-01) (111, 2.86940062429125575250e+00) (112, -4.93385162873057669941e+00) (113, 3.30765784829258557842e-01) (114, 7.74771717358172296031e-01) (115, -1.46065924528617885336e-01) (116, 2.95707461993510989373e+00) (117, -3.94353325891507200396e+00) (118, 3.99551305880181661934e+00) (119, 5.02096656015097730918e-02) (120, 1.69125441634045310668e-02) (121, 4.16513665557836143538e-01) (122, 3.92426553051778483905e+01) (123, 7.33543502372164724079e+00) (124, -4.52747603261776949274e-03) (125, -1.06681051920989844461e+00) (126, 6.32493282452159899520e+00) (127, 8.01553502310541586551e-03) (128, -1.07230506908038947245e+00) (129, -3.24497378774506461951e-02) (130, -9.10092607847250434361e-01) (131, 1.17833902283424007962e+00) (132, 4.24836036065384115012e-01) (133, 1.11985507390704730479e-02) (134, 4.86694261137481654078e-01) (135, 7.31568405609984395710e+00) (136, 4.01390318454033767637e+00) (137, 2.80268726919316146784e-01) (138, -7.93568768704835392214e-01) (139, 4.90446018841337524896e-02) (140, -7.95284453839179006351e-01) (141, -2.58700571341746243803e+00) (142, -2.03574579855317372434e+00) (143, 3.91413849796959567584e+01) (144, 4.03710918755061065610e+00) (145, -1.00903554502380399249e+00) (146, 1.57027686818095396637e-01) (147, 3.36367702326895723353e-01) (148, -3.81158696362513954581e-02) (149, 1.15580724442258364615e-01) (150, 3.65613950675128307477e-01) (151, 1.87723890298523127251e-01) (152, 2.26176792169388851672e-01) (153, 2.60148080995276309579e-01) (154, -2.85395258919484628990e+00) (155, 3.65944887307834920698e-01) (156, -9.07726613985932573314e-01) (157, 6.40456224176844557405e-01) (158, 1.33197489778157984741e-01) (159, 1.93669934117113334837e-01) (160, 1.49393909395149182551e-01) (161, 2.69762006419025812676e-01) (162, 2.38808394951603164547e-01) (163, -3.23473063681551653570e-01) (164, -4.45804550611105243618e-01) (165, 3.90522297080465961017e+01) (166, -1.22931634904311870571e+00) (167, 6.46639153677765365913e-01) (168, 4.58139599826384302794e-02) (169, -7.31274384743853200774e-01) (170, 1.35275078127576969811e-01) (171, 6.47309598353785070612e-02) (172, -1.50930670601261995856e+00) (173, -6.15308208100833642362e-01) (174, -2.98175911028615348020e-01) (175, 7.89609331353246846064e-01) (176, -3.88397353988899229904e+00) (177, 7.42875648448274450431e+00) (178, -2.70327709124572290733e+00) (179, 1.03105458620518786184e-01) (180, 3.28307548621779965448e-01) (181, 3.14017664772178350940e-01) (182, 3.91415770631143260516e+01) (183, 4.21263452866836751731e-01) (184, 1.55936710462245414766e-01) (185, 3.37272634428375361892e+00) (186, -8.68184691476262426768e-01) (187, 4.44979237436312402565e-01) (188, 2.36122480935331280349e-01) (189, -2.16487035364991253772e+00) (190, 4.71593603322719157056e-02) (191, 3.78838031741709074796e-02) (192, 1.91549011290481491221e-01) (193, -1.47861184588076488566e+00) (194, -2.15945177466474236283e-01) (195, 9.13951751757204888804e-01) (196, -2.62772078636019390530e+00) (197, 6.57228373947513588860e+00) (198, 1.67835339590174714708e-01) (199, 3.71221939829540548139e-01) (200, 1.40087695876246975946e-01) (201, 2.61134407324125794592e-01) (202, 1.10452682414721600757e-01) (203, 1.37588811228468083092e-01) (204, 7.94756635281175655150e-02) (205, 7.26601309907097814289e+00) (206, 5.32008119243923882635e-01) (207, 1.10943271728392067743e+00) (208, 2.16806226521134071117e-01) (209, 1.01566078165352706719e+01) (210, 8.70204140413344262583e-01) (211, 1.50321372591139729158e-01) (212, 5.44928625542465905340e-01) (213, 2.67456343934518336880e-01) (214, 5.00376371674282338642e-02) (215, 5.64459440569627624029e+00) (216, 9.39497247263712254028e-02) (217, 8.68796601816934632723e-02) (218, 1.69544907965688640417e+00) (219, 7.33686253319948544771e+00) (220, -1.06244712393621298929e+00) (221, 2.07791260785337383865e-01) (222, 3.07878511403203380947e-01) (223, 8.92170730821442603542e+00) (224, -1.07172683252236944362e+00) (225, 1.12037410606420431702e-01) (226, 5.79678158395636258793e-02) (227, -9.47371682333386644359e-01) (228, 6.22703173779790342124e-01) (229, -5.79758898394597155246e-01) (230, 5.67680477063076116551e-02) (231, -6.21930573278133280724e-01) (232, -4.00879211452616690536e+00) (233, 1.74626348187005897561e-01) (234, 1.90163959109102470579e-01) (235, 1.51295957955452659710e-02) (236, -5.06681911373276117061e-01) (237, -1.59409321521855193993e+01) (238, -2.09897516159044755790e-01) (239, -1.71740932651923028374e-01) (240, 4.44596225492731145224e-01) (241, 9.98647426170270503809e-03) (242, -4.87459606834274999931e-02) (243, -1.38793096632562312776e-01) (244, 7.01185415287024493836e-01) (245, 5.66000514048878411444e-01) (246, 4.22245835955843196174e-01) (247, 3.70832518785595532940e-01) (248, 1.00765078091800575066e+01) (249, 6.11420250733557768541e-01) (250, -9.16060729133523210521e-01) (251, 1.60052400197389799175e+00) (252, 3.51605307558342183860e-01) (253, 6.41986245128286370232e+00) (254, -1.60304573119483623200e-01) (255, 1.86613991781992144547e-02) (256, 7.12568045532684657406e-02) (257, 4.10927487795947343763e-01) (258, 3.63120400415743171951e-01) (259, -2.57718308349164482163e-01) (260, -2.17181280941568077836e-01) (261, 3.75577465742230054424e-01) (262, 6.37577191311661461981e-01) (263, 7.54266960975147615631e-02) (264, -7.12525366356309974858e-02) (265, 9.01278612185061334117e-01) (266, 9.10596465469140881055e+00) (267, 2.12735490957385586785e-01) (268, 3.52465722605755082952e+00) (269, 9.50416535451577004778e-02) (270, -1.93081883577333940361e-01) (271, 1.10239625988051870298e-01) (272, 2.63423116057514783428e-01) (273, 6.00957459210391342630e-01) (274, 8.78316050632314437863e-01) (275, -1.41330834258443260865e+00) (276, -1.18108148936240421600e-02) (277, 1.81903373346699126500e+00) (278, 1.06638911763784247078e-01) (279, 4.80276074932920182814e-01) (280, 1.08464249360031822489e-01) (281, 2.28890594541894532021e-01) (282, 1.40295319009270591515e+00) (283, 7.67626103926241754039e-01) (284, -5.57215880145800479539e-01) (285, 2.45217584789207410090e-01) (286, 1.87054769661474940001e-02) (287, 5.80323982696283202642e+00) (288, 5.89485767423759465800e-01) (289, -9.92145583740271064244e-01) (290, 4.32228280602927450449e-01) (291, 3.03464979975819226787e-01) (292, 6.57839105489624031975e+00) (293, 7.99903013724625466807e-01) (294, 3.27680581033637952082e-01) (295, -1.07000997733215186258e+00) (296, 1.35079314037571424079e-01) (297, 1.13941358236447798369e+00) (298, 1.65903726871121093289e-01) (299, 2.80930276330343842162e-01) (300, 7.26650414584931780837e+00) (301, 1.61112833987486409049e-01) (302, -1.00249401311818431282e+00) (303, 3.05813016746640575771e-01) (304, 3.01458926048660647012e-01) (305, 1.07124579260542085457e-01) (306, 8.27098404038489221080e-01) (307, -1.52369403035245570832e-01) (308, -4.60129549690185157829e-01) (309, 2.82712828615471145621e-01) (310, 4.67699175915839204798e-01) (311, 9.61598764306736963903e-01) (312, -9.31688895630276903148e-01) (313, 3.74127068346658153697e-01) (314, 6.26789154135529935630e-01) (315, 8.46750183230379760424e-01) (316, 1.00463451925243502094e-01) (317, 3.47762482522711913191e-01) (318, -2.26605052260634626249e-01) (319, -2.80104984021906366909e-01) (320, 2.94111769656951693719e+00) (321, 1.41794442917443259955e-02) (322, -1.12812841841867261827e+00) (323, -1.02231744002441260477e+00) (324, -8.88802370237744665538e-01) (325, 2.02295719000577273183e-01) (326, 1.85115714941434061913e+00) (327, 1.91756220018876218092e-02) (0, 4.63529031082840048406e-01) (1, 2.91245919145416864993e+00) (2, 3.03239070848981695505e+00) (3, 3.92083309423038173236e+01) (4, 9.66546140406170928294e-02) (5, 1.80633232081756744947e+00) (6, -3.14847052437193974939e+00) (7, -1.67922957980526064148e+01) (8, -2.02623926563844669602e+00) (9, 3.90956914480635333575e+01) (10, -2.55793144774847469591e+00) (11, 1.74085292876499142523e+00) (12, -4.92583210196902709921e-01) (13, -3.25034048118042484532e+00) (14, 3.18051892870357011400e-01) (15, -8.58033299588696563021e-01) (16, -7.49386725160969269233e-03) (17, -1.67211584591758821716e+01) (18, -1.67090148323667619934e+01) (19, -1.70556815661633054404e-01) (20, 2.93428495206679684770e-01) (21, -9.96436557701857572589e-01) (22, 3.02498602346937017771e+00) (23, 2.01818885764743072286e+00) (24, -2.14214480900400161545e+00) (25, 3.92244950365134883441e+01) (26, -1.99036684065130115018e-01) (27, -1.03503058613503995389e+00) (28, 3.06043760386219332315e-01) (29, 1.43655637670247804394e-01) (30, 1.48763895054996742040e+00) (31, 3.03125089631835775705e+00) (32, -1.05186258216891825867e+00) (33, -5.31197126655355900127e-01) (34, 7.84192651790917572008e-01) (35, -2.14965775096052169602e+00) (36, 7.62453293294226286392e-01) (37, 3.75896446311726473155e-02) (38, 4.38763082477028776296e-01) (39, -4.54394916620662170370e-01) (40, -1.06232926176648562189e-01) (41, 5.72157092613386653035e-01) (42, 2.76750507122354050260e-01) (43, 1.70674021167935396903e+00) (44, 3.13431068551729530292e-01) (45, -2.13289397207770647924e+00) (46, 2.85272527420570132239e-01) (47, -5.90059830071519852979e-01) (48, -3.91583883669087100543e+01) (49, 3.02394648121158438059e+00) (50, 3.72789930334878338858e-01) (51, -6.75954489809141412238e-01) (52, -3.90600467007466960467e+01) (53, -5.52288572935835331279e-01) (54, 2.08881248970696681289e-01) (55, 2.62372634911229529742e-01) (56, 6.85525834677615186763e-01) (57, 6.45230279924981608985e+00) (58, 3.09682856851508592211e-01) (59, 1.63679526265099184457e-01) (60, 2.35743950658728940173e-01) (61, -6.34868082533534966450e-02) (62, 2.30736206823279721423e-01) (63, 2.03868204665359531447e+00) (64, -2.56467104554468772193e+00) (65, 1.70592482700583136790e+00) (66, 3.20832493641830085451e-01) (67, 1.62079412861050631278e+00) (68, -1.00469032076271913567e+00) (69, -4.11326427034970354413e-01) (70, 3.91936882566520381488e+01) (71, -9.07476535967619790668e-01) (72, -1.24203095326641022034e+00) (73, 2.98487519739103202010e-01) (74, 1.28859504100453459152e+00) (75, -6.01522227944921494824e-01) (76, -1.73251527970512375632e+00) (77, -4.09751072945865324471e+00) (78, -4.13636223712254946783e-01) (79, 2.90735050656159121907e-01) (80, 4.97090173344213126505e-01) (81, 3.91254779603192019977e+01) (82, 4.37387274867372055631e-01) (83, -1.99697075238823229526e+00) (84, 1.27857156050550646587e-01) (85, 9.90995471086144164019e-01) (86, 3.07811784098873220117e-01) (87, 1.32674759985192647349e+00) (88, 1.59201548512413637582e-01) (89, 3.92115281205484080829e+01) (90, -4.78647115264105693644e-01) (91, -4.09776588807433839179e-01) (92, 2.53104320758361478472e-01) (93, 2.95015482128166917075e-01) (94, -6.05967182366625278789e-01) (95, 5.96635485934882581205e-01) (96, 5.09060630560149629531e+00) (97, -5.69058353629519952932e-01) (98, 1.98887847474480872201e+00) (99, 3.91089131180056739368e+01) (100, 3.51459418001433043788e-01) (101, -6.47711798249260395366e-01) (102, -1.05109110278162254382e+00) (103, 1.23305437155236535807e-01) (104, 1.18932168193026499559e+00) (105, -2.03048548417883445438e+00) (106, -6.65827907862159751318e+00) (107, 5.38721854089474927463e-01) (108, 5.15783055167772896965e-01) (109, 1.02718896195774744839e+00) (110, 2.07527805444960122827e+00) (111, 3.07960237303233741457e-01) (112, -2.86359538180012451747e+00) (113, -1.15357046852193001474e-01) (114, -2.64581185835521237593e+00) (115, 1.48819041718645261874e+00) (116, 4.36535613900498886686e-01) (117, -2.53706220949601402026e+00) (118, 1.27310142796875913618e+00) (119, -1.03557243474486648793e+00) (120, 1.34811621635865908075e+00) (121, 3.35110398785616186990e-02) (122, 3.91311720069357562579e+01) (123, 1.16650909937783198167e+00) (124, -5.00796653413801973187e-01) (125, 1.70418604888762759142e-01) (126, 1.16113136343522982408e+00) (127, 2.95194360666452326747e-01) (128, 3.38417842664565426958e-01) (129, 9.50852075450248412913e-01) (130, 2.49844789185370730333e-01) (131, 5.39003739949969196132e-01) (132, 4.39419976652506427683e-01) (133, 8.34690198582947795458e-01) (134, 3.85841218074033043273e-01) (135, 4.30502943822458683520e-01) (136, 3.11264797665436465657e-01) (137, 2.20982606797289010681e-01) (138, -2.59068998924182913868e+00) (139, 1.54606642141577399485e+00) (140, -3.90723091345140147723e+01) (141, -5.02217469229322599489e+00) (142, -5.07079881211690786103e+00) (143, 3.90772278215595889606e+01) (144, 2.01131343461830786046e-01) (145, 1.76410231843890530357e+00) (146, 1.28030593745885712398e-01) (147, -3.91947609651693511523e+01) (148, -3.90509138982602763690e+01) (149, 9.26388149579577824255e-02) (150, -8.52791960765245349307e+00) (151, 1.50300963401319442880e+00) (152, -3.92162779774376559772e+01) (153, 6.58412837389575056335e+00) (154, -1.06261777036550819631e+00) (155, -6.50015979328252768710e+00) (156, -6.02572623340860813457e-01) (157, 3.10037655775672216230e-01) (158, 2.27162575745974981700e+00) (159, -1.71722608605297359929e+01) (160, 1.71122120829444473999e-01) (161, 7.20359979709724873587e-01) (162, 3.32912243996755119468e-01) (163, 1.41406966467304395785e+00) (164, 2.35593464769162252992e+00) (165, 3.92007203977414775409e+01) (166, 1.85372463897603001470e+00) (167, 8.44462649682991978173e-02) (168, -8.51635788105831403882e-01) (169, 1.78102035925092083701e+00) (170, 1.19158394723684724070e+00) (171, 2.92062599042544279726e-01) (172, 1.50300366169759058721e+00) (173, 1.91940283140803602535e+00) (174, 8.68203109337795431166e-01) (175, 4.46839489788895694033e+00) (176, -2.90025497073195248632e+00) (177, 1.03143278446776598400e+00) (178, -6.97844906550512567023e-01) (179, 4.78027155261111169615e-01) (180, -9.58475123054877142792e-02) (181, -4.16996770912464675973e+00) (182, 3.91687175240227389850e+01) (183, 5.23463032425287799754e-01) (184, -3.35170551197719968073e+00) (185, 1.02563379013432265374e+00) (186, -5.95489930062071293193e-01) (187, 1.27487293122215822327e-01) (188, 7.99245926889694091599e-01) (189, -9.47725257805617338214e-01) (190, 2.64251886407861735773e-01) (191, -1.40813685333637739205e+00) (192, 6.95680404719406092484e-02) (193, 3.60700241603283955349e-01) (194, -3.17537597161658391443e+00) (195, -1.43189339270343474197e+00) (196, -6.71684410123602360088e-01) (197, 6.40501974585168376564e+00) (198, -2.40366871827255756955e+01) (199, -6.33460064300395941927e+00) (200, -9.21912043558172772384e-02) (201, 5.90692660988215045847e-01) (202, -2.05618805414784810992e+00) (203, 1.68296282305952704661e+00) (204, -1.29719793176559949899e+00) (205, 6.13014981278494297534e-01) (206, -3.16939709072023914627e-02) (207, 5.23704474777211625991e+00) (208, 3.11166840146312795312e-01) (209, 1.09890003426764160110e+00) (210, 7.46005262502275456882e+00) (211, -6.95071915991202216034e-02) (212, 4.14415808762014226119e-02) (213, -3.91790567841240573443e+01) (214, 1.04345245436316202969e+00) (215, 5.28489025305916015895e-01) (216, -1.19127029533875261613e+00) (217, -1.15492970849764642338e+00) (218, -5.32953683191215077386e+00) (219, 7.54615834418768949288e-02) (220, 1.00766773008682974933e-01) (221, 6.42966379735054882616e-01) (222, 2.40185398214747769519e-01) (223, 1.25027710951729731370e+00) (224, -1.00862057701199017146e+01) (225, -2.56677435934836051246e+00) (226, -1.72242353378841750455e+00) (227, -6.92066938508929196949e-01) (228, 3.16503037276526122401e-01) (229, 1.25084329184662901291e+00) (230, -3.90937665980168986835e+01) (231, 3.09196915950518880223e+00) (232, -1.32839702800729373422e+01) (233, -1.68146793066570632291e+00) (234, -1.83138734105219791459e+00) (235, -3.91991364452847648181e+01) (236, -3.91895800549396682300e+01) (237, -1.08536440829012481579e-01) (238, -1.83539343270685217924e+00) (239, -4.96813411808825489135e-02) (240, 2.62962878090782714580e+00) (241, -3.91707126479455638446e+01) (242, -4.74444093126629518054e+00) (243, -1.37287248796133543038e+00) (244, 2.30255653774060053962e+00) (245, 3.17028168450523839539e-01) (246, 4.23743072155165212411e-01) (247, 5.77332459722349033981e-01) (248, 6.40069847255745782988e-01) (249, 1.54522111246351373515e-01) (250, -6.02533805815950840312e-01) (251, 4.60164346250470146504e-01) (252, 4.98430281163099841990e-01) (253, 5.09943007488248056802e-01) (254, 2.31629687571918019273e+00) (255, -1.60953463050436518245e+00) (256, 1.82364917830365147466e+00) (257, -5.46437881380861245617e+00) (258, -5.13830773697415699175e-03) (259, -2.18256712308872558026e+00) (260, -2.67486394600126287102e+00) (261, 3.33488717480669383253e-01) (262, 3.23299966657414339366e-02) (263, 1.23368172135722242722e+00) (264, -1.50974979481482945998e-01) (265, 7.90080536173528025223e-01) (266, -5.93057806220462335745e-01) (267, -1.03544431448687634933e-01) (268, 2.21685635623697718799e+00) (269, -2.14842687071074567307e-01) (270, -2.81397646557772329601e+00) (271, 2.98985262109436045197e-01) (272, 3.18461699097052464147e-01) (273, 6.90163992530991726726e-02) (274, 7.18357107770260050472e+00) (275, -7.38030504905090589673e-01) (276, -2.99030141601478094415e+00) (277, 7.08277673784079464525e-01) (278, -2.86635624509537390026e+00) (279, -1.77503009403974509883e-03) (280, 1.42617852316912907540e+00) (281, 2.41683968057472720048e-01) (282, 1.86471940541960923277e-01) (283, 3.00502969120961349603e+00) (284, 1.12900330262430137473e+00) (285, -3.70877758141878455245e-02) (286, -4.52458506355613465644e-01) (287, 4.55184908579994385036e-01) (288, 3.92052292506331756528e+00) (289, 2.37468030238200816795e-01) (290, 2.12166575576291788208e-01) (291, 1.57436810239324903593e-01) (292, 4.95617449504541895955e-01) (293, 1.29133062943437648684e+00) (294, 3.17155989663149145974e-02) (295, 1.93866307520249137042e-01) (296, 1.98142596599640230526e-01) (297, 2.96186135561625318857e+00) (298, -1.13609868285507370489e-01) (299, -4.69187647577646582686e-02) (300, 2.51797196680127344237e+00) (301, 4.60825827255718079023e-01) (302, -1.55203317882634594937e+00) (303, 3.09253104920518051557e-01) (304, 1.77186444027604128593e+00) (305, 1.24317783206255350059e+00) (306, 5.86719832394869467151e-01) (307, 1.45406696666879819979e+00) (308, -2.27830999089438623884e+00) (309, 5.41733979464415149607e-01) (310, -3.91147871147700953998e+01) (311, 1.80922349081175770635e+00) (312, -6.52354310898558109599e-01) (313, -9.87372335324638861209e-02) (314, 5.98254914331107556791e-01) (315, 2.22011599382079882758e+00) (316, -3.40904725078622927725e+00) (317, -3.09046828511113369498e-02) (318, -1.35109768364790605588e+00) (319, 6.46574305236036622757e-02) (320, 2.74524654188609718020e-01) (321, 1.52054765896615262655e+00) (322, 1.07328402344074835817e+00) (323, 9.85005224579360572079e-02) (324, -5.19180144815222233134e-01) (325, -1.72909317338736805425e+01) (326, 1.36703876603924001643e+00) (327, 2.83093992141598194134e-01) (0, -8.24580799549325860198e+00) (1, -9.94253578847561314547e+00) (2, 1.39891057513361564274e-02) (3, 3.91664639841624904193e+01) (4, -5.28158288009902721072e-01) (5, -1.15791391793930498189e-01) (6, -9.87597368481417936525e-02) (7, -1.50441163101947528169e+00) (8, -6.39401893900626849820e-01) (9, 3.91957937013217616595e+01) (10, -1.58772209944468167819e-01) (11, -3.76642835991849622701e+00) (12, -3.91461326461145091571e+01) (13, -1.54494095879659587567e+00) (14, -1.72407520628714472366e+00) (15, -1.92526849183582378089e+01) (16, 5.52922638220123774389e-01) (17, -7.30970082470927540186e-01) (18, -1.13129192035510084402e+00) (19, 2.20825673383490483914e+00) (20, -4.31825252374689494417e+00) (21, -9.02426936787528832795e-01) (22, -5.56084309956627276250e-01) (23, -5.78367662868099596807e-01) (24, -1.84344786413760786115e-01) (25, 3.91379601340600657977e+01) (26, -4.83714029996832461933e+00) (27, -3.07413097564851856003e-01) (28, -1.72187676677377972112e+01) (29, -3.97772266132883434153e+00) (30, -1.88935325308022754598e+01) (31, 4.30849232982517593715e-01) (32, -1.84258843443826647590e-01) (33, 1.37984592386905435824e+00) (34, -1.33698910386183360544e+01) (35, -2.25002165866162451291e-01) (36, -3.91685208882996249713e+01) (37, -2.56482966241397214446e-01) (38, 1.74974107940860656996e+00) (39, -3.92175796683737445392e+01) (40, 3.73369911189622261105e-01) (41, -3.91072424482413936175e+01) (42, -3.46083562534494948437e+00) (43, -2.11099162512142246584e+00) (44, -2.97573412110208970205e+01) (45, 2.98514352391539505849e-01) (46, -4.29520885026137744234e+00) (47, -7.62052741323497984105e-01) (48, -1.38080762395417910859e+00) (49, 1.58037273837243197327e-01) (50, -2.40270007499467403989e+01) (51, -8.71503197711868349273e-01) (52, -1.01206501012079486124e+00) (53, 9.32964831995783061558e-01) (54, -1.73303277218611988530e+01) (55, -1.72676921808989796148e+01) (56, -3.90488200168916392840e+01) (57, 8.44089322142472564536e-01) (58, -1.32612988040664294687e+01) (59, -2.14451333061856264095e+00) (60, -6.97234600454679043224e+00) (61, -1.77104964849509799452e-01) (62, -1.65463893926882654739e+00) (63, -2.27053935680909102501e+00) (64, -3.28599866573488330612e-01) (65, -8.19725701030032283256e-01) (66, -4.26120425513069545076e+00) (67, -1.91216687458895755469e+01) (68, -8.78682878139500356252e-02) (69, 2.22060293345524417674e+00) (70, 3.91515895705529857196e+01) (71, -4.81685319929585409326e-01) (72, -7.79896910097638174086e-01) (73, -1.71546518901260647283e+01) (74, 4.40860050921168367122e-01) (75, 5.15396373729860718393e-02) (76, -1.63361064744282247219e-01) (77, -1.44922334263038105062e-01) (78, -8.89818478165922965850e-02) (79, -8.27065345171707710925e-01) (80, -1.82260650767219867241e+00) (81, 3.90674311201879191913e+01) (82, -4.61202238890049542874e+00) (83, 7.82976928828949259032e-02) (84, -2.13020175197891487029e-01) (85, 8.47331836144245897913e+00) (86, -1.34008245826580623117e+01) (87, -2.74616771109740795964e+01) (88, -1.30414732006213784921e+00) (89, 3.90696249063917804278e+01) (90, 1.33892963373486262313e+00) (91, 1.89529303289739131655e-01) (92, -1.16518660043004818050e+01) (93, -1.72099995711715969549e+01) (94, 2.24726709737254726207e+00) (95, -4.92505958385956787993e+00) (96, 2.39013921400667328498e+00) (97, -3.91742078494140315570e+01) (98, -2.11223497831487661003e+00) (99, 3.92135976385184932269e+01) (100, -1.71612742045791897283e+01) (101, 2.37439737110211002147e+00) (102, -6.31355438969240512215e-02) (103, -1.01485510242510645895e+00) (104, -4.88118368244754030627e+00) (105, -3.31110282995553673047e-01) (106, -4.34242745497130822052e-01) (107, -1.59724618962168296576e+00) (108, -1.34066379726746180978e+01) (109, -2.77248836275979682053e-01) (110, -1.59764201114645665314e+00) (111, -9.97156450183389964081e+00) (112, 1.54622045852600553673e+00) (113, -3.59279136777569285677e-01) (114, 1.59214968245902588340e-01) (115, 3.61222362205707470117e-01) (116, -4.59823757799980725736e+00) (117, -4.69730369988136275960e-01) (118, -1.53511177217724430477e+01) (119, -2.97574046457551033562e-01) (120, -1.96030113237338765586e-01) (121, -2.24282725826901341293e+00) (122, 3.91285351868578601398e+01) (123, -4.80329207933531954211e+00) (124, -2.74782175292786201570e-01) (125, -4.27077258875648890779e+00) (126, 8.43536035041130816126e+00) (127, -2.20378650527530073333e+00) (128, -2.07761230079637382318e+00) (129, 4.39346258507810949467e-01) (130, -2.66455719105301902516e+00) (131, -1.71609807411106380926e+01) (132, 3.84283835226513925676e+00) (133, -1.32743750945546725717e+01) (134, -1.72138191113146099553e+01) (135, 5.84508316302568164957e-01) (136, -6.46299865368622383777e-01) (137, -8.60744619636633423454e+00) (138, -7.39694697412233925782e-01) (139, -1.90501594613374325426e+00) (140, -5.92701398026789672002e-01) (141, -3.01966346085416459388e+00) (142, -9.31198554864109628859e-01) (143, 3.91407503988453555621e+01) (144, 1.12223544015912413130e+00) (145, -2.19313967761768868758e-01) (146, -5.20553146830765989250e+00) (147, -1.42803736844814044282e+00) (148, -1.83834190329333657665e+00) (149, -1.33512444999835611092e+00) (150, 1.73889524887924779017e-01) (151, -3.31406060360839038736e+00) (152, -1.78614538570662850780e+00) (153, 1.19504351376829216491e+01) (154, -1.01264904544965728128e+00) (155, -7.14574655446414830351e+00) (156, 2.36940080313755618846e+00) (157, -3.90994954984494853534e+01) (158, 3.20924742207252422510e-01) (159, -2.16906199516993247745e-01) (160, -2.14675217793387407283e+00) (161, 2.47426487527428751179e+00) (162, -1.79776630438555429237e+00) (163, 3.63335793897830883203e-01) (164, -2.79314928060379163988e-01) (165, 3.91913695912667918719e+01) (166, -8.79432071530940939752e-01) (167, -2.44767621547103519930e+00) (168, 1.46703612723771814608e+00) (169, -3.35122182404961899138e+00) (170, 2.53791112910053517915e-01) (171, -1.42951489206751336525e+00) (172, -2.14317107790374761223e+00) (173, -2.12384812378549581169e+00) (174, 1.60245377671799416053e-01) (175, -5.68154854158439137635e-02) (176, -1.39089183628957102634e+00) (177, -1.66803855807189123084e+01) (178, -4.64796548723444891138e-01) (179, 1.36771883734885935091e+00) (180, 7.40473374879528689618e-01) (181, -2.07517601345866359308e-01) (182, 3.91802909951516795672e+01) (183, 3.74989907229163232927e+00) (184, -2.99949936178502074569e-01) (185, -3.00060692035431060276e+01) (186, 2.40642021982742893016e+00) (187, -5.40960616735563259994e+00) (188, -1.15494044631336798545e+01) (189, -4.40283285468087148828e-01) (190, -1.33773124576428035226e+01) (191, -1.56829331052567660931e-01) (192, -1.43267599855800908948e+00) (193, -2.09874474777075725740e+00) (194, -1.79289732239916149714e-01) (195, 7.57663544524961735105e-02) (196, 1.44969221868936304354e+00) (197, -2.07458001900385724525e+00) (198, -1.24111966932400918928e+00) (199, -2.40258511253606350522e+01) (200, 7.81427107906509821333e-01) (201, 1.15978298581252925459e+00) (202, 5.70367576937830383921e-02) (203, 2.99221482585212861238e-01) (204, -1.57136376929547488812e-01) (205, 6.40635808640987125528e-01) (206, -1.55843381785639234494e+00) (207, 6.21151412267585456561e+00) (208, -1.32958860383250812021e+01) (209, -2.75597604729573788518e+01) (210, -8.44168912327571130394e-02) (211, 8.19547042405773584761e-01) (212, -2.64769404529761720468e+00) (213, -1.35333590278184634492e+00) (214, -2.33792019279682128374e-01) (215, 8.45713574508942400598e+00) (216, -3.89788802243537180203e-01) (217, -4.39519989765948526639e-01) (218, -7.00055051150922658110e+00) (219, -3.15753892457459084397e+00) (220, -4.31132794668953334138e+00) (221, -5.44690587111370128071e+00) (222, -1.72814454907449039922e+01) (223, 1.95868801843564455112e+00) (224, -8.00515918283895677732e-01) (225, -2.00249987008314755954e-01) (226, -4.19644743297969913254e-01) (227, 2.26351131140066730296e+00) (228, -1.72874936187537464605e+01) (229, 4.30711942418798232612e-01) (230, -1.38916185566938144014e+00) (231, -3.75871928422913503809e-01) (232, -4.10732356467151116242e-01) (233, -3.09046784701090482272e-01) (234, -1.14437014514574247892e-01) (235, -6.41775225886855316126e-01) (236, -9.74511841287539093415e-01) (237, 3.67225400730950024553e+00) (238, -2.15976747878642766354e-01) (239, -2.35424044584652225609e+00) (240, 1.03822891577034337462e-01) (241, -1.06599805687896975748e+00) (242, -2.75056665981130266108e-01) (243, -3.73740422733874977368e-01) (244, -2.39315841221224339108e+01) (245, -2.53897073879957790865e+00) (246, -1.32595685110309222665e+01) (247, -7.20640499379605525831e+00) (248, -3.91354522313782382525e+01) (249, -3.62201876415626866645e+00) (250, 2.29624523608757602489e+00) (251, -3.41331243103097170533e+00) (252, 3.75630765938975397233e+00) (253, -3.92027597036072421588e+01) (254, 3.59445070907794872461e-01) (255, -3.36605842686957590359e-01) (256, -2.49667056147639065955e+00) (257, 2.03814482376300731836e-01) (258, -4.08088631638052534711e-01) (259, -4.98816899005262437417e-02) (260, -8.29061564329151845509e-02) (261, -1.73406910473378452764e+01) (262, -1.63324147460021579237e-01) (263, 3.25126998960348578827e-01) (264, 7.69204624152351801314e-01) (265, -3.16376978102459238684e-01) (266, -3.91521075796195674457e+01) (267, 7.62108594334294009442e-01) (268, -8.24584353476270592864e+00) (269, 1.61016382014420100788e+00) (270, -2.96445231147857368725e-01) (271, -3.37932249198165512993e+00) (272, -1.33878762968697646585e+01) (273, -3.45894431342714536726e+00) (274, -2.07024367418879334801e-01) (275, 1.47061915615026239657e+00) (276, 2.93690403983318248926e-01) (277, -7.00424227419500233793e+00) (278, 2.20623275325023571192e-01) (279, -1.15375058072126401854e+00) (280, -8.46067589306953360406e-01) (281, -1.72657367015155109868e+01) (282, -2.10760979114280555535e+00) (283, -2.14614294231732227747e-01) (284, -6.26633613768736857930e-02) (285, 1.71120486890938328095e+00) (286, -1.22019561599869430513e-01) (287, 8.33063673297680651331e+00) (288, -1.27480053937966228972e+01) (289, -4.29183332001845752046e+00) (290, -5.37673739461050015365e+00) (291, -1.71716541299494060979e+01) (292, -3.91370887886592555560e+01) (293, -2.77176679614319132483e-01) (294, -2.11976635382575029354e+00) (295, -2.00829577950940940667e+00) (296, -5.48790195325374985380e-01) (297, -9.76417046749354256008e-01) (298, -5.13898596402980301079e-01) (299, -2.37657527505023091763e+00) (300, -2.38803955488812000851e+01) (301, -7.83320262709239223398e+00) (302, -5.11919061164419209042e-02) (303, -1.40192862944640825873e+01) (304, -1.91591520357274127662e+01) (305, 4.03021436641952557345e-01) (306, 3.90242878936511883303e-01) (307, 2.57855115518295208155e-01) (308, -1.12369567350376908799e+00) (309, 3.77880093986012521867e+00) (310, -1.45044218817508441255e+00) (311, -1.90836060392998767554e+01) (312, 2.29519465206934558665e+00) (313, -4.34763209904519865034e+00) (314, -6.99046187520137340954e+00) (315, -1.23633935866782085355e+01) (316, -1.60388464393358853854e-01) (317, -3.96419041943598404742e+00) (318, -2.57505908699520225102e-01) (319, 1.43374487946302392460e-01) (320, -2.62810789279042289479e+00) (321, -2.78870082613870307053e-01) (322, -2.44010666365464312655e-01) (323, -4.29785841455738459871e+00) (324, 2.31129862754418002879e+00) (325, -7.21116271370872130575e+00) (326, -5.49461944860216178199e+00) (327, 9.04386245474571304204e-02) (0, -2.39002775126110584836e+01) (1, -9.81553580917482682011e-01) (2, 1.02560605566632379038e+00) (3, 3.90735029559442210711e+01) (4, -9.76295906573431793163e-01) (5, 1.61964501650930370324e+00) (6, 5.11868835865925797535e-01) (7, -8.96602864066665006249e-01) (8, 5.55633707233219142907e-01) (9, 3.91145885195442843951e+01) (10, 3.56955231311624598955e-01) (11, -1.80811803708608269392e-02) (12, -2.97257663433551293508e+01) (13, -1.14705879898138851658e+00) (14, -6.58869884773061631478e-01) (15, -1.78330515484066776111e+00) (16, -8.41408435527103981677e-01) (17, -4.52021503874884045260e-01) (18, -1.34985536184804022497e+00) (19, 2.49157635640378316566e+00) (20, -1.98859592287050102044e+00) (21, -1.68518184031001050371e+00) (22, 2.28697716587915245157e+00) (23, 2.26307465279235664468e+00) (24, 8.63480152733269612497e-01) (25, 3.90529410447785068072e+01) (26, -5.21182358654514832352e+00) (27, 4.35958224935969529401e-01) (28, -1.56389771385748499455e-01) (29, -7.40865695012227032379e+00) (30, -4.04545405315766881671e+00) (31, 2.69762587688042820844e+00) (32, -1.14598654568672131404e+00) (33, -1.49226153645250092517e+00) (34, -5.79017397713949399929e+00) (35, 7.11079857003919402203e-01) (36, -1.98651257193383656841e+00) (37, -9.45410741312212143939e-01) (38, -1.73465781533988270269e+01) (39, -3.90852524321386027850e+01) (40, -1.04132754389867043798e+00) (41, -2.55340042387076202601e+01) (42, -2.08759681640373084832e+00) (43, -3.25303877268606322914e-01) (44, -2.50890014966379082395e-01) (45, -1.37310689448909978294e-01) (46, -5.46579766390666943465e+00) (47, 4.82107942102833975095e-01) (48, -1.57775570684660504384e+00) (49, 1.81313849189070630530e+00) (50, -7.40982968251271678639e+00) (51, -2.13218064335677892629e+00) (52, -4.63963314181544017600e+00) (53, -1.62523269558897931475e+00) (54, 5.52130963342738145805e-01) (55, -1.00081241859216030221e+00) (56, -1.19832898951536215293e+01) (57, 4.84943241054581708482e+00) (58, -9.56547676082740161441e-01) (59, -9.17957063357437652584e-01) (60, -2.83831513898202048019e-01) (61, -7.74681398486874783771e-01) (62, -9.16489680539412709948e-01) (63, -4.73925250147158083625e-01) (64, 3.76532293550973451435e-01) (65, -3.05007105752598151049e-01) (66, -2.15331827609048698235e+00) (67, -1.97396052405728883450e-01) (68, 6.79707348351207052417e-01) (69, -1.01420989205222533691e+00) (70, 3.90587525274464297809e+01) (71, -4.27303192527172903681e+00) (72, -5.90100497662635392615e-01) (73, 2.78147188705632764094e-01) (74, 1.36878019961113350789e+00) (75, 3.66362894144102169136e-01) (76, 7.16172404591765676685e-01) (77, 4.26565870381396761157e-01) (78, -9.86699718898154332081e-01) (79, -7.84320850197094521228e-01) (80, -1.69066258265004742967e+00) (81, 3.91873146723815608539e+01) (82, -1.62286012666001910887e+00) (83, 7.47479301499523018926e-01) (84, -4.43165098834191806265e-01) (85, -1.18316030403028404905e-01) (86, -2.13114320288878955623e+00) (87, -4.38399008885591268125e+00) (88, -1.05451449711164313428e+00) (89, 3.91449936237045932330e+01) (90, -1.91578534911743902924e+00) (91, -1.34674152466146690443e+00) (92, -9.00911769789040972611e-01) (93, -8.36820133410669186880e-01) (94, -1.67648692334643323321e+00) (95, 3.14761084206252528261e+00) (96, -3.19215811405893212793e+00) (97, -3.92221435662218738116e+01) (98, -5.57139074958549640471e-01) (99, 3.91924675237247157611e+01) (100, 4.09346125709367014700e-01) (101, -1.26230105095223521516e+00) (102, -2.30528784942890485610e+00) (103, -6.88857820156830391589e-01) (104, -2.92529531220911653833e+00) (105, 8.10640677814212118335e-01) (106, 2.94552137899874610927e-01) (107, -1.50587108282935727699e-01) (108, -2.84643336824532777740e+00) (109, 9.95752773183153361281e-01) (110, -1.22755830157213674525e+00) (111, -2.27774049863827121598e+00) (112, -9.50828016340301007681e-01) (113, -8.74656298970959866779e-01) (114, 4.87925685170863820961e-01) (115, 1.77254712859292284932e+00) (116, -1.59040448860898608885e+00) (117, 1.30449773478479857935e-01) (118, -8.01558564841923626432e+00) (119, -1.05308224383360471421e+00) (120, 3.68654389042303909374e-01) (121, -5.48617814253298252680e-01) (122, 3.90504537578531909503e+01) (123, -3.05128830323933275537e+00) (124, 1.23268762253810493235e+00) (125, -1.65243101805298531204e+00) (126, -1.96829230645551600531e+00) (127, -3.38038461156170466637e+00) (128, -1.73331272542326653152e+00) (129, 1.42328042926782982747e+00) (130, -1.70917019933312142044e+00) (131, -5.54383028815714329340e-01) (132, 1.29118992642745000765e+00) (133, -5.80543324303915220241e+00) (134, -3.54230359568466546261e-01) (135, -1.87357339647070997302e+00) (136, -8.12575537983196816150e-01) (137, -8.58779719266299923497e-01) (138, 3.86911421227183471849e-01) (139, -8.07570527967690021676e-01) (140, -1.27353514060195371904e+00) (141, -9.02659269323857649248e-01) (142, -3.51873973894026303988e-02) (143, 3.91912350486823726214e+01) (144, -1.10947423975560721665e+00) (145, 4.74795672455630368702e-01) (146, -7.60222740752116177276e+00) (147, -2.32912762458794442288e-01) (148, -2.37466735169140896744e+00) (149, -1.50408547799276792745e+00) (150, 3.53815781069509727175e-01) (151, -2.97185152925410589475e-01) (152, -2.34725161418168148941e+00) (153, 6.14157097142899788267e-01) (154, -2.40360123318697249672e+00) (155, -5.56746993698732417499e+00) (156, -1.14402905934170862068e+00) (157, -3.91344105135509181537e+01) (158, 7.80527971689429556079e-01) (159, 2.30283529641931605791e-01) (160, -1.50489093790935957173e+00) (161, 7.22098041277960733808e-01) (162, -7.12403543237474901062e-01) (163, 1.78720950612921969380e+00) (164, 4.19768412826804770965e-01) (165, 3.90897517297276664294e+01) (166, 7.14199947643024746213e-01) (167, -6.11604392472532842895e-01) (168, -1.53792283788523009846e+00) (169, 2.93520227322955351568e-01) (170, 5.84415197262721397564e-01) (171, -7.40275940240631857847e+00) (172, 2.07719947135061921983e+00) (173, 3.05466058358360159630e-01) (174, 5.15205034551368701301e+00) (175, 3.63911025078177741143e-01) (176, 5.04238252638264827787e-01) (177, -1.66949247033003942420e+01) (178, -1.48694146205266242156e+00) (179, 8.31533901229565608482e-01) (180, -1.17473502053857892236e+00) (181, 4.20893628925120000250e-01) (182, 3.91990206520864177264e+01) (183, 1.38011138395651800082e+00) (184, 3.18994826627818972575e-01) (185, -1.54092477795200899493e+01) (186, -9.69085882800630904477e-01) (187, -8.98557488654972980058e-01) (188, -7.89466127246794702188e+00) (189, -2.33959328782821973647e+00) (190, -1.46705681996329273531e+00) (191, 7.92171882636490742868e-01) (192, -1.19409788012981366023e+00) (193, -5.86489029926349836330e+00) (194, 3.51946223630738075361e-01) (195, 4.96049890411607907748e-01) (196, -1.74213786328783948321e+00) (197, -4.81370336621244998554e+00) (198, -1.13837658143470576988e+00) (199, -1.07225684434285994939e+01) (200, -1.07587301765307596924e+00) (201, 1.82467606028650530803e-01) (202, 6.97106969644740837033e-01) (203, 6.93745227339434222813e-01) (204, 8.15803246743622700876e-01) (205, -1.78459307935492605957e+00) (206, -9.28442565543359910052e-01) (207, -1.88072571178562930605e+00) (208, -1.59311855070021191061e+00) (209, -1.92526396486305308997e+01) (210, -5.48089315749435146419e-02) (211, -1.03958400134534278969e+00) (212, -9.33214226579449634968e-01) (213, -1.16094854208642073168e+00) (214, 1.27816182476055617556e+00) (215, -3.12235522306093393752e+00) (216, 2.75455526066867795176e-01) (217, 3.09730208469478518474e-01) (218, -5.44983547665731471454e+00) (219, -1.09012634960764076553e+00) (220, -1.61920347004978859573e+00) (221, -6.38482623748577626799e+00) (222, -1.04341954594482033691e+00) (223, -4.25714680459340399921e+00) (224, -1.31099240362891933387e+00) (225, 3.63425340551728759397e-01) (226, 2.26760644513959441770e-01) (227, -1.04158796145021703694e+00) (228, 2.17075378825625708856e+00) (229, 4.07767292267234715553e+00) (230, -1.87449405239826560887e+00) (231, -4.02686003405244363762e+00) (232, 6.64876068961147037584e-01) (233, 4.75349846579135593139e-01) (234, 7.57224819475031118987e-02) (235, -5.79760182042657890022e-01) (236, -4.58635789191700649070e+00) (237, -1.16576030187920709480e+00) (238, 3.63664444639515693769e-01) (239, -1.83234746099864453939e+00) (240, 8.19878363170295221263e-02) (241, -2.08235091946054406975e+00) (242, 3.33840858294796760664e-01) (243, 8.37198486722651402658e-01) (244, -3.18971341400790731058e+00) (245, -3.69078758882010493636e+00) (246, -1.81139366806323076631e+00) (247, -5.83429771614362913112e+00) (248, -1.87723868348277882490e+01) (249, -1.07626492126823491979e+00) (250, -1.23772981845454310701e+00) (251, -2.57833488411976485821e+00) (252, 1.33372344331130010531e+00) (253, -2.98325985049008828298e+01) (254, 1.21170564927789548015e+00) (255, 3.57756924336765869121e-01) (256, -3.64007706318670409829e-01) (257, 4.56634855280212192952e-01) (258, -1.20831023498416945117e+00) (259, 5.66710225287054836230e-01) (260, 6.94933414463725362964e-01) (261, -2.39236238253380095742e+00) (262, -9.58612678391641770403e-01) (263, 1.76362654364825788278e+00) (264, -9.53371023578352128069e-01) (265, -1.77622812018516512689e-01) (266, -3.91704691257187533893e+01) (267, -9.79869199735826645892e-01) (268, -4.41378169733890679538e+00) (269, -1.20504634796620413439e+00) (270, 6.08583724212165888545e-01) (271, -1.67154552163016578703e+00) (272, -1.60601517788794079244e+00) (273, -2.05412158631099378558e-01) (274, 2.07229828574927055218e-01) (275, -1.43600909516414954048e+00) (276, 7.44459664535041865108e-01) (277, -5.85972111075836554761e+00) (278, 6.46291522395130213496e-01) (279, -6.06799466135161336133e-01) (280, 3.89481053756417561207e-01) (281, -1.48090382831080402681e+00) (282, -2.09007240591750953485e+00) (283, -4.44980318943340780180e-01) (284, 5.35350698390803514393e-01) (285, -8.36161778676587363890e-01) (286, -1.27981080594150764540e+00) (287, -3.14435024595388590285e+00) (288, -1.30193746206244176378e+00) (289, -5.06787713855408927799e+00) (290, -1.08606041971377509370e+00) (291, -4.06378562229755146973e+00) (292, -3.90837144534894633807e+01) (293, -3.80564054108886440364e-02) (294, -9.36469818989838165280e-01) (295, -1.73261759370415413528e+00) (296, 4.57018450633071227074e-01) (297, -2.31301000303981318940e-01) (298, -7.53030886797348197881e-01) (299, -1.01134974827151702392e+00) (300, -1.28576594254905582915e+01) (301, -1.16740774979973771508e+00) (302, -1.16881581008911084041e+00) (303, -1.01282270290457199202e+00) (304, -3.29285488799705094998e-01) (305, 7.31019409182238177891e-01) (306, 1.01424165151396891704e-01) (307, 1.37426557781690972249e+00) (308, 3.96572553540161187868e-01) (309, 1.32516253249033910677e+00) (310, -6.08914147178408970973e-01) (311, -1.73784904573200682520e+00) (312, -1.09439485295116689656e+00) (313, -1.14119544983386944637e+00) (314, -2.99581191329921470157e+00) (315, 4.98737361361448472419e-02) (316, 5.67713257958606609677e-01) (317, -2.02674727354787265199e+00) (318, 4.43344169095538420677e-01) (319, -2.51373119942175460295e+00) (320, -2.07032007483945701409e+00) (321, 4.35718939708413410816e-01) (322, 2.01361227932855024747e+00) (323, -1.63751334637253487259e+00) (324, -7.26864462318079773695e-01) (325, -4.95723439624647888024e+00) (326, -1.16816255347213227012e+00) (327, 8.87366890803637176077e-01) (0, -4.49089450290409875066e+00) (1, -3.30296576145173670369e+00) (2, -2.55961723546967334642e+00) (3, 3.92002166192838359393e+01) (4, -1.04386049081664511462e+00) (5, -1.71682087006864803058e+00) (6, -7.65893242973699345244e-02) (7, 7.11318419110887667500e+00) (8, 1.18082164863664318410e+00) (9, 3.91727806459972072162e+01) (10, 3.83914001334077492622e-01) (11, 1.75850591238058184818e-01) (12, -2.98628726427554589407e+01) (13, 1.13584589591803242214e+00) (14, -9.73707082737946039153e-01) (15, 5.99322784956233589604e-01) (16, -1.18293829809520301133e+00) (17, 5.84154735783567513607e+00) (18, 4.44652868966877345969e+00) (19, -6.22397769297397984722e-01) (20, -1.79208521485178673416e+00) (21, -2.23441965532566388930e+00) (22, -1.03141057874522878990e-01) (23, 5.16408871752397635735e-02) (24, 9.53217491424180329851e-01) (25, 3.91263460870691943683e+01) (26, 5.55569499552029899547e+00) (27, 8.03391289250924844900e-01) (28, -1.52955808637557844065e+00) (29, -5.56107591911403176255e+00) (30, -2.51323247462888677006e+00) (31, -2.08085749340795622686e+00) (32, -9.75040313124365454200e-01) (33, -2.70114891031966175561e-01) (34, -1.33777931467511752572e+01) (35, 2.04150655930040059172e-01) (36, 1.89403227307017330006e+00) (37, -8.87176876706785355609e-01) (38, -5.43416965826598641343e+00) (39, -3.91417172904917407550e+01) (40, -9.47832232160276566546e-01) (41, -1.49090812570794515324e+01) (42, -1.78450377225725853592e+00) (43, 4.06914364631061842292e-01) (44, -9.56266804471427311896e-01) (45, -4.63855101914281087172e-01) (46, -2.15588679669605109979e+00) (47, 8.58311874155370135853e-01) (48, 4.00613521034097974649e+00) (49, -2.49544577479453177915e+00) (50, -2.43383451110810522522e+00) (51, -2.25999734950329145278e+00) (52, 2.40393634283675972085e+00) (53, -3.13250563552568861425e-01) (54, -6.59284105202257997291e-01) (55, -1.78028746040021390584e+00) (56, -3.01533147910835808148e+00) (57, -6.38837835220265404246e+00) (58, -1.58739924224002781905e+00) (59, -1.65199366935541069878e+00) (60, -8.35301602101109708087e-01) (61, -8.91368290228552018206e-01) (62, -9.53736094577020798724e-01) (63, -2.05424322627032057698e-01) (64, 6.10810807952363976625e-01) (65, 2.22723494038798819350e-01) (66, -1.68675242304651940017e+00) (67, -3.14487556689683200872e-01) (68, 8.81662331548003441739e-01) (69, 1.03190852943951050236e+00) (70, 3.90787290166923213519e+01) (71, -1.70322265381566007036e+00) (72, 2.49025492336577558561e+00) (73, -1.22795247376938920780e+00) (74, -7.95329128400030227475e-01) (75, 7.75325069890053786281e-02) (76, 4.34110751471193989648e-01) (77, -1.24994420684035301150e+00) (78, -1.23692315774165462194e+00) (79, -6.87917094949501595202e-01) (80, -1.63276459766851056443e+00) (81, 3.90787111427494693316e+01) (82, -1.52236785040870303831e+00) (83, -1.14992729360685586038e+00) (84, 9.86977747270406879920e-01) (85, 1.62051508385017672964e+00) (86, -2.00506465684157930696e+00) (87, -4.38184689954488515440e+00) (88, -1.12687199566296691877e+00) (89, 3.92009523194142985858e+01) (90, -9.08133590435765247761e-01) (91, -9.78570198459333573382e-01) (92, -1.92842498197379708103e+00) (93, -1.14152777974232888525e+00) (94, -4.56619945871984012076e-01) (95, -2.59478286065382857117e+00) (96, -6.22823645202088371775e+00) (97, -3.90820019077369380511e+01) (98, -4.97491581175623864830e-01) (99, 3.90867066401848006763e+01) (100, -6.24935863217413789528e-01) (101, -1.21310390886129737531e+00) (102, -2.29299968135620435561e+00) (103, -1.17118222068641242295e+00) (104, -2.14999458456733538725e+00) (105, 1.04258676610002654073e+00) (106, 2.88385794888297852800e-01) (107, 1.52985069803085349527e+00) (108, -4.04445691475220314715e+00) (109, 4.63459665087461614164e-01) (110, -1.02270859581329176535e+01) (111, -1.80449134051649773269e+00) (112, 4.93751565085574473102e+00) (113, 9.04066612630879951062e-03) (114, -4.33939521987877174780e+00) (115, -8.04310713902654739194e-01) (116, -1.66839811891167366653e+00) (117, 1.70557309028080550384e+00) (118, -2.68871419389413501833e+00) (119, -1.66173410321227033037e+00) (120, 4.73660644532466701406e-01) (121, -1.12745577100447769148e+00) (122, 3.91894385795900035419e+01) (123, -1.50203207561310070339e+00) (124, 4.17649764652138044685e-01) (125, -1.62418308049290383011e+00) (126, -1.13286935340259131699e+00) (127, -2.65104767225014281706e+00) (128, -1.78145554601996147781e+00) (129, -9.41377886578979139465e-01) (130, -1.75619035899489128738e+00) (131, -2.92682488477806046490e+00) (132, 1.33437215046271306917e+00) (133, -8.70113970946523807015e+00) (134, -1.09046680388801719985e+00) (135, -1.18680278014037665635e+00) (136, -1.05372485320661124497e+00) (137, -1.75287522413536955845e+00) (138, 9.03899581078059233263e-01) (139, -1.10405857829151354821e+00) (140, 6.43159164977920649875e+00) (141, 3.32458938263172409933e+00) (142, 1.77957869818004410511e+00) (143, 3.92215290497848201312e+01) (144, -7.48827848855274758044e-01) (145, 8.29435858391028152381e-02) (146, -1.23796090982071618214e+01) (147, 3.98992849881029432169e+00) (148, 2.06879390049174727295e+00) (149, -1.24784999322356582319e+00) (150, 4.05936844543188013468e-01) (151, 4.94203720326309492439e-01) (152, 2.36279665692307538905e+00) (153, -1.45038756475224128728e-01) (154, -2.27269516539837201918e+00) (155, 6.17698081148905231430e+00) (156, -8.52893863862982604118e-01) (157, -3.90754545610257792987e+01) (158, -1.21436648903500338248e-01) (159, 8.89693804585547809438e-01) (160, -1.73823867299100709438e+00) (161, 2.51803256965814714619e+00) (162, -7.82341936445019925372e-01) (163, -6.28596443849699593187e-01) (164, 5.15220117212558670339e-01) (165, 3.92110781352826762713e+01) (166, 1.34820356068625901713e+00) (167, -7.35736922893110989463e-01) (168, 1.52602289100371407704e-01) (169, 1.40620538171361053603e-01) (170, 4.09694036393729532630e-01) (171, -1.35989760352042493574e-01) (172, -1.06652258964705690114e-01) (173, -3.93517810038270687834e-01) (174, -7.55562232190093552298e-01) (175, -4.25461501111231132910e+00) (176, 1.92012348938936749931e+00) (177, -7.59733016274544148416e+00) (178, -1.41029983762237320910e+00) (179, -1.23899504772948643172e+00) (180, -9.94450295163101349871e-01) (181, 5.58336834236395240794e-01) (182, 3.91353887077280688800e+01) (183, 1.31813319281920415804e+00) (184, 8.66555705693034417081e-01) (185, -2.61839209250338011969e+00) (186, 4.06088324415587731409e-01) (187, -6.43749449456966771344e-01) (188, -2.06990105596025353307e+00) (189, -2.33302192044521650161e+00) (190, -3.43061983827083549770e+00) (191, 4.63807038532291493471e-01) (192, -1.63424316354534049367e+00) (193, -1.52860063657497491363e+00) (194, 1.10069873175630683626e+00) (195, -3.31768698446235577038e+00) (196, -2.70566544940660902441e-01) (197, -6.58918998523830445890e+00) (198, 5.83044657389154519223e+00) (199, 7.04023211849461261203e-01) (200, -9.28704095823473130267e-01) (201, 2.69850555917356738078e-01) (202, 3.01935435193673051835e-01) (203, 1.31170834169604788588e-01) (204, 5.80199423813065995326e-01) (205, -1.10958732466790732651e+00) (206, -7.65194339255798050559e-01) (207, -4.14992610530217032050e+00) (208, -1.59044029794361629904e+00) (209, -8.86529411570063707870e+00) (210, -4.33847501357040687964e+00) (211, -1.00700587947458664040e+00) (212, -1.51609576166211246218e+00) (213, 3.36520221810662167883e+00) (214, 5.61592888171558612953e-01) (215, -2.09011768111839213447e+00) (216, 8.39711257696070134671e-01) (217, 9.30928637713111850616e-01) (218, 8.28832160776202808705e-01) (219, 1.57621799047061017518e+00) (220, -1.08557150445987993237e+00) (221, -1.43011795915830131065e+00) (222, -1.52179289774878467867e+00) (223, 4.92760236690084285627e-01) (224, 4.03935621959544821635e+00) (225, 1.38018098704295155699e-01) (226, 1.54082556299643513853e-01) (227, -1.12263146024407767243e+00) (228, 1.33992152159074584539e+00) (229, -1.55808545691838284952e+00) (230, 2.34650067998625821986e+00) (231, -4.01035219985635293938e+00) (232, 3.31283992206338062658e+00) (233, 2.03265507749991414244e-01) (234, 3.55446018326646573371e-01) (235, 7.11337975394838473164e+00) (236, 2.26581568414106193643e+00) (237, -1.58737770874262495990e-01) (238, 1.12852437404274041910e+00) (239, -2.40098731821199695702e+00) (240, -1.54885234947194483368e+00) (241, 3.66947191097403813131e+00) (242, 1.10365810236940498079e+00) (243, 1.07637577495584602083e+00) (244, -1.40715140576523278781e+00) (245, -1.74673655288835671939e+00) (246, -2.88312035493012697174e+00) (247, -5.86658557457020002346e+00) (248, -1.52479109978010090032e+01) (249, -1.52405339360924063641e+00) (250, -6.50559585994000988407e-01) (251, -2.12218530934827853685e+00) (252, 1.25185428069218662728e+00) (253, -1.21108933999603785026e+01) (254, 5.64910566458965424097e-01) (255, 8.58370510369457662136e-01) (256, 4.54593921211958074124e-01) (257, -4.22565600119619189101e-01) (258, -9.74681382817930375140e-01) (259, 1.03600761638698579681e+00) (260, 1.02286812654743330953e+00) (261, -4.04035225736978365063e+00) (262, -1.04114185069293418984e+00) (263, -1.31113608232791900576e+00) (264, -1.02271737699002662758e+00) (265, -4.29629744817457481787e+00) (266, -3.91266391407558131732e+01) (267, -9.29305327875322495501e-01) (268, -1.37662983805863596842e+01) (269, -7.93933596890794790468e-01) (270, 1.07673815629491920198e+00) (271, -1.62411492810976332279e+00) (272, -2.01423545728904329621e+00) (273, -1.32304291834963727581e+00) (274, -3.15699956344921339735e+00) (275, -9.43259907705492173235e-01) (276, 5.74679574093493239495e-01) (277, -6.39101945267551707630e-02) (278, 5.22611705681952143365e-01) (279, -7.22950493043891029288e-01) (280, 5.68386170899037201920e-01) (281, -1.68901641128982538120e+00) (282, -2.04159938303933952142e+00) (283, -2.91795352854209877336e+00) (284, 1.17062209635344402492e-01) (285, -1.31214633619321752178e+00) (286, -2.14799154960895410937e+00) (287, -2.35707237726962537394e+00) (288, -1.44758883590858911106e+00) (289, -2.03286478428350303460e+00) (290, -1.93553564585436577161e+00) (291, -4.05925045388820393555e+00) (292, -3.90611859094211268939e+01) (293, -4.21548176039896294043e+00) (294, -1.00905596468381064668e+00) (295, -1.71968952506630623489e+00) (296, 5.39488961944843414820e-01) (297, -7.38427191753262057716e+00) (298, 2.59661397256274462109e-01) (299, -4.14612238394814203168e-01) (300, -1.20651852799352017342e+01) (301, -1.61359755130306092852e+00) (302, -7.27304864729679478863e-01) (303, -2.15038807979471791043e+00) (304, -4.13039587670701535682e-01) (305, 1.61416652367331991957e-01) (306, -3.14611105338994256897e+00) (307, -1.04821250372870003464e-01) (308, 1.00322153914388767504e+00) (309, 1.25412102298125294197e+00) (310, 3.98690360779142682901e+00) (311, -4.78606683368286156544e-02) (312, -1.07615324836434744782e+00) (313, -1.23518670432881449983e+00) (314, -5.05819611016251169389e+00) (315, -2.49365285130475378139e+00) (316, 9.84379978815799971947e-01) (317, -1.00343398524820592854e+00) (318, 1.21327861289102245657e+00) (319, -5.05728619310595117753e+00) (320, -2.03007314114080283929e+00) (321, 2.05889702912400329726e-01) (322, 3.06639600165385828312e-01) (323, -9.95831861422560749020e-01) (324, 1.69699536746408985444e+00) (325, 2.18131309727961575362e+00) (326, -1.02030593896590797698e+01) (327, 4.51522030020838072151e-01) (0, 8.60113719590168201989e+00) (1, 1.65692417074710607316e-01) (2, -1.98644123122730853481e+00) (3, 3.91901156138488460101e+01) (4, 3.59464905754393826420e-01) (5, -1.86896816339164728582e+00) (6, -1.31544656704126117219e+00) (7, 1.10361873700135815213e+00) (8, 6.42557391943294642367e-01) (9, 3.90878789219865012683e+01) (10, -8.43064367513911804008e-03) (11, 4.00944431347997842785e-01) (12, 1.47442509579302836187e+01) (13, 1.08678249611371624539e+00) (14, 6.18778835625059087100e-01) (15, 6.03487412757237273730e-01) (16, 1.62885303302741846210e+01) (17, 9.89254032127211746506e-01) (18, 8.42128732107232269577e-01) (19, 1.77344797858829394954e-01) (20, 1.64734955160952409869e+01) (21, 3.57425716875171273212e-02) (22, -4.48862869337147341042e+00) (23, -4.48666204556768999367e+00) (24, 3.94035907176007449415e-01) (25, 3.90757001992174792804e+01) (26, 1.64300011872387727863e+01) (27, 1.09449143020230732493e-02) (28, 4.32234601799385664833e-01) (29, 2.57956393908364112200e-01) (30, 1.09422575617023838390e+01) (31, -6.60078422604315839806e+00) (32, 3.08473535708557844437e-01) (33, 2.69325212104639666322e-02) (34, 2.28680949005762246262e-01) (35, 4.42015385666956750477e-02) (36, 1.17062406771639295755e+01) (37, 1.60322804048247558040e-01) (38, 2.43316998960680347386e-01) (39, 1.63802793054915269977e+01) (40, 7.20596276666595342286e-02) (41, 1.16817415886381574808e+01) (42, 1.64367371379471620685e+01) (43, 2.24826062027666723209e-01) (44, 1.63177989675737222797e+01) (45, -1.09141129276189108310e+00) (46, 1.63199907085932096606e+01) (47, 4.80390650954740205947e-01) (48, 7.71040857272652369048e-01) (49, -6.61871429039352499046e+00) (50, 1.48038775372149515874e+01) (51, 5.49051719295461926329e-02) (52, 1.21510768278354275296e+00) (53, -3.34766150033862786017e-01) (54, 8.46679156414775313522e-01) (55, 5.07781691129768120163e-01) (56, 1.48599748211743403203e+01) (57, -2.18291462674370356778e-01) (58, 1.13118941844426612597e+00) (59, 2.10147193381423846859e-01) (60, 4.23608269275082160998e-01) (61, 1.78772177591509984218e-01) (62, 5.23805983007556985598e-01) (63, 2.83266326538853599470e-02) (64, 9.79819337336141071848e-02) (65, 2.30950592113041003328e-01) (66, 1.64064825057125887042e+01) (67, 5.37955938787973764192e-01) (68, 2.01387563974560784841e-01) (69, 2.83951451417863487414e-01) (70, 3.91207309346505809344e+01) (71, -8.50090895250116052040e-01) (72, 5.07977038415922232950e-01) (73, 4.21709194059932346299e-01) (74, -6.49342121731234095394e-02) (75, 2.01999722995745950582e-01) (76, 6.76782915801735496242e-02) (77, -1.11318635912272756450e-01) (78, 1.72519162883147461618e-02) (79, 1.63782707407213052875e+01) (80, 1.08263098606654537548e+01) (81, 3.91555618177959132709e+01) (82, 1.64641939579583009845e+01) (83, -2.98014443173570819923e+00) (84, 3.76255221263236239171e-01) (85, 1.64017970888949236041e+01) (86, 2.46267772970889559092e-01) (87, 5.40636550123738457430e-01) (88, 1.44565648147697345394e-01) (89, 3.91208756100246120013e+01) (90, -1.57516670319338497608e-01) (91, -3.07314232504756645881e-01) (92, 1.12980043857210743496e+00) (93, 1.24182671650165188382e+00) (94, 3.13046058055818199328e-01) (95, 1.59776080935011366435e+00) (96, 3.77105432590562950068e-01) (97, 1.64053024306035837299e+01) (98, -4.42547704324072466164e+00) (99, 3.91636665444680858172e+01) (100, 9.89773590914557632736e-01) (101, 3.14420570966661094836e-01) (102, -8.63480467751298608192e-01) (103, 1.63516450404263338214e+01) (104, 1.09281068974920643200e+01) (105, 2.70811406081348515773e-01) (106, -7.48053137783523336424e-01) (107, 2.15644345928703656812e-01) (108, 5.29790497596824394577e-01) (109, 1.04701808669554988218e-01) (110, 2.90416420301265798543e-01) (111, 1.63251737347877821094e+01) (112, 1.23410407920729658926e-01) (113, 1.53771346360927402275e-01) (114, -6.63069300605171285667e+00) (115, -2.26806047762532325685e-01) (116, 1.62897034241891702777e+01) (117, 1.24385761930936511455e+00) (118, 1.48030768382193613775e+01) (119, 1.56494063494777291279e-02) (120, 1.10306861920046218872e-02) (121, 6.58748436065863668398e-02) (122, 3.91645027156778979815e+01) (123, 1.08133675241657627453e+01) (124, 2.11739195000979207872e-01) (125, 1.64217216550446352130e+01) (126, 1.64265263705588182575e+01) (127, 1.12974525925732899312e-01) (128, 1.63028680338598093158e+01) (129, 1.30682934902128178312e-01) (130, 1.63779965295530161029e+01) (131, 2.87851165578431433811e-01) (132, 3.52548176862255258079e-01) (133, 2.92813170934096200781e-01) (134, 1.15982240826331528538e+00) (135, 1.64490743904448351032e+01) (136, 1.63436624399460157520e+01) (137, 1.13301082416766818461e+00) (138, 3.44231666710843264845e-01) (139, 2.03845969506709356889e-01) (140, 1.22184266491645443509e+00) (141, 1.23960526748889621196e+00) (142, 8.48859889201430739547e-01) (143, 3.91911520045110393085e+01) (144, 1.64284326165057024127e+01) (145, 6.09383849111116093766e-01) (146, 3.65250911492900176558e-01) (147, 8.28200728135613184477e-01) (148, 1.19359665705674755642e+00) (149, 2.40477359602088824886e-01) (150, -3.20537370643939167891e-01) (151, 4.39649595947760096770e-01) (152, 9.00803846172640976242e-01) (153, 1.48371435172662657909e-01) (154, 1.20007401442346367526e-01) (155, 1.17564503611051063281e+00) (156, 2.45478791531980128360e-01) (157, 5.34670065146219508634e-01) (158, 2.00021696698519491076e-01) (159, 1.07498597844215240671e-01) (160, 2.84024668090440135515e-01) (161, 1.68075432842001437628e-02) (162, 4.73271418005830724063e-01) (163, 7.23988775432367892559e-02) (164, 1.46340294822062705338e-01) (165, 3.91913202088185954608e+01) (166, 1.81872319127412085393e-01) (167, 4.39554766028034560321e-01) (168, 1.53271435768405905886e-02) (169, 6.01974052992379826676e-01) (170, 5.71002645880040668458e-02) (171, 2.38670415192291429651e-01) (172, -1.98785829241164035963e+00) (173, -1.30889270416214076320e+00) (174, 1.57749521653336027827e-01) (175, -6.49566929293983541527e+00) (176, 6.23062668052232426774e-01) (177, 1.63533474831915697223e+01) (178, -5.61944881560018094646e-01) (179, 3.20533401792198330282e-02) (180, 7.36991889783989995166e-02) (181, -1.96170424160519094037e-02) (182, 3.91558340396591830768e+01) (183, 3.97336589612022561546e-01) (184, 1.12879287681076106997e-01) (185, 1.64226534544564088947e+01) (186, 1.36398134169042228869e-01) (187, 3.74983198539084683354e-01) (188, 1.48128040480258036382e+01) (189, 1.00885054206666741061e-01) (190, 5.89562534566485885179e-01) (191, 9.87065610574614643591e-02) (192, 1.82353209911158803402e-01) (193, -3.39401367603063608414e-01) (194, 2.67645237681140124586e-01) (195, -6.46141429497116170921e+00) (196, -3.76455434179694736763e-01) (197, 8.01032136641030234614e+00) (198, 9.29858468907383661772e-01) (199, 2.95434640210668497673e+00) (200, 1.57781895294375640315e-01) (201, 3.14662883497730416771e-01) (202, -1.30422015081234562994e-02) (203, -2.63188532207534187091e-02) (204, 3.89446717785727689054e-02) (205, 1.63856375097370943195e+01) (206, 1.95262791190012108267e-01) (207, 7.72946314068003292874e-01) (208, 4.23471859868133182481e-01) (209, 1.64747738569117387897e+01) (210, -6.44794395817630849876e+00) (211, 8.28680373737465808537e-02) (212, 3.15744214940273715264e-01) (213, 7.69278251069096308257e-01) (214, 2.28732874724990292714e-01) (215, 1.64668234019614061481e+01) (216, 2.95141009069221971206e-01) (217, 2.42018533325928208999e-01) (218, 6.14481707968366652750e+00) (219, 1.50794521162720740470e+00) (220, 1.64678030042982896930e+01) (221, 1.63154834463334879047e+01) (222, 6.59678586304748959535e-01) (223, 1.64173977552986940509e+01) (224, 1.15834087475055325100e+00) (225, -2.83899726166259858129e-01) (226, -1.19693761261385443750e-02) (227, 3.01427041527688621692e-01) (228, 9.71030043206719817306e-01) (229, -2.55382705470810211779e-01) (230, 1.13748690455072987149e+00) (231, -5.99189126969983609783e-01) (232, 5.58045765069043797624e-01) (233, -1.86475822522174983220e-01) (234, 1.50520779787752106982e-01) (235, 1.25643574043029415677e+00) (236, 1.20131786509269344876e+00) (237, 1.01364688537539082702e+00) (238, 3.06480390136867619777e-01) (239, 5.51229604370820150394e-02) (240, -1.21059416769654593082e+01) (241, 1.27857929809802639554e+00) (242, 2.97184178319443936811e-01) (243, 2.55285357770194287763e-01) (244, 8.20018018016376859514e-01) (245, 2.17126661512716423452e-01) (246, 5.19101928652180077961e-01) (247, 6.52019033614557458334e-02) (248, 1.47007070007564593084e+01) (249, 3.89363385335272982335e-01) (250, 1.60011371013581871203e-01) (251, 3.96453471514895117167e+00) (252, 3.41260785676494760033e-01) (253, 1.47519654529931116826e+01) (254, 8.51783393441170044724e-02) (255, 1.91283711765329517140e-01) (256, 1.25138026107799810172e-01) (257, -1.20260565753041026582e+00) (258, 1.84004288211054967128e-01) (259, 6.68499065247094792497e-01) (260, 2.23498763770760583425e-01) (261, 4.69791904151583006310e-01) (262, 2.24038165106959508144e-01) (263, -3.24428895308408071774e-01) (264, 5.79447835693013210689e-02) (265, -6.57583876205795370140e+00) (266, 1.64230022310353120929e+01) (267, 8.07202212521683643009e-02) (268, 1.95794598971480793281e+00) (269, 1.71307732515431770937e-01) (270, 4.35568084126144505763e-01) (271, 2.33792072591805122350e-01) (272, 5.65468757625186446703e-01) (273, 8.77317972915676813628e-01) (274, -4.70244947891617393054e+00) (275, -2.82826483762653069221e-01) (276, -2.35156824379233672651e-02) (277, 1.48222668367268610723e+01) (278, -1.95018311529425898698e-02) (279, 2.42974496976203185872e-01) (280, 5.44491288867509526384e-01) (281, 5.39124644573295341843e-01) (282, 1.64511398254967531329e+01) (283, -6.46513673914783559837e+00) (284, -1.01294267586865327502e-01) (285, 2.59112027638055186785e-01) (286, -3.48431870854289615913e-01) (287, 1.64619499324894746906e+01) (288, 5.69369837433693182227e-01) (289, 1.63415763965881666309e+01) (290, 2.39905771963693004167e-01) (291, 5.18275036688411461228e-01) (292, 1.48215773450972605474e+01) (293, -6.61501999451034627953e+00) (294, 8.35635724755477149461e-02) (295, 1.62924115835762819415e+01) (296, 1.51869181743175624133e-01) (297, -1.02887770904443365261e+00) (298, 1.91382306676622315766e-01) (299, 4.15287859336203768468e-01) (300, 4.15512162590058409251e+00) (301, 5.65776448339826654177e-01) (302, -1.05250373424114335164e-01) (303, 1.08613929494136440823e+00) (304, 1.55944856837728762500e+00) (305, 2.10214491756813837142e-01) (306, -6.47237383080833517113e+00) (307, 1.78589636714161920095e-01) (308, 6.61667002049005192887e-01) (309, 3.34455574370876473900e-01) (310, 8.47706243830231409575e-01) (311, 3.34100226198096672547e+00) (312, 2.10798708137929530215e-01) (313, 5.16205023706806542805e-01) (314, 1.64429697074755576391e-01) (315, 1.20119971597087493720e+00) (316, -3.56607255370873788003e-02) (317, 5.59490277643764022386e-01) (318, 5.76659483881551748752e-01) (319, 8.77438959379693711460e-02) (320, 1.63465342327094873554e+01) (321, 3.58013344930428800694e-01) (322, -1.16677343729794724680e+00) (323, 1.63707187875247797137e+01) (324, 2.70557050940454124621e-01) (325, 1.28207733943456347880e+00) (326, 1.68217929998825077575e+00) (327, 1.88620132815691732286e-01) (0, -1.20481379342969265878e+01) (1, -1.74796899894699286904e+00) (2, 4.73361002070235592498e+00) (3, 3.91068865749844718493e+01) (4, 1.63473677780568915630e+00) (5, 9.95260539385502518428e-01) (6, 1.27785493479530415373e-01) (7, -1.16104356356558080510e-02) (8, 1.16448271928157293109e-01) (9, 3.91281616147467303790e+01) (10, 1.65364851855730049524e-01) (11, -2.73415234702126030975e-01) (12, -2.00035259932237501346e+01) (13, 1.90924757516744048047e+00) (14, 2.23525949975007104387e-01) (15, 4.52822429173907581301e-01) (16, -4.02395077658361000061e+00) (17, 5.84066945375293133935e-01) (18, -3.47507557963264157586e-03) (19, 1.58980391692459899211e+00) (20, -1.36731445163060794101e+00) (21, -1.09437192933697824415e+00) (22, 3.97062454941294107336e-01) (23, 4.88229696276209212957e-01) (24, 8.06466459090818127420e-02) (25, 3.91427714656898189105e+01) (26, -1.53313078820134638391e+01) (27, 2.66506528162454625619e-01) (28, 8.90922869915509618721e-01) (29, -4.31677638116576889438e-01) (30, 2.62199773080843057116e+00) (31, 4.42899415157897013984e+00) (32, -1.85656991461958109646e+00) (33, -2.18130906689708359281e+00) (34, 4.82424374312765080752e-01) (35, 1.70449651081421932330e-01) (36, 5.12870605383028710378e+00) (37, -3.72923455883772736463e-01) (38, -1.73330760920317921148e+01) (39, -2.39566461988698513608e+01) (40, -3.54096875385702170025e-01) (41, -5.42795320340053599750e+00) (42, 7.80943096269837155887e-02) (43, 1.59845657093357101930e-01) (44, 3.10987897386175315972e+00) (45, -9.44173298971593411011e-01) (46, -2.89817408561135980705e+00) (47, 1.40903385036682121667e-01) (48, 2.20200824872558265088e-01) (49, 2.69721085718943776044e+00) (50, -8.60909963805643130286e+00) (51, -5.97181213576933878073e-01) (52, -1.58426468735767911333e+00) (53, -3.86722766772212711572e+00) (54, 9.15621507341409124336e-01) (55, 3.06302819269436532590e-01) (56, -6.77284070201981869275e+00) (57, 1.24247619971030887065e+00) (58, 3.77583991604584390256e-01) (59, -1.83009841248631621724e-01) (60, 6.37303023834887572008e-01) (61, 6.68369764376430475217e-01) (62, 5.27642455301219059915e-02) (63, 6.10368798978782947651e-02) (64, 2.03039231003335818304e-01) (65, 5.22233295160796986978e-02) (66, 7.21242637027970090458e-02) (67, 1.78755381195371348957e-01) (68, 3.02931717630581687217e-01) (69, -1.94642139087165988443e+00) (70, 3.92243721019336391009e+01) (71, -1.37193012843527721856e+01) (72, 3.04026597584931779217e-01) (73, 7.22648399546413244821e-01) (74, 1.31347901573577141576e+00) (75, 2.14095545613264021112e-01) (76, 2.21691767344004975193e-01) (77, 2.68977038921139402494e-02) (78, -1.95842708508218921182e+00) (79, -9.88997348240081564086e-02) (80, -4.79877808872539279861e-01) (81, 3.91557182278343844928e+01) (82, 1.04733838128937373213e+00) (83, -1.48718274707403397272e-01) (84, 2.41772202372313532726e-01) (85, -1.79327553411374962522e-01) (86, 6.34147959425716223336e-01) (87, 2.42640529797160020564e+00) (88, -2.86451003062407671962e-01) (89, 3.91207210328289676227e+01) (90, -2.79814727129455675936e+00) (91, -1.34676049057279767496e+00) (92, 8.03727618445467251185e-01) (93, 4.42513964798256276278e-01) (94, -1.92964889715160525796e+00) (95, 1.20091457381242450175e+00) (96, -3.17180199225406234120e+00) (97, -2.39730308228146107297e+01) (98, -2.03273140136334296013e-01) (99, 3.91474635805794406451e+01) (100, 9.47353962237382329903e-01) (101, -1.38800383290595230612e+00) (102, -2.59945882633579472554e+00) (103, -1.76504639578938249400e+00) (104, -5.64315632100014674677e-01) (105, 2.46130539920319496572e-01) (106, -7.15858837139210502087e-02) (107, 2.34714552206825299852e-01) (108, 5.38872059614065479494e-01) (109, 6.37458586716000974448e-01) (110, 2.27306923317124112693e-02) (111, 1.24682954557508018922e+00) (112, -1.06946812715615990896e+01) (113, 1.33811991571008842561e-01) (114, 6.76752685174036028304e-02) (115, 1.16130510066865433316e+00) (116, 1.21584716427219996504e+00) (117, 8.16983657954685971170e-01) (118, -1.13467570760739615565e+01) (119, 7.31595461383344414230e-01) (120, 3.25818091308884116852e-01) (121, 7.45292544335205864314e-01) (122, 3.91403892543026614703e+01) (123, 2.62383993156450356921e+00) (124, 1.91811443875073761589e-01) (125, -1.40511935323049197422e+00) (126, 8.07407137391150087069e+00) (127, 2.09482904382044726743e-01) (128, -1.46287248402406344638e+00) (129, 1.99465432759622052217e+00) (130, -1.48887931674291262851e+00) (131, 1.23842621191257107327e+00) (132, 1.11526114835256207058e+00) (133, 7.98264364376334967233e-01) (134, 6.85631173327235998727e-01) (135, 2.37680814747273005949e+00) (136, -2.51123567729300667395e-01) (137, 5.86110155942115462757e-01) (138, 2.06360705254624215987e-01) (139, -4.89513262270749927030e-01) (140, -4.93564197269606319551e-01) (141, 1.15906774261638201295e-01) (142, 8.95294579742901719399e-01) (143, 3.92097866367408443011e+01) (144, -1.56044331996745277991e-01) (145, 6.75854453467671811850e-01) (146, -3.78075576826335657543e+00) (147, 2.96139772371356524427e-01) (148, -4.96470951882528988008e-01) (149, -2.66246848525313439815e-01) (150, 6.98563650710983530256e-02) (151, 9.07234096954575852667e-02) (152, -6.47571728972124782686e-01) (153, 3.28148321061089598416e-01) (154, -2.19498611422252132286e+00) (155, -2.03349970323383377746e+00) (156, -1.43693081965989288840e+00) (157, -3.90630524139711070575e+01) (158, 4.38379622727964601836e-01) (159, 1.12174488591490262301e-01) (160, 5.57183299195055492525e-01) (161, 4.83527350813753087344e-01) (162, 2.60244053665217855986e-01) (163, 1.39472108089369362105e+00) (164, 1.47309616459256054188e-01) (165, 3.92224051188537288226e+01) (166, 5.24208748363797605307e-01) (167, 2.55551530186422792834e-01) (168, -1.48169323954616727335e+00) (169, 2.62223966670876384999e-01) (170, 3.32015357818967904446e-01) (171, -3.79416785990879867896e+00) (172, 4.46374765814675944497e-01) (173, 5.87308979810609588235e-01) (174, 1.17496885820621188579e+00) (175, -5.59533813690105963357e-02) (176, 2.90038414550667700276e-01) (177, -5.55116824545518916523e+00) (178, -3.72586240476057861670e+00) (179, 3.27025902609353491535e-01) (180, -5.06478517454118981611e-01) (181, -7.08416481772836531539e-02) (182, 3.91821681987353969134e+01) (183, 1.24141149564498531888e+00) (184, -9.76609048664715539978e-02) (185, -7.28571122030770812472e+00) (186, -1.48479713796710299789e+00) (187, 1.01818151647294574680e+00) (188, -1.13631650575888922816e+01) (189, -3.14616677209843054186e+00) (190, 7.13232944383888067819e-01) (191, 2.69168629881833432194e-01) (192, 3.99959366750006095614e-01) (193, -1.03437890103898677552e+00) (194, 1.07435573039671702911e-01) (195, -1.93930582538556772754e-02) (196, -4.44745327576846438689e+00) (197, -2.43069171947955720015e+00) (198, 4.78155734933312204227e-01) (199, -3.23611520349803072349e+00) (200, -2.25940204908163883024e-01) (201, 1.25187519534343350003e+00) (202, 2.24549674392099551934e-01) (203, 4.78573512431651026944e-01) (204, 2.81687631842587882236e-01) (205, 2.34380115900694407927e+00) (206, 6.27295918067160673814e-01) (207, -1.90070611398496081001e+00) (208, 6.11818196847705664254e-01) (209, -1.14557758712662032252e+01) (210, 4.41149506550079784084e-02) (211, -5.15180793065842967948e-01) (212, 5.18473849016968468817e-01) (213, -1.34338987983216195943e-01) (214, 1.56639720920674518911e-01) (215, -7.39086336680098021645e+00) (216, 9.11454321347071466652e-02) (217, 2.10613808175165784231e-01) (218, -5.46698208638088267719e+00) (219, -5.87314715197857051265e-01) (220, -1.39967327683736453281e+00) (221, -9.35770337631630688691e+00) (222, 3.12246903645533258054e-01) (223, -1.02677291532407677366e-01) (224, 3.64603266707959894344e-02) (225, 1.32033927046751042855e-01) (226, 2.13807017227617662813e-01) (227, -1.41742827674693283591e+00) (228, 1.03687867092564145466e+00) (229, 2.50031577426045226176e+00) (230, -5.65316559222864833956e-01) (231, -1.06798548470055134629e+01) (232, 2.37224713219052141255e-01) (233, 2.75383969449495336068e-01) (234, 1.20367197000478765023e-01) (235, 5.29760181099486748835e-04) (236, -2.57460760236541608137e+00) (237, -2.26790614956647864631e+01) (238, 1.36691955807282161661e-01) (239, -3.60044331521964355858e-01) (240, 7.89855700545188665895e-02) (241, -2.04193154724615799633e-01) (242, 1.70554487195660686716e-01) (243, 3.41156991298124878664e-01) (244, -4.94216564296622973274e-01) (245, 7.45178538845896465403e-01) (246, 9.56167075211549200020e-01) (247, 4.58780362606302505313e-01) (248, -1.21630725351866093575e+01) (249, 1.01300043928101102253e+00) (250, -1.46765582939929184469e+00) (251, -2.87328820764447900871e+00) (252, 1.18527499927991497586e+00) (253, -6.19303441258537468173e+00) (254, 5.53615718812082491240e-01) (255, 1.10682154141687957849e-01) (256, 1.54808821722828143796e-01) (257, 1.32637294484000189954e-01) (258, -1.21486893512349550250e-01) (259, 3.08738626790886816487e-01) (260, 2.14521208360425569284e-01) (261, 5.73836193536721883568e-01) (262, -1.64741762887518461422e-01) (263, 1.63610879130672226545e+00) (264, -5.42385645617064926505e-01) (265, -1.92400084272336679980e-02) (266, -3.91252917777606654681e+01) (267, -3.70912604280114577282e-01) (268, -1.96226891274027503975e+00) (269, -2.00730972783029565365e-01) (270, 2.44854598190773903310e-01) (271, 1.28140077336543667386e+00) (272, 7.06957350149421515084e-01) (273, 9.56613573605561651192e-01) (274, 1.90155496074358776326e-01) (275, -1.44126836523041079730e+00) (276, 1.27397598281137114373e-01) (277, -1.15160773241413405543e+01) (278, 2.77030685498944828637e-01) (279, 1.64077256765306311870e+00) (280, 2.24176257526688099686e-01) (281, 6.20211737826137365914e-01) (282, -4.44518059775284468671e-01) (283, -1.20314617627327424820e-01) (284, 5.13155096064047744342e-01) (285, 4.12517212917261691385e-02) (286, -8.06345934663515784280e-01) (287, -4.39019836328148738147e+00) (288, 1.99860317231300932406e-01) (289, -2.86881367206002924064e+00) (290, 7.37937852710564445857e-01) (291, 3.45478687303799325559e-01) (292, -2.00374360069590444766e+01) (293, -1.60442447485089151327e-01) (294, -1.82138294682145263081e-01) (295, -1.40024990707208285556e+00) (296, 2.42103458448639397016e-01) (297, 1.24489572894340216891e+00) (298, 2.51092380604985773718e-02) (299, 1.72139669355948349283e-01) (300, -8.54011086882072767423e+00) (301, 9.00267262277135493775e-01) (302, -1.53239315679616128207e+00) (303, 2.70005013752450895304e-01) (304, 1.04588741510737558843e-02) (305, 4.41906098422079951504e-01) (306, -1.02202387721896048589e-01) (307, 9.23271657667664946700e-01) (308, 2.79352446698640843881e-01) (309, 1.20592529668325054715e+00) (310, 1.32005573867947201272e-01) (311, -2.77097702078859597918e+00) (312, -1.97279710333370061903e+00) (313, 8.31169657379467796687e-01) (314, -4.44093700567299687343e-01) (315, -7.64677978121775958620e-01) (316, 2.19909196400140699579e-01) (317, 4.78620624928323301628e-01) (318, 2.06513813713450102016e-02) (319, -8.73408878398462706905e-01) (320, 1.36749258696006847913e-01) (321, 3.18438812768272849762e-01) (322, 7.72714164830851757415e-01) (323, -1.99072485372754348631e+00) (324, -2.06411671649240302528e+00) (325, -3.35947159909695480806e-01) (326, -7.99755441693857926921e-01) (327, 4.29846347789270388784e-01) (0, -7.31021778521087850500e-01) (1, -3.59058657368145461852e-01) (2, -1.26571097582931049175e+01) (3, 3.92362179290363002337e+01) (4, 7.13850024181264641854e-01) (5, -5.06503722949363588413e+00) (6, -5.62795924987946838414e-01) (7, 3.86736059796983333570e+00) (8, -7.89366050814019892812e-01) (9, 3.91192805897304225482e+01) (10, -1.40802786910345067994e+00) (11, -5.78519218077269248290e-01) (12, 1.20040799460963887313e+00) (13, 7.11486826074236056172e+00) (14, 9.05442682452096470058e-01) (15, 4.61946164206705045530e+00) (16, -1.41372909899587684279e+00) (17, 2.66152073390221133309e+00) (18, 5.33048429057942652065e+00) (19, -2.96005046966781870665e-01) (20, -9.07065002837892486731e-01) (21, -3.83025391331965803232e+00) (22, -5.07907793803550600131e+00) (23, -5.06142751260139345248e+00) (24, -1.06394379317283749309e+00) (25, 3.91808120440551448382e+01) (26, 1.89623888775711968435e+00) (27, -1.17296730648508096273e+00) (28, 1.98099700694160296699e+00) (29, 7.11334158273163263964e-01) (30, -2.11046741032252349601e-01) (31, -1.72096478441627773748e+01) (32, -7.88622738848943072298e-01) (33, -1.83964223998016401795e-01) (34, 5.94890958373916500790e+00) (35, -1.10681062574226607431e+00) (36, -1.03041517976447716265e+00) (37, 7.78809360837891540008e-01) (38, -3.00646256671015188466e-01) (39, 1.61713337787655531130e+00) (40, 5.86597221450757988492e-01) (41, 7.36328219630387637018e-01) (42, -7.13322080997647267608e-01) (43, -1.10127294722852497877e+00) (44, -8.83295884946104004065e-01) (45, -3.84046959522765751771e+00) (46, -9.51693947085853420020e-01) (47, -5.71246882600215055703e-01) (48, 5.00233795850908524727e+00) (49, -1.71799678752096447454e+01) (50, -2.95967066663118893999e-01) (51, 7.19228942253813674501e-02) (52, 7.07553014886491915547e+00) (53, -1.56256511432885414337e+00) (54, 9.64764513925239208803e-01) (55, 1.87589621032633191433e+00) (56, 1.22737213007764500716e+00) (57, -2.46709044924035847401e+00) (58, 1.34043338940815481841e+00) (59, 6.97895491244019505750e-01) (60, 6.75017414830114681479e-01) (61, 6.58668316578820189910e-01) (62, 7.33147914717948046004e-01) (63, -1.51499046837792050724e+00) (64, -5.92563224532848487058e-01) (65, -2.00805402653268405544e+00) (66, -5.67344323126496630216e-01) (67, -1.32878273681530245653e+00) (68, -1.63080802724639428725e+00) (69, -4.59598881701078321171e-01) (70, 3.92406465839454341449e+01) (71, -3.11197504295526794493e+00) (72, -3.68843645726937285900e-01) (73, 6.18378434564156420628e-01) (74, 