FANN_FLO_2.1
num_layers=3
learning_rate=0.700000
connection_rate=1.000000
network_type=0
learning_momentum=0.000000
training_algorithm=2
train_error_function=1
train_stop_function=0
cascade_output_change_fraction=0.010000
quickprop_decay=-0.000100
quickprop_mu=1.750000
rprop_increase_factor=1.200000
rprop_decrease_factor=0.500000
rprop_delta_min=0.000000
rprop_delta_max=50.000000
rprop_delta_zero=0.100000
cascade_output_stagnation_epochs=12
cascade_candidate_change_fraction=0.010000
cascade_candidate_stagnation_epochs=12
cascade_max_out_epochs=150
cascade_min_out_epochs=50
cascade_max_cand_epochs=150
cascade_min_cand_epochs=50
cascade_num_candidate_groups=2
bit_fail_limit=3.49999999999999977796e-01
cascade_candidate_limit=1.00000000000000000000e+03
cascade_weight_multiplier=4.00000000000000022204e-01
cascade_activation_functions_count=10
cascade_activation_functions=3 5 7 8 10 11 14 15 16 17 
cascade_activation_steepnesses_count=4
cascade_activation_steepnesses=2.50000000000000000000e-01 5.00000000000000000000e-01 7.50000000000000000000e-01 1.00000000000000000000e+00 
layer_sizes=328 167 7 
scale_included=0
neurons (num_inputs, activation_function, activation_steepness)=(0, 0, 0.00000000000000000000e+00) (0, 0, 0.00000000000000000000e+00) (0, 0, 0.00000000000000000000e+00) (0, 0, 0.00000000000000000000e+00) (0, 0, 0.00000000000000000000e+00) (0, 0, 0.00000000000000000000e+00) (0, 0, 0.00000000000000000000e+00) (0, 0, 0.00000000000000000000e+00) (0, 0, 0.00000000000000000000e+00) (0, 0, 0.00000000000000000000e+00) (0, 0, 0.00000000000000000000e+00) (0, 0, 0.00000000000000000000e+00) (0, 0, 0.00000000000000000000e+00) (0, 0, 0.00000000000000000000e+00) (0, 0, 0.00000000000000000000e+00) (0, 0, 0.00000000000000000000e+00) (0, 0, 0.00000000000000000000e+00) (0, 0, 0.00000000000000000000e+00) (0, 0, 0.00000000000000000000e+00) (0, 0, 0.00000000000000000000e+00) (0, 0, 0.00000000000000000000e+00) (0, 0, 0.00000000000000000000e+00) (0, 0, 0.00000000000000000000e+00) (0, 0, 0.00000000000000000000e+00) (0, 0, 0.00000000000000000000e+00) (0, 0, 0.00000000000000000000e+00) (0, 0, 0.00000000000000000000e+00) (0, 0, 0.00000000000000000000e+00) (0, 0, 0.00000000000000000000e+00) (0, 0, 0.00000000000000000000e+00) (0, 0, 0.00000000000000000000e+00) (0, 0, 0.00000000000000000000e+00) (0, 0, 0.00000000000000000000e+00) (0, 0, 0.00000000000000000000e+00) (0, 0, 0.00000000000000000000e+00) (0, 0, 0.00000000000000000000e+00) (0, 0, 0.00000000000000000000e+00) (0, 0, 0.00000000000000000000e+00) (0, 0, 0.00000000000000000000e+00) (0, 0, 0.00000000000000000000e+00) (0, 0, 0.00000000000000000000e+00) (0, 0, 0.00000000000000000000e+00) (0, 0, 0.00000000000000000000e+00) (0, 0, 0.00000000000000000000e+00) (0, 0, 0.00000000000000000000e+00) (0, 0, 0.00000000000000000000e+00) (0, 0, 0.00000000000000000000e+00) (0, 0, 0.00000000000000000000e+00) (0, 0, 0.00000000000000000000e+00) (0, 0, 0.00000000000000000000e+00) (0, 0, 0.00000000000000000000e+00) (0, 0, 0.00000000000000000000e+00) (0, 0, 0.00000000000000000000e+00) (0, 0, 0.00000000000000000000e+00) (0, 0, 0.00000000000000000000e+00) (0, 0, 0.00000000000000000000e+00) (0, 0, 0.00000000000000000000e+00) (0, 0, 0.00000000000000000000e+00) (0, 0, 0.00000000000000000000e+00) (0, 0, 0.00000000000000000000e+00) (0, 0, 0.00000000000000000000e+00) (0, 0, 0.00000000000000000000e+00) (0, 0, 0.00000000000000000000e+00) (0, 0, 0.00000000000000000000e+00) (0, 0, 0.00000000000000000000e+00) (0, 0, 0.00000000000000000000e+00) (0, 0, 0.00000000000000000000e+00) (0, 0, 0.00000000000000000000e+00) (0, 0, 0.00000000000000000000e+00) (0, 0, 0.00000000000000000000e+00) (0, 0, 0.00000000000000000000e+00) (0, 0, 0.00000000000000000000e+00) (0, 0, 0.00000000000000000000e+00) (0, 0, 0.00000000000000000000e+00) (0, 0, 0.00000000000000000000e+00) (0, 0, 0.00000000000000000000e+00) (0, 0, 0.00000000000000000000e+00) (0, 0, 0.00000000000000000000e+00) (0, 0, 0.00000000000000000000e+00) (0, 0, 0.00000000000000000000e+00) (0, 0, 0.00000000000000000000e+00) (0, 0, 0.00000000000000000000e+00) (0, 0, 0.00000000000000000000e+00) (0, 0, 0.00000000000000000000e+00) (0, 0, 0.00000000000000000000e+00) (0, 0, 0.00000000000000000000e+00) (0, 0, 0.00000000000000000000e+00) (0, 0, 0.00000000000000000000e+00) (0, 0, 0.00000000000000000000e+00) (0, 0, 0.00000000000000000000e+00) (0, 0, 0.00000000000000000000e+00) (0, 0, 0.00000000000000000000e+00) (0, 0, 0.00000000000000000000e+00) (0, 0, 0.00000000000000000000e+00) (0, 0, 0.00000000000000000000e+00) (0, 0, 0.00000000000000000000e+00) (0, 0, 0.00000000000000000000e+00) (0, 0, 0.00000000000000000000e+00) (0, 0, 0.00000000000000000000e+00) (0, 0, 0.00000000000000000000e+00) (0, 0, 0.00000000000000000000e+00) (0, 0, 0.00000000000000000000e+00) (0, 0, 0.00000000000000000000e+00) (0, 0, 0.00000000000000000000e+00) (0, 0, 0.00000000000000000000e+00) (0, 0, 0.00000000000000000000e+00) (0, 0, 0.00000000000000000000e+00) (0, 0, 0.00000000000000000000e+00) (0, 0, 0.00000000000000000000e+00) (0, 0, 0.00000000000000000000e+00) (0, 0, 0.00000000000000000000e+00) (0, 0, 0.00000000000000000000e+00) (0, 0, 0.00000000000000000000e+00) (0, 0, 0.00000000000000000000e+00) (0, 0, 0.00000000000000000000e+00) (0, 0, 0.00000000000000000000e+00) (0, 0, 0.00000000000000000000e+00) (0, 0, 0.00000000000000000000e+00) (0, 0, 0.00000000000000000000e+00) (0, 0, 0.00000000000000000000e+00) (0, 0, 0.00000000000000000000e+00) (0, 0, 0.00000000000000000000e+00) (0, 0, 0.00000000000000000000e+00) (0, 0, 0.00000000000000000000e+00) (0, 0, 0.00000000000000000000e+00) (0, 0, 0.00000000000000000000e+00) (0, 0, 0.00000000000000000000e+00) (0, 0, 0.00000000000000000000e+00) (0, 0, 0.00000000000000000000e+00) (0, 0, 0.00000000000000000000e+00) (0, 0, 0.00000000000000000000e+00) (0, 0, 0.00000000000000000000e+00) (0, 0, 0.00000000000000000000e+00) (0, 0, 0.00000000000000000000e+00) (0, 0, 0.00000000000000000000e+00) (0, 0, 0.00000000000000000000e+00) (0, 0, 0.00000000000000000000e+00) (0, 0, 0.00000000000000000000e+00) (0, 0, 0.00000000000000000000e+00) (0, 0, 0.00000000000000000000e+00) (0, 0, 0.00000000000000000000e+00) (0, 0, 0.00000000000000000000e+00) (0, 0, 0.00000000000000000000e+00) (0, 0, 0.00000000000000000000e+00) (0, 0, 0.00000000000000000000e+00) (0, 0, 0.00000000000000000000e+00) (0, 0, 0.00000000000000000000e+00) (0, 0, 0.00000000000000000000e+00) (0, 0, 0.00000000000000000000e+00) (0, 0, 0.00000000000000000000e+00) (0, 0, 0.00000000000000000000e+00) (0, 0, 0.00000000000000000000e+00) (0, 0, 0.00000000000000000000e+00) (0, 0, 0.00000000000000000000e+00) (0, 0, 0.00000000000000000000e+00) (0, 0, 0.00000000000000000000e+00) (0, 0, 0.00000000000000000000e+00) (0, 0, 0.00000000000000000000e+00) (0, 0, 0.00000000000000000000e+00) (0, 0, 0.00000000000000000000e+00) (0, 0, 0.00000000000000000000e+00) (0, 0, 0.00000000000000000000e+00) (0, 0, 0.00000000000000000000e+00) (0, 0, 0.00000000000000000000e+00) (0, 0, 0.00000000000000000000e+00) (0, 0, 0.00000000000000000000e+00) (0, 0, 0.00000000000000000000e+00) (0, 0, 0.00000000000000000000e+00) (0, 0, 0.00000000000000000000e+00) (0, 0, 0.00000000000000000000e+00) (0, 0, 0.00000000000000000000e+00) (0, 0, 0.00000000000000000000e+00) (0, 0, 0.00000000000000000000e+00) (0, 0, 0.00000000000000000000e+00) (0, 0, 0.00000000000000000000e+00) (0, 0, 0.00000000000000000000e+00) (0, 0, 0.00000000000000000000e+00) (0, 0, 0.00000000000000000000e+00) (0, 0, 0.00000000000000000000e+00) (0, 0, 0.00000000000000000000e+00) (0, 0, 0.00000000000000000000e+00) (0, 0, 0.00000000000000000000e+00) (0, 0, 0.00000000000000000000e+00) (0, 0, 0.00000000000000000000e+00) (0, 0, 0.00000000000000000000e+00) (0, 0, 0.00000000000000000000e+00) (0, 0, 0.00000000000000000000e+00) (0, 0, 0.00000000000000000000e+00) (0, 0, 0.00000000000000000000e+00) (0, 0, 0.00000000000000000000e+00) (0, 0, 0.00000000000000000000e+00) (0, 0, 0.00000000000000000000e+00) (0, 0, 0.00000000000000000000e+00) (0, 0, 0.00000000000000000000e+00) (0, 0, 0.00000000000000000000e+00) (0, 0, 0.00000000000000000000e+00) (0, 0, 0.00000000000000000000e+00) (0, 0, 0.00000000000000000000e+00) (0, 0, 0.00000000000000000000e+00) (0, 0, 0.00000000000000000000e+00) (0, 0, 0.00000000000000000000e+00) (0, 0, 0.00000000000000000000e+00) (0, 0, 0.00000000000000000000e+00) (0, 0, 0.00000000000000000000e+00) (0, 0, 0.00000000000000000000e+00) (0, 0, 0.00000000000000000000e+00) (0, 0, 0.00000000000000000000e+00) (0, 0, 0.00000000000000000000e+00) (0, 0, 0.00000000000000000000e+00) (0, 0, 0.00000000000000000000e+00) (0, 0, 0.00000000000000000000e+00) (0, 0, 0.00000000000000000000e+00) (0, 0, 0.00000000000000000000e+00) (0, 0, 0.00000000000000000000e+00) (0, 0, 0.00000000000000000000e+00) (0, 0, 0.00000000000000000000e+00) (0, 0, 0.00000000000000000000e+00) (0, 0, 0.00000000000000000000e+00) (0, 0, 0.00000000000000000000e+00) (0, 0, 0.00000000000000000000e+00) (0, 0, 0.00000000000000000000e+00) (0, 0, 0.00000000000000000000e+00) (0, 0, 0.00000000000000000000e+00) (0, 0, 0.00000000000000000000e+00) (0, 0, 0.00000000000000000000e+00) (0, 0, 0.00000000000000000000e+00) (0, 0, 0.00000000000000000000e+00) (0, 0, 0.00000000000000000000e+00) (0, 0, 0.00000000000000000000e+00) (0, 0, 0.00000000000000000000e+00) (0, 0, 0.00000000000000000000e+00) (0, 0, 0.00000000000000000000e+00) (0, 0, 0.00000000000000000000e+00) (0, 0, 0.00000000000000000000e+00) (0, 0, 0.00000000000000000000e+00) (0, 0, 0.00000000000000000000e+00) (0, 0, 0.00000000000000000000e+00) (0, 0, 0.00000000000000000000e+00) (0, 0, 0.00000000000000000000e+00) (0, 0, 0.00000000000000000000e+00) (0, 0, 0.00000000000000000000e+00) (0, 0, 0.00000000000000000000e+00) (0, 0, 0.00000000000000000000e+00) (0, 0, 0.00000000000000000000e+00) (0, 0, 0.00000000000000000000e+00) (0, 0, 0.00000000000000000000e+00) (0, 0, 0.00000000000000000000e+00) (0, 0, 0.00000000000000000000e+00) (0, 0, 0.00000000000000000000e+00) (0, 0, 0.00000000000000000000e+00) (0, 0, 0.00000000000000000000e+00) (0, 0, 0.00000000000000000000e+00) (0, 0, 0.00000000000000000000e+00) (0, 0, 0.00000000000000000000e+00) (0, 0, 0.00000000000000000000e+00) (0, 0, 0.00000000000000000000e+00) (0, 0, 0.00000000000000000000e+00) (0, 0, 0.00000000000000000000e+00) (0, 0, 0.00000000000000000000e+00) (0, 0, 0.00000000000000000000e+00) (0, 0, 0.00000000000000000000e+00) (0, 0, 0.00000000000000000000e+00) (0, 0, 0.00000000000000000000e+00) (0, 0, 0.00000000000000000000e+00) (0, 0, 0.00000000000000000000e+00) (0, 0, 0.00000000000000000000e+00) (0, 0, 0.00000000000000000000e+00) (0, 0, 0.00000000000000000000e+00) (0, 0, 0.00000000000000000000e+00) (0, 0, 0.00000000000000000000e+00) (0, 0, 0.00000000000000000000e+00) (0, 0, 0.00000000000000000000e+00) (0, 0, 0.00000000000000000000e+00) (0, 0, 0.00000000000000000000e+00) (0, 0, 0.00000000000000000000e+00) (0, 0, 0.00000000000000000000e+00) (0, 0, 0.00000000000000000000e+00) (0, 0, 0.00000000000000000000e+00) (0, 0, 0.00000000000000000000e+00) (0, 0, 0.00000000000000000000e+00) (0, 0, 0.00000000000000000000e+00) (0, 0, 0.00000000000000000000e+00) (0, 0, 0.00000000000000000000e+00) (0, 0, 0.00000000000000000000e+00) (0, 0, 0.00000000000000000000e+00) (0, 0, 0.00000000000000000000e+00) (0, 0, 0.00000000000000000000e+00) (0, 0, 0.00000000000000000000e+00) (0, 0, 0.00000000000000000000e+00) (0, 0, 0.00000000000000000000e+00) (0, 0, 0.00000000000000000000e+00) (0, 0, 0.00000000000000000000e+00) (0, 0, 0.00000000000000000000e+00) (0, 0, 0.00000000000000000000e+00) (0, 0, 0.00000000000000000000e+00) (0, 0, 0.00000000000000000000e+00) (0, 0, 0.00000000000000000000e+00) (0, 0, 0.00000000000000000000e+00) (0, 0, 0.00000000000000000000e+00) (0, 0, 0.00000000000000000000e+00) (0, 0, 0.00000000000000000000e+00) (0, 0, 0.00000000000000000000e+00) (0, 0, 0.00000000000000000000e+00) (0, 0, 0.00000000000000000000e+00) (0, 0, 0.00000000000000000000e+00) (0, 0, 0.00000000000000000000e+00) (0, 0, 0.00000000000000000000e+00) (0, 0, 0.00000000000000000000e+00) (0, 0, 0.00000000000000000000e+00) (0, 0, 0.00000000000000000000e+00) (0, 0, 0.00000000000000000000e+00) (0, 0, 0.00000000000000000000e+00) (0, 0, 0.00000000000000000000e+00) (0, 0, 0.00000000000000000000e+00) (0, 0, 0.00000000000000000000e+00) (0, 0, 0.00000000000000000000e+00) (0, 0, 0.00000000000000000000e+00) (0, 0, 0.00000000000000000000e+00) (0, 0, 0.00000000000000000000e+00) (0, 0, 0.00000000000000000000e+00) (0, 0, 0.00000000000000000000e+00) (0, 0, 0.00000000000000000000e+00) (0, 0, 0.00000000000000000000e+00) (0, 0, 0.00000000000000000000e+00) (0, 0, 0.00000000000000000000e+00) (0, 0, 0.00000000000000000000e+00) (0, 0, 0.00000000000000000000e+00) (0, 0, 0.00000000000000000000e+00) (328, 4, 5.00000000000000000000e-01) (328, 4, 5.00000000000000000000e-01) (328, 4, 5.00000000000000000000e-01) (328, 4, 5.00000000000000000000e-01) (328, 4, 5.00000000000000000000e-01) (328, 4, 5.00000000000000000000e-01) (328, 4, 5.00000000000000000000e-01) (328, 4, 5.00000000000000000000e-01) (328, 4, 5.00000000000000000000e-01) (328, 4, 5.00000000000000000000e-01) (328, 4, 5.00000000000000000000e-01) (328, 4, 5.00000000000000000000e-01) (328, 4, 5.00000000000000000000e-01) (328, 4, 5.00000000000000000000e-01) (328, 4, 5.00000000000000000000e-01) (328, 4, 5.00000000000000000000e-01) (328, 4, 5.00000000000000000000e-01) (328, 4, 5.00000000000000000000e-01) (328, 4, 5.00000000000000000000e-01) (328, 4, 5.00000000000000000000e-01) (328, 4, 5.00000000000000000000e-01) (328, 4, 5.00000000000000000000e-01) (328, 4, 5.00000000000000000000e-01) (328, 4, 5.00000000000000000000e-01) (328, 4, 5.00000000000000000000e-01) (328, 4, 5.00000000000000000000e-01) (328, 4, 5.00000000000000000000e-01) (328, 4, 5.00000000000000000000e-01) (328, 4, 5.00000000000000000000e-01) (328, 4, 5.00000000000000000000e-01) (328, 4, 5.00000000000000000000e-01) (328, 4, 5.00000000000000000000e-01) (328, 4, 5.00000000000000000000e-01) (328, 4, 5.00000000000000000000e-01) (328, 4, 5.00000000000000000000e-01) (328, 4, 5.00000000000000000000e-01) (328, 4, 5.00000000000000000000e-01) (328, 4, 5.00000000000000000000e-01) (328, 4, 5.00000000000000000000e-01) (328, 4, 5.00000000000000000000e-01) (328, 4, 5.00000000000000000000e-01) (328, 4, 5.00000000000000000000e-01) (328, 4, 5.00000000000000000000e-01) (328, 4, 5.00000000000000000000e-01) (328, 4, 5.00000000000000000000e-01) (328, 4, 5.00000000000000000000e-01) (328, 4, 5.00000000000000000000e-01) (328, 4, 5.00000000000000000000e-01) (328, 4, 5.00000000000000000000e-01) (328, 4, 5.00000000000000000000e-01) (328, 4, 5.00000000000000000000e-01) (328, 4, 5.00000000000000000000e-01) (328, 4, 5.00000000000000000000e-01) (328, 4, 5.00000000000000000000e-01) (328, 4, 5.00000000000000000000e-01) (328, 4, 5.00000000000000000000e-01) (328, 4, 5.00000000000000000000e-01) (328, 4, 5.00000000000000000000e-01) (328, 4, 5.00000000000000000000e-01) (328, 4, 5.00000000000000000000e-01) (328, 4, 5.00000000000000000000e-01) (328, 4, 5.00000000000000000000e-01) (328, 4, 5.00000000000000000000e-01) (328, 4, 5.00000000000000000000e-01) (328, 4, 5.00000000000000000000e-01) (328, 4, 5.00000000000000000000e-01) (328, 4, 5.00000000000000000000e-01) (328, 4, 5.00000000000000000000e-01) (328, 4, 5.00000000000000000000e-01) (328, 4, 5.00000000000000000000e-01) (328, 4, 5.00000000000000000000e-01) (328, 4, 5.00000000000000000000e-01) (328, 4, 5.00000000000000000000e-01) (328, 4, 5.00000000000000000000e-01) (328, 4, 5.00000000000000000000e-01) (328, 4, 5.00000000000000000000e-01) (328, 4, 5.00000000000000000000e-01) (328, 4, 5.00000000000000000000e-01) (328, 4, 5.00000000000000000000e-01) (328, 4, 5.00000000000000000000e-01) (328, 4, 5.00000000000000000000e-01) (328, 4, 5.00000000000000000000e-01) (328, 4, 5.00000000000000000000e-01) (328, 4, 5.00000000000000000000e-01) (328, 4, 5.00000000000000000000e-01) (328, 4, 5.00000000000000000000e-01) (328, 4, 5.00000000000000000000e-01) (328, 4, 5.00000000000000000000e-01) (328, 4, 5.00000000000000000000e-01) (328, 4, 5.00000000000000000000e-01) (328, 4, 5.00000000000000000000e-01) (328, 4, 5.00000000000000000000e-01) (328, 4, 5.00000000000000000000e-01) (328, 4, 5.00000000000000000000e-01) (328, 4, 5.00000000000000000000e-01) (328, 4, 5.00000000000000000000e-01) (328, 4, 5.00000000000000000000e-01) (328, 4, 5.00000000000000000000e-01) (328, 4, 5.00000000000000000000e-01) (328, 4, 5.00000000000000000000e-01) (328, 4, 5.00000000000000000000e-01) (328, 4, 5.00000000000000000000e-01) (328, 4, 5.00000000000000000000e-01) (328, 4, 5.00000000000000000000e-01) (328, 4, 5.00000000000000000000e-01) (328, 4, 5.00000000000000000000e-01) (328, 4, 5.00000000000000000000e-01) (328, 4, 5.00000000000000000000e-01) (328, 4, 5.00000000000000000000e-01) (328, 4, 5.00000000000000000000e-01) (328, 4, 5.00000000000000000000e-01) (328, 4, 5.00000000000000000000e-01) (328, 4, 5.00000000000000000000e-01) (328, 4, 5.00000000000000000000e-01) (328, 4, 5.00000000000000000000e-01) (328, 4, 5.00000000000000000000e-01) (328, 4, 5.00000000000000000000e-01) (328, 4, 5.00000000000000000000e-01) (328, 4, 5.00000000000000000000e-01) (328, 4, 5.00000000000000000000e-01) (328, 4, 5.00000000000000000000e-01) (328, 4, 5.00000000000000000000e-01) (328, 4, 5.00000000000000000000e-01) (328, 4, 5.00000000000000000000e-01) (328, 4, 5.00000000000000000000e-01) (328, 4, 5.00000000000000000000e-01) (328, 4, 5.00000000000000000000e-01) (328, 4, 5.00000000000000000000e-01) (328, 4, 5.00000000000000000000e-01) (328, 4, 5.00000000000000000000e-01) (328, 4, 5.00000000000000000000e-01) (328, 4, 5.00000000000000000000e-01) (328, 4, 5.00000000000000000000e-01) (328, 4, 5.00000000000000000000e-01) (328, 4, 5.00000000000000000000e-01) (328, 4, 5.00000000000000000000e-01) (328, 4, 5.00000000000000000000e-01) (328, 4, 5.00000000000000000000e-01) (328, 4, 5.00000000000000000000e-01) (328, 4, 5.00000000000000000000e-01) (328, 4, 5.00000000000000000000e-01) (328, 4, 5.00000000000000000000e-01) (328, 4, 5.00000000000000000000e-01) (328, 4, 5.00000000000000000000e-01) (328, 4, 5.00000000000000000000e-01) (328, 4, 5.00000000000000000000e-01) (328, 4, 5.00000000000000000000e-01) (328, 4, 5.00000000000000000000e-01) (328, 4, 5.00000000000000000000e-01) (328, 4, 5.00000000000000000000e-01) (328, 4, 5.00000000000000000000e-01) (328, 4, 5.00000000000000000000e-01) (328, 4, 5.00000000000000000000e-01) (328, 4, 5.00000000000000000000e-01) (328, 4, 5.00000000000000000000e-01) (328, 4, 5.00000000000000000000e-01) (328, 4, 5.00000000000000000000e-01) (328, 4, 5.00000000000000000000e-01) (328, 4, 5.00000000000000000000e-01) (328, 4, 5.00000000000000000000e-01) (328, 4, 5.00000000000000000000e-01) (328, 4, 5.00000000000000000000e-01) (328, 4, 5.00000000000000000000e-01) (328, 4, 5.00000000000000000000e-01) (328, 4, 5.00000000000000000000e-01) (328, 4, 5.00000000000000000000e-01) (0, 0, 0.00000000000000000000e+00) (167, 4, 5.00000000000000000000e-01) (167, 4, 5.00000000000000000000e-01) (167, 4, 5.00000000000000000000e-01) (167, 4, 5.00000000000000000000e-01) (167, 4, 5.00000000000000000000e-01) (167, 4, 5.00000000000000000000e-01) (0, 0, 0.00000000000000000000e+00) 
connections (connected_to_neuron, weight)=(0, -3.91288388140581533392e+00) (1, -3.17816085714811702445e+00) (2, 5.87449464685299247435e+01) (3, 1.50000000000000000000e+03) (4, -2.11949723319293681367e-01) (5, 2.39469956424380914228e+00) (6, 4.52503137356282558734e-01) (7, 7.31982132759829596580e+02) (8, 1.18343112743928369213e+00) (9, 5.20752517021685861209e+01) (10, 2.69849650641563520992e-01) (11, 1.48060038296139673264e-01) (12, 1.38325983185972859246e+02) (13, 1.15301332309173893975e+01) (14, 4.39449605700822587551e-01) (15, 5.05473550534555685076e-02) (16, 3.75994379689961760960e+02) (17, 2.41724188765537917334e+00) (18, 4.23683895840246833586e+01) (19, 5.66124722339192310017e-01) (20, -1.81979940524021372994e+02) (21, 1.07833450015258147658e+00) (22, 1.23716297620652682099e+00) (23, 4.39482478281632982231e+00) (24, 1.18386824014929370463e+00) (25, 1.17362544682542534247e+03) (26, 5.11289883563881630835e+00) (27, -3.69283304622425423425e-01) (28, -1.93359292131913140800e+00) (29, -2.19039983807458948917e+00) (30, 2.72010818144290340115e+02) (31, 4.71769135891839610508e+01) (32, 1.21580292819284996320e+00) (33, 7.37801792712888815373e-01) (34, -1.24926264563206791536e+03) (35, 4.48247729704885546770e-03) (36, -6.02308103326167127989e+01) (37, -1.44911371632054891689e-01) (38, 2.17589834568055084940e-01) (39, 1.64882828075141929958e+02) (40, -1.44405216617134207757e-01) (41, 1.68013753815161464900e+02) (42, 1.63881666855965249852e+02) (43, -4.59926797134493636765e-02) (44, -9.57954328796004084268e+00) (45, -8.60488346700991835192e-01) (46, -5.48833025605147071246e+01) (47, 6.98445695831699353562e-01) (48, 2.04943067388894846204e+01) (49, 1.22022756795295578058e+02) (50, -5.45581693218753827068e+01) (51, 4.72151441963121309975e-01) (52, 3.18834677474547305565e+01) (53, 1.25399737107342956755e+00) (54, -2.19934871548870233937e+02) (55, 4.54376853038309658217e+00) (56, -1.09319506748533470386e+02) (57, 4.58652773436588034883e+00) (58, -5.97273176774281489010e-01) (59, 2.90286977989245402465e-02) (60, -1.94585657636517805891e-01) (61, -6.14962498785624700481e-01) (62, 8.66384001914009993506e-01) (63, 4.21592560660656867633e-02) (64, -3.44987297793460490070e-01) (65, -1.15276941954898223819e-01) (66, -8.87138072306317013727e+01) (67, -7.60845009136446454034e-02) (68, 8.29819722602935905265e-01) (69, 2.51086273545099869509e+00) (70, 1.50000000000000000000e+03) (71, 1.88311658412875981838e+00) (72, -3.25961624538377292559e-01) (73, 1.04128539905330841364e+00) (74, 2.26137727830468948653e+00) (75, -1.80993795007685670528e-01) (76, -2.55696188311347161193e-01) (77, -2.15855850677328087173e+00) (78, 3.93738491105415200355e-01) (79, 3.78848217807258834000e+02) (80, 1.25074189636321239050e+03) (81, 6.98862050619366755200e+02) (82, -7.90904070021723555328e+01) (83, 6.85073312823499520618e+01) (84, 1.46190722959679303417e-01) (85, 8.62755276371031868621e+02) (86, -9.27045264021928232978e+02) (87, -4.57164288748293490272e+00) (88, 4.57708918574203232899e-02) (89, 9.26913858026825664638e+02) (90, 3.63895792017398411744e-01) (91, 7.41867317674253876764e-04) (92, -1.02947983853463995274e+02) (93, -6.88893305294423612395e+01) (94, 1.03131949529083954964e+00) (95, -1.86999281022261876206e-01) (96, 8.37788187677493134675e-02) (97, -5.01118608933592781796e+01) (98, 6.80616925253948323871e+00) (99, 2.16971262306153022337e+02) (100, -4.74799149336868765658e+02) (101, 1.90530720462424828232e-02) (102, 4.93026741974873505825e+00) (103, 9.11253008710713288565e+02) (104, 3.71879827698676479031e+02) (105, 7.24176759503595390832e-01) (106, 3.17253515854534373641e-01) (107, 4.77233289328859722200e-02) (108, -6.35877668139013678683e+01) (109, 2.87895923359531114016e+00) (110, -1.37251240684420650062e+00) (111, 2.95232186986868825329e+01) (112, 4.45466489526702691393e+00) (113, 1.08662625700861092959e+00) (114, 6.04643963029310953061e+02) (115, 1.48218682988398486877e+00) (116, 1.40415488776777579005e+02) (117, 7.71820278016952743272e-01) (118, -1.21521439439022898910e+02) (119, 9.50285570373087917773e-01) (120, 2.59037091200854441286e-01) (121, -3.05857477831067980922e-01) (122, 1.19250897863900348739e+02) (123, 5.19693898908113510515e+02) (124, -8.70519628250848997997e-02) (125, -1.24849371739221538746e+02) (126, 1.15184770918929757499e+03) (127, 3.59644771751344349831e-01) (128, -1.57747184513791154359e+01) (129, 1.25444755183948619681e+00) (130, -1.40952466156575383138e+02) (131, -1.33296047221091362722e+00) (132, 5.31109777190481509024e+02) (133, -1.06169725145129768862e+03) (134, -1.05587821906197909527e+01) (135, 6.03255917931412227517e+02) (136, 9.37516107648900060667e+02) (137, 9.29511509989688420319e+01) (138, 1.01596826144549856608e+00) (139, -1.69103570916034506855e-01) (140, -1.08246345462576698537e+00) (141, 2.04686042012369551202e+00) (142, 1.11715410744998007431e+03) (143, 9.08522159245461807586e+02) (144, 2.51381663123246141822e+02) (145, 1.29352902632699451324e+00) (146, -7.03688422466768548347e-01) (147, 7.60095457067766460568e+02) (148, 7.56932220306815821687e+01) (149, -1.51813690829280145689e-01) (150, 1.83935608973820302614e-01) (151, -8.39141044546692499440e-02) (152, 1.57121979501263297152e+02) (153, 1.88786656107596650944e-01) (154, 1.26183175150071202886e+00) (155, 1.55531383674448325793e-02) (156, 2.63054228794345423825e-01) (157, -4.70243060300945288077e+01) (158, -2.78365093880736519383e-02) (159, 6.50638365740298808132e-03) (160, -5.00058723162324914036e-01) (161, 2.99107761126069704005e+02) (162, -3.23821851760072332294e-01) (163, 1.68295749505993064155e+00) (164, 4.29358767900316240507e-01) (165, 8.39868415315467018445e+02) (166, 1.15959552647940022929e+00) (167, -3.34493873828394350234e-01) (168, 9.10319871523397772251e-01) (169, 1.88846256461480943578e+00) (170, 6.38223108476549505497e-01) (171, -1.72239968987957681179e-01) (172, 1.38544741448303465603e+00) (173, 2.27036318505188683403e+00) (174, 5.54280898464014293303e-01) (175, -1.91482456767329729530e+01) (176, 8.77766947115404261304e-01) (177, 9.60965602728642949160e+01) (178, 1.33715801617162242110e+01) (179, -7.63477737589226546078e-01) (180, -1.51009259030624204412e-01) (181, 1.36247091855257296267e+00) (182, 4.23946648979839380900e+02) (183, -5.60938457812837896199e+01) (184, -3.01713766486489343155e-01) (185, 2.73309715434426721004e+02) (186, 3.58295169134394630994e-01) (187, -1.05095483736204786673e+00) (188, -7.35985375705009801095e+01) (189, 1.24728105826258754973e+01) (190, -2.55291013615754195598e+02) (191, 7.39196299185849170499e-01) (192, -1.29904414083558933379e-01) (193, 6.26625096938666370505e+00) (194, 6.93716771768913220697e-01) (195, 1.85490397904275766905e+02) (196, 1.29591116031683406540e+00) (197, -9.59149334800403252643e+00) (198, 1.45645128077429990299e+03) (199, 8.94227156184665417094e-02) (200, -7.96436056823989074749e-02) (201, 3.42075624595885074086e+02) (202, -5.64807151629637266277e-02) (203, 1.77555657377457021262e+00) (204, 5.52907709614557041355e-01) (205, 8.85880739800121475014e+00) (206, -8.43072657330308672385e-01) (207, -9.75386095634383276654e-01) (208, -8.13075084989604420116e+02) (209, -1.99218528066347744243e+02) (210, 1.02083133909076217982e+00) (211, 1.08521989689468953411e-01) (212, -2.91395522689821377671e-02) (213, 1.01346249768614200093e+03) (214, 2.48495331714273480495e-02) (215, 1.93728561903969989544e+02) (216, 9.40374368130905691210e-01) (217, 1.81778547819087776816e+00) (218, 6.04285623569904339902e-01) (219, -6.91366503017848632595e-01) (220, 3.65424226943361475151e+02) (221, 2.56667777340440864009e+02) (222, -1.00918682425886146348e+02) (223, 6.76271825265249390213e+02) (224, 4.44955101360903597651e+01) (225, 3.68477950681115051790e-02) (226, -5.53987414621326390574e-02) (227, -6.04704692726084902521e-02) (228, -1.77156679149940354812e+00) (229, 1.54896350895466095032e+00) (230, 1.23649269045797094435e+00) (231, 1.11526443151304920320e+03) (232, 1.18309886464279556684e+00) (233, -3.08013564085871834053e-02) (234, 1.23588410933096089217e-02) (235, 5.24745729562017004355e+02) (236, 7.71518933253851031395e+01) (237, 1.50000000000000000000e+03) (238, 6.19768331388262372350e-01) (239, 1.58102538596268175297e+02) (240, 4.28723719372537743766e+01) (241, 1.78004444445498563709e+02) (242, -3.94674365224607082148e-01) (243, 4.83743432039235810027e-01) (244, -5.89476113226797715505e-01) (245, 1.58996516866499765230e-01) (246, -1.25659428381635689220e+03) (247, -2.04032512749373751149e+01) (248, 2.24521857366295762404e+02) (249, -1.16776517781494351689e-01) (250, 2.66455095845794742715e-01) (251, -1.43201805630970468997e+00) (252, -1.35276068615513509030e+02) (253, 4.60173884435393105719e+01) (254, 7.50657777807410719895e-01) (255, 5.13547253004263681841e-02) (256, 3.79416879968528450440e-02) (257, -5.39438839294981917205e-02) (258, -3.03993385173124859577e-02) (259, 5.29590261026216868601e-01) (260, 1.00357002020142993537e+00) (261, -1.16484604815486747498e+01) (262, -2.32118400764420390603e-01) (263, 2.55377376219394003343e+00) (264, 7.71974672947905032894e-02) (265, 2.05160878262266777483e+02) (266, 1.02324052571442436488e+02) (267, -3.39382430513531160865e-02) (268, -6.78104661720924317692e-01) (269, 2.67480633116982512848e-03) (270, 1.44756705231278703927e+00) (271, 2.30323621099862236861e+02) (272, -2.31522540943621066845e+01) (273, -2.40147037659858971978e-03) (274, 6.19269750468250890663e+02) (275, 1.62801694419653281143e-01) (276, -8.98730226483648975133e-01) (277, 1.33762818784902947300e+02) (278, -6.44956974043610031799e+00) (279, -2.18791590861601464857e-01) (280, 1.53080238784451139883e-02) (281, -4.92708075352350988396e+02) (282, 5.20081120953925619688e+02) (283, 1.50000000000000000000e+03) (284, 2.66195220204692972743e+00) (285, -1.06218950948260032474e-01) (286, 3.45517053402908669302e-02) (287, 4.48157953660972452781e+02) (288, 2.58011306626973399569e-02) (289, -2.90547182400282906656e+02) (290, -1.19050947533125439648e+00) (291, -2.06976885127703669198e+00) (292, 2.22386101521433033668e+02) (293, 1.42017757428854363155e+01) (294, -7.34480907886150058417e-01) (295, -9.58692364649970727442e+01) (296, 9.75688986527023849327e-01) (297, 1.14888188381304917129e+03) (298, 2.34524428506742599332e-01) (299, 3.01926341832613520655e-01) (300, -1.49158983666437849891e+00) (301, 1.15936347043512753885e+02) (302, 1.18029276499468571693e+00) (303, -4.29150287128883292098e+01) (304, -4.02101348674117398119e-01) (305, 7.58073646732316586139e-01) (306, 1.42931298867768191485e+02) (307, 7.20152354514474901670e-01) (308, 7.27912968196894216710e-01) (309, 8.93651651378421320260e+02) (310, 7.39837459856994428264e+02) (311, -2.19237057730206380546e-01) (312, 9.55458294337876989921e-01) (313, -3.00718402171663612421e+00) (314, -1.54074460131250567940e+00) (315, 9.89156277302472020097e-02) (316, 1.04273605198955632289e+00) (317, -2.12432496871824416651e-01) (318, 1.96546074001660367458e-02) (319, 8.89641016685177810075e-01) (320, 2.37833175109900906818e+02) (321, 8.48854271697446427503e-01) (322, 2.40932607963178480048e+00) (323, 8.62495327236031528173e+00) (324, 3.65167352389225707832e-01) (325, 9.29002772143966093488e-01) (326, -2.62862971050709881560e-01) (327, 7.35655787380750658677e-01) (0, 2.32142506541898185901e+00) (1, 1.18848962099835553374e+01) (2, 1.01450547570736898706e+03) (3, 1.50000000000000000000e+03) (4, 1.59348770826355323749e+00) (5, 3.39140490375919201327e-01) (6, 8.76558209430457537792e+01) (7, 3.71804759024101201703e+02) (8, 6.48564613009824708634e-01) (9, 1.50000000000000000000e+03) (10, 1.60140408159186242720e+00) (11, 2.60290845926627811835e+00) (12, 1.50000000000000000000e+03) (13, 1.22281860705919910970e+02) (14, 9.99078407132305912342e+00) (15, 8.04023758751850836646e-01) (16, 1.50000000000000000000e+03) (17, 1.50000000000000000000e+03) (18, 9.12922873553518456902e+02) (19, 3.68019923690159034280e+00) (20, 1.50000000000000000000e+03) (21, 1.76144476193516075213e+00) (22, -7.85890258896931759303e-01) (23, -5.87076714227670534707e-02) (24, 4.93389037353954007514e-01) (25, 5.63377327859183651526e+02) (26, 5.22667291971532588235e+00) (27, 2.42522998794122868205e+00) (28, 1.34236746157544803992e+01) (29, 3.11766157059658599593e+00) (30, 1.50000000000000000000e+03) (31, 5.71337754959168023561e+02) (32, 3.78618541444707235044e+00) (33, 3.00522291654405959704e+00) (34, 1.11373169247703754081e+03) (35, 1.01017706250040273375e+00) (36, 1.50000000000000000000e+03) (37, 1.84296553803913321090e+00) (38, 3.72746523037921129173e+00) (39, 1.50000000000000000000e+03) (40, 1.57764673182131587303e+00) (41, 1.50000000000000000000e+03) (42, 1.50000000000000000000e+03) (43, 6.09705649252267090077e+00) (44, 9.75182419841429748431e+01) (45, 3.11395930229120176946e+00) (46, 1.50000000000000000000e+03) (47, 1.83354502199359603587e+00) (48, 4.01504343847517546351e+01) (49, 1.25481113662520033358e+03) (50, 1.50000000000000000000e+03) (51, 1.91596695181362575156e+00) (52, 1.01400167704326645435e+03) (53, 7.63004627700587079175e+00) (54, 1.50000000000000000000e+03) (55, 1.47694118869669788197e+00) (56, 1.50000000000000000000e+03) (57, 1.19780913197300833417e+02) (58, 1.77241445113994600113e+00) (59, 1.64749622930912131835e+00) (60, 1.00212191711629436952e+01) (61, 2.44823368847361200196e+00) (62, 4.31733387349503416885e+00) (63, 2.02437419219339576060e+00) (64, 4.61654277062980433755e+00) (65, 1.65702636500469751013e+01) (66, 1.50000000000000000000e+03) (67, 1.94145287097489815942e+00) (68, 2.92997507086197694903e+00) (69, 1.70496235575130228312e+00) (70, 1.50000000000000000000e+03) (71, 5.28242475807543065969e+00) (72, 8.75987914453891747257e+00) (73, 1.65029870134152378824e+00) (74, 5.63317312325487540292e-02) (75, 2.42694484330233573033e+00) (76, 2.14763146428269324772e+00) (77, 1.03867606925325546285e+01) (78, 1.42712793075481281235e+00) (79, 1.50000000000000000000e+03) (80, 1.50000000000000000000e+03) (81, 7.12039745700735238643e+02) (82, 1.20434559505915194677e+03) (83, 1.50000000000000000000e+03) (84, 3.02730172064604952098e+00) (85, 1.50000000000000000000e+03) (86, 1.50000000000000000000e+03) (87, 3.06243594289450413726e+01) (88, 1.71572213365813386332e+00) (89, 4.08158335397893239360e+01) (90, 3.97740111792399497759e+00) (91, 7.76485816817253571287e+00) (92, 1.50000000000000000000e+03) (93, 1.42969377507035096642e+03) (94, 2.69050352812836246486e+00) (95, 1.56729474993502448932e+00) (96, 3.23571430753170918848e+00) (97, 1.50000000000000000000e+03) (98, 2.99149753030537479681e-01) (99, 1.50000000000000000000e+03) (100, 1.09088678725002432657e+03) (101, 2.32859990901089419779e+00) (102, 1.77043422536257977207e+00) (103, 1.50000000000000000000e+03) (104, 1.50000000000000000000e+03) (105, 4.05025539569240233817e+00) (106, 2.83317065471260587373e+00) (107, 1.58381181473407872673e+00) (108, 4.03615065478168517643e+01) (109, -8.95289812839646614862e+00) (110, 4.66341643109999726136e+00) (111, 4.59528612137072855148e+02) (112, 1.58462868343379503777e+00) (113, 7.92125534805101949587e+00) (114, 7.96591508652139850710e+02) (115, 1.99299168604768084379e+00) (116, 1.50000000000000000000e+03) (117, -1.26983891370914869778e-01) (118, 4.06668788288891619231e+02) (119, 2.35710109519600585770e+00) (120, -1.08306744581922548276e-01) (121, 5.52309829952793140961e+00) (122, 1.50000000000000000000e+03) (123, 1.50000000000000000000e+03) (124, 2.47943756279718119373e+00) (125, 1.50000000000000000000e+03) (126, 1.50000000000000000000e+03) (127, 2.77515389996864936251e+00) (128, 1.50000000000000000000e+03) (129, 3.57792630713884451943e-01) (130, 1.50000000000000000000e+03) (131, 9.14321792730703108987e+00) (132, 1.50000000000000000000e+03) (133, 1.35989414275472108784e+03) (134, 4.28885423768239704145e+01) (135, 1.50000000000000000000e+03) (136, 1.50000000000000000000e+03) (137, 1.50000000000000000000e+03) (138, 7.02803701737158004192e-01) (139, 2.49902159003018109473e+00) (140, 2.94140266969800450170e+02) (141, -3.19577646171504414774e-01) (142, 7.82270699703037962536e+02) (143, 1.29015593005368123158e+03) (144, 1.50000000000000000000e+03) (145, 1.57458409220567885356e+00) (146, 3.39482178525605160502e+00) (147, 4.46629159726482441783e+02) (148, 7.73433382615619962053e+02) (149, 3.98794924021827901228e+00) (150, 7.07980822888921390579e-01) (151, 2.01464508844661871478e+00) (152, 9.59827771324969035049e+02) (153, 1.68359439916056641273e+00) (154, 3.08187098021525418545e+00) (155, 5.83669274285358508081e+00) (156, 1.67216818319738780296e+00) (157, 3.17956309127235954293e+02) (158, 2.52942322471077085666e+00) (159, 1.85846792911788405434e+00) (160, 2.85635607586696371740e+00) (161, 1.50000000000000000000e+03) (162, 4.84903379881086760150e+00) (163, 1.58283929368109532732e+00) (164, -6.56664185374568498688e-01) (165, 1.50000000000000000000e+03) (166, -6.56074042827550552026e-01) (167, 3.94578102335518332566e+00) (168, 1.69929015455437273374e+01) (169, 7.23738865132650843748e-01) (170, 1.98040156409204937127e+00) (171, 5.09015085988510129766e+00) (172, -2.65316954986411968065e+00) (173, -4.96236759699738516627e-01) (174, 2.79348669079949951666e+00) (175, 9.12163825168263642240e+00) (176, 7.64658492804459077874e-01) (177, 1.50000000000000000000e+03) (178, 4.23487999029191186651e+00) (179, 2.27728621359199490115e+00) (180, 1.90564158070435429870e+00) (181, -7.91629713033071524819e+00) (182, 1.21944435990322585894e+03) (183, 1.50000000000000000000e+03) (184, 6.72027344150298189263e-01) (185, 9.54611770228333398336e+02) (186, 1.73069280820291782064e+00) (187, 2.59701000283248149003e+01) (188, 1.16615756751257367796e+03) (189, 3.54319383092261297463e+00) (190, 1.50000000000000000000e+03) (191, 6.84340336819109551492e-01) (192, 1.96507436286080672261e+00) (193, 7.88090357960179801466e+01) (194, 1.00162753877782972900e+00) (195, 1.43382230902174342191e+03) (196, 9.46243444777556064196e+00) (197, 2.24959332495821726638e+01) (198, 4.05508266945153366123e+02) (199, 1.51062862391392229711e+01) (200, 1.60883240709785213518e+00) (201, 1.50000000000000000000e+03) (202, 1.89050461850632633976e+00) (203, 1.60188776460574056060e+00) (204, 1.81925802925884760874e+00) (205, 9.29698000197483387375e-01) (206, 1.38195402609767103996e+00) (207, 5.16154298258457089332e+00) (208, 1.50000000000000000000e+03) (209, 8.37783359976422048021e+02) (210, 3.48927031820409627727e+00) (211, 2.50005157369913266763e+00) (212, 9.58355309309556591124e-01) (213, 5.38020067969491606164e+02) (214, 2.39974058672445833551e+00) (215, 1.50000000000000000000e+03) (216, -3.71437183090541564456e-02) (217, 7.11636431360619797770e-02) (218, 6.14217298633526809226e+00) (219, 5.19306630917849165741e+00) (220, 1.50000000000000000000e+03) (221, 1.50000000000000000000e+03) (222, 1.50000000000000000000e+03) (223, 1.50000000000000000000e+03) (224, 4.09333251605905488191e+01) (225, 3.69359722189396499914e+00) (226, 2.34650324724314041092e+00) (227, 2.01530793121899121090e+00) (228, 3.22808753600587081678e+01) (229, 5.35379261120717231393e+00) (230, 1.42002154612359769020e-02) (231, 1.09333016911935919779e+03) (232, 5.75032106462143866032e-01) (233, 1.86341425742384125819e+00) (234, 2.15616353918286041136e+00) (235, 1.58907630994650816092e+02) (236, 1.01298509188440584694e+03) (237, 1.80516420132231189655e+02) (238, 5.04528630225248186925e-01) (239, 4.90650378536176390298e+02) (240, 1.50000000000000000000e+03) (241, 1.28082516411332051121e+02) (242, 6.83513146452646269680e-01) (243, 5.57549849940676467419e-01) (244, 3.02556356935199532998e+00) (245, 2.10927962228918941534e+00) (246, 1.50000000000000000000e+03) (247, 1.41341716990249096852e+03) (248, 1.74395989054515041516e+02) (249, 2.06875571391647428143e+00) (250, 1.50613060712024071641e+00) (251, 7.65749574407393652109e+02) (252, 1.50000000000000000000e+03) (253, 5.46338380881382249754e+02) (254, 1.54406122910547249916e+00) (255, -5.70213457117611649538e-02) (256, 1.52125679155536452924e+00) (257, -2.05490207801326896231e+00) (258, 1.58785969034462670635e+00) (259, 1.36524090276044618442e+00) (260, 6.64261094831300247243e-01) (261, 9.21800237324645443948e+00) (262, 2.33346493802775789561e+00) (263, 1.54319051722874611698e+00) (264, 2.04147472008715347158e+00) (265, 1.50000000000000000000e+03) (266, 1.50000000000000000000e+03) (267, 1.50314207892228335339e+00) (268, 5.63860958679611545818e+00) (269, 1.60163167012038321069e+00) (270, 5.50575895015596117332e-01) (271, 1.50000000000000000000e+03) (272, 1.41765623521322663692e+03) (273, 1.51959550413260635615e+00) (274, 1.50000000000000000000e+03) (275, 9.19221567905391800934e+00) (276, 1.49566159344210225512e+00) (277, 2.55622303752487681550e+02) (278, 1.81370818146808723270e+01) (279, 1.68976015170162430223e+00) (280, 1.48248456618466506463e+00) (281, 1.50000000000000000000e+03) (282, 1.50000000000000000000e+03) (283, 1.50000000000000000000e+03) (284, -1.27277328196790717740e+00) (285, 4.02140881035596464699e+00) (286, 7.03214640250041078673e+00) (287, 1.50000000000000000000e+03) (288, 2.73331448360116535667e+00) (289, 1.28303502104619542479e+03) (290, 6.79640650675101820610e+00) (291, 2.05437897207133390864e+00) (292, 1.50000000000000000000e+03) (293, -1.00051192794555299237e+00) (294, 1.24617301638786792672e+00) (295, 1.40964757218264821859e+03) (296, 1.83006012237049953129e+00) (297, 5.88232026940703349283e+02) (298, 2.15878996631984465537e+00) (299, 5.20295101936021353595e-01) (300, 1.18399473116422697672e+01) (301, 1.50000000000000000000e+03) (302, 4.98668261642913446252e+00) (303, 1.45531374521862994698e+03) (304, 8.40188511499272649985e+00) (305, 2.26604540048037295108e+00) (306, 1.50000000000000000000e+03) (307, 1.00648151810950459151e+01) (308, 1.24454319160921245135e+00) (309, 1.50000000000000000000e+03) (310, 3.08491728965461277312e+02) (311, 3.33263774561278092179e+00) (312, 1.82348319550221682483e+00) (313, 1.31317969858862815258e+00) (314, 2.62525208317366898214e+00) (315, 2.92006080358458186552e+00) (316, 4.08408754821437292026e-01) (317, 2.15475666939075738426e+00) (318, 5.94104569354947154025e-01) (319, 3.44928911258793347017e+00) (320, 1.50000000000000000000e+03) (321, 9.66846832171563796976e+00) (322, -5.67714405179676681601e-04) (323, 1.15081592472974580232e+03) (324, -8.93019246955129908372e+00) (325, 3.74822966636151377884e+00) (326, 2.73133716714575447426e+00) (327, -7.10979811556969654163e-01) (0, 2.36167385894019510317e+00) (1, 5.39326825800365696750e+01) (2, 1.50000000000000000000e+03) (3, 1.50000000000000000000e+03) (4, 1.87526590315437369227e+00) (5, 8.19541078106641940337e+00) (6, 6.82297500239888243811e+00) (7, 8.43358622136421899995e+02) (8, 2.26742552391062979211e+00) (9, 1.50000000000000000000e+03) (10, 7.19160156035174802369e-01) (11, 4.90319334459212896604e+00) (12, 1.50000000000000000000e+03) (13, 5.32599957254818605179e+02) (14, 1.01139885112015264212e+01) (15, 1.28122237626581947367e+00) (16, 1.50000000000000000000e+03) (17, 7.56092747207272964260e+02) (18, 1.36033210848479916422e+03) (19, 1.49064325756813378376e+01) (20, 1.34346906641775763092e+03) (21, 8.71948913392569635583e-01) (22, 2.07181741044251888084e+00) (23, 6.10185245979707135966e-01) (24, 8.61767586294742038433e-01) (25, 8.18338038299424397337e+02) (26, 3.41470251433617821846e+00) (27, 1.39591174577764665088e+00) (28, 3.50203362261188244631e+00) (29, 1.70965364762966975931e+00) (30, 1.50000000000000000000e+03) (31, 1.50000000000000000000e+03) (32, 2.62894540982305713328e+00) (33, 2.41479345641515985577e+00) (34, 8.71339009334551178654e+02) (35, 1.47339839040307274409e+00) (36, 1.50000000000000000000e+03) (37, 2.09788006487954836743e+00) (38, 2.38645741256991650303e+00) (39, 1.50000000000000000000e+03) (40, 2.09664802800824201512e+00) (41, 1.50000000000000000000e+03) (42, 1.50000000000000000000e+03) (43, 2.53128959006392806330e+00) (44, 9.57922314705982245187e+01) (45, 2.69404066037231437747e-01) (46, 8.33514759619289861803e+02) (47, 2.21812666901079236226e+00) (48, 1.55314584499712964316e+02) (49, 1.50000000000000000000e+03) (50, 1.50000000000000000000e+03) (51, 2.18988464695276396910e+00) (52, 1.22837558684819668997e+03) (53, 1.80788954349915065301e+00) (54, 1.50000000000000000000e+03) (55, 1.54229744325721251919e+00) (56, 1.50000000000000000000e+03) (57, 1.24053868804183167640e+02) (58, 1.63044988157315451360e+00) (59, 1.91623693097215497261e+00) (60, 2.15414424684087144612e+01) (61, 3.27974540758321486678e+00) (62, 3.98870115914143275049e+00) (63, 4.95816721327442166967e+00) (64, 1.98035924403861396392e+00) (65, 8.48234277129337925771e+01) (66, 1.50000000000000000000e+03) (67, 5.54263254264358362633e+00) (68, 3.90111017134581627985e+00) (69, 8.86677185091135133810e-01) (70, 1.50000000000000000000e+03) (71, 2.35911873315281850338e+00) (72, 9.08746232874405812652e+00) (73, 4.40312977532974159089e+00) (74, 1.48279534057594575280e+00) (75, 2.79994804693557419739e+00) (76, 1.64116865441520354274e+00) (77, 9.64122497305036296744e-01) (78, 9.68854489272020780177e-01) (79, 1.50000000000000000000e+03) (80, 1.50000000000000000000e+03) (81, 1.18320177618266984609e+03) (82, 1.20457037266975476086e+03) (83, 1.27500817798141315507e+03) (84, 2.78397338990218878862e+00) (85, 1.50000000000000000000e+03) (86, 1.50000000000000000000e+03) (87, 5.32858351510242744808e+00) (88, 1.92966985586165407085e+00) (89, 1.22070609840687609449e+02) (90, 2.73033250428058593684e+00) (91, 3.53074324515619464293e+00) (92, 1.50000000000000000000e+03) (93, 1.42980718292061646935e+03) (94, 1.35068165577296195323e+00) (95, 1.79152831829037566536e+01) (96, 4.59555120230826386063e+00) (97, 1.50000000000000000000e+03) (98, 6.29440126600817073665e+00) (99, 1.49532741509148331716e+03) (100, 1.09225006516294797621e+03) (101, 1.90850419257029924047e+00) (102, 1.80440096074050582153e+00) (103, 1.50000000000000000000e+03) (104, 1.50000000000000000000e+03) (105, 1.04399829595154933770e+01) (106, 8.17050766664297656305e-01) (107, 2.17295698589296248926e+00) (108, 6.27425178670335554898e+01) (109, -2.36202293184958733718e+01) (110, 4.10748015503694308137e+00) (111, 4.59710123764213335562e+02) (112, 2.01016453161703267938e+00) (113, 1.63289008275309512896e+01) (114, 3.72678181635471332811e+01) (115, 2.54026612637065207778e+00) (116, 1.50000000000000000000e+03) (117, 2.13808221949716026344e+00) (118, 1.60412590253587836742e+02) (119, 2.32011091901085464428e+00) (120, 6.16449316447660855545e+00) (121, 6.79902626823264277789e+00) (122, 1.50000000000000000000e+03) (123, 1.50000000000000000000e+03) (124, 2.44693404057256946871e+00) (125, 1.50000000000000000000e+03) (126, 1.50000000000000000000e+03) (127, 2.76499297696449897188e+00) (128, 1.50000000000000000000e+03) (129, 5.51868740068468710547e+00) (130, 1.50000000000000000000e+03) (131, 1.91631741352373374809e+01) (132, 1.50000000000000000000e+03) (133, 9.37156672953473162124e+02) (134, 1.90058422720642319348e+01) (135, 1.50000000000000000000e+03) (136, 1.50000000000000000000e+03) (137, 1.50000000000000000000e+03) (138, 1.02068173296605402278e+00) (139, 3.13652957306265367521e+00) (140, 5.33623855135894359591e+02) (141, -2.10894439656376692094e-01) (142, 1.00488090397323196612e+03) (143, 4.40136617458936200364e+02) (144, 1.50000000000000000000e+03) (145, 6.54585451833328413329e+00) (146, 3.25552585707583297392e+00) (147, 6.39076821960329084504e+02) (148, 1.20284445260480947582e+03) (149, 2.37827019347633816793e+00) (150, 8.05778378002843798100e-01) (151, 1.81070245876109869876e+00) (152, 1.18115670427305349222e+03) (153, 1.76168123276301380464e+00) (154, 1.35965548502121902352e+00) (155, 3.50959757049791098993e+00) (156, 1.74648387417102757269e+00) (157, 1.25896459397464965946e+01) (158, 2.91587622976720384216e+00) (159, 7.64612592580578454005e-01) (160, 1.69101228042187190503e+00) (161, 1.50000000000000000000e+03) (162, 8.60004850280785504424e+00) (163, 2.63976591256646919703e+01) (164, -1.68127279278216579250e+00) (165, 1.50000000000000000000e+03) (166, -1.28337549507031631890e+01) (167, 2.38747083270099924590e+00) (168, 1.79323104458391178184e+01) (169, 5.11777055839737560206e+00) (170, 7.11335594419590488968e+00) (171, 5.96379314397920445856e+00) (172, -3.49767886551255369199e+00) (173, -1.91914893014814547101e+00) (174, 1.35983885028919395666e+01) (175, 5.22744851586210970140e+01) (176, 2.46049897295138464415e+00) (177, 1.50000000000000000000e+03) (178, 4.55945818299369243221e+00) (179, 9.62697695443126910675e+00) (180, 2.12327230810897216173e+00) (181, 3.50645872365215272026e-01) (182, 1.50000000000000000000e+03) (183, 1.50000000000000000000e+03) (184, 7.16338188197832237414e-01) (185, 1.46999999880790710449e+03) (186, 2.07191206626451052131e+00) (187, 3.03515988732637396197e+01) (188, 2.05290989700032127985e+02) (189, 6.26628531039067904196e-01) (190, 1.50000000000000000000e+03) (191, 2.17886900503498681658e+00) (192, 2.02286891153191650261e+00) (193, 7.97482808130276765723e+00) (194, 9.12779945024199457215e-01) (195, 5.79226218007036095514e+02) (196, 2.52662071985769376425e+00) (197, 1.84561535049117111384e+01) (198, 6.36130261504995587529e+02) (199, 2.43936804987152777713e+00) (200, 2.17126726357469301831e+00) (201, 1.50000000000000000000e+03) (202, 2.24060518761799043475e+00) (203, 9.85724919320627357422e+00) (204, 2.07044408390782708196e+00) (205, 2.38058142509722658886e+00) (206, 1.29708750073626077892e+00) (207, 3.00318098469663663508e+00) (208, 1.50000000000000000000e+03) (209, 4.06102233696183247957e+01) (210, 7.96198491322125390113e-01) (211, 2.18460084260639497700e+00) (212, 1.39352657812695501782e+00) (213, 6.89039303563659245810e+02) (214, 5.90886021745541167860e+00) (215, 1.22242598080559969276e+03) (216, 3.94570561002515951543e+00) (217, 3.36786444512795846151e+00) (218, 2.19029796009133725931e+00) (219, 5.24148756350419997574e+00) (220, 1.50000000000000000000e+03) (221, 1.37245386569502647944e+03) (222, 1.50000000000000000000e+03) (223, 1.50000000000000000000e+03) (224, 2.41827790462813027261e+02) (225, 1.06121711362329373962e+00) (226, 1.34237768336578255912e+00) (227, 2.06213123970691913911e+00) (228, 1.61486581438603487015e+01) (229, 2.24194993906539139061e+02) (230, -7.05863796580532332214e-01) (231, 6.70808456870758845980e+02) (232, 2.21741874738919264587e+00) (233, 7.64546306386425289503e-01) (234, 2.35523196756239849847e+00) (235, 3.05020460999999045271e+02) (236, 1.25243247106331432406e+03) (237, 6.34083236613193506059e+01) (238, 1.42702012814249101780e+00) (239, 2.00835257063868652949e+02) (240, 1.50000000000000000000e+03) (241, 3.05054668557845388932e+02) (242, 2.17811209250316650810e+00) (243, 2.01111501499383882319e+00) (244, 5.10737096935267675946e+00) (245, 2.72770573244946934466e+00) (246, 1.50000000000000000000e+03) (247, 1.41342695173995434743e+03) (248, 3.87266729145100384812e+02) (249, 2.63721236228668542978e+00) (250, 2.32866872403981117756e+00) (251, 1.37255296306252091654e+02) (252, 1.50000000000000000000e+03) (253, 6.69085589774008553832e+02) (254, 2.05373214152880079197e+00) (255, 1.20859739863331516752e+00) (256, 2.09498346087503062307e+00) (257, 5.33950753425005641972e-01) (258, 1.97972120206853152702e+00) (259, 1.95552354704083586334e+00) (260, 2.55738853927244269570e+00) (261, 5.24323138019454848546e+00) (262, 3.48865616580298976146e+00) (263, 1.66153588582472018231e+01) (264, 2.59094292430017869577e+00) (265, 8.28926381632325160354e+02) (266, 1.50000000000000000000e+03) (267, 1.94567129231898605646e+00) (268, 2.70311103013808695650e+00) (269, 1.85251900171332484213e+00) (270, 1.16922609299335178434e+00) (271, 1.50000000000000000000e+03) (272, 9.36579918216531950748e+02) (273, 1.23936667933282618215e+00) (274, 1.32588569245561211574e+03) (275, 3.27270573922042062875e+00) (276, 2.46327802605673218395e+00) (277, 1.07416977990329698400e+02) (278, 9.86666192121433383022e+00) (279, 2.12179260255669621671e+00) (280, 2.27918414108794920026e+00) (281, 1.50000000000000000000e+03) (282, 1.50000000000000000000e+03) (283, 1.50000000000000000000e+03) (284, 4.20517990430878274566e+00) (285, 2.46364735059022432750e+00) (286, 4.68652596488133710295e+00) (287, 1.29386651022771025055e+03) (288, 7.17889960113144631748e+00) (289, 4.80098606115063887501e+02) (290, 6.79111395753379820661e+00) (291, 2.67684572966309186626e+00) (292, 1.50000000000000000000e+03) (293, -3.86109655124619310929e-02) (294, 2.39924371356762833329e+00) (295, 9.12283612282984677222e+02) (296, 2.03200490862290550353e+00) (297, 1.50000000000000000000e+03) (298, 8.91267743831319236847e+00) (299, 2.16189159908003425414e+00) (300, 4.55169023634997227390e+00) (301, 1.50000000000000000000e+03) (302, 2.09345836034184484831e+00) (303, 1.45533581764966379524e+03) (304, 1.47803806159276227561e+01) (305, 4.97752851464880130550e+00) (306, 1.49538190321653064530e+03) (307, 1.13697235829914582439e+01) (308, 1.90947458736730513174e+00) (309, 1.50000000000000000000e+03) (310, 6.93519558290301802117e+02) (311, 1.98433102477923228868e+00) (312, 1.43241267136986327735e+00) (313, 1.37201504322057266094e+00) (314, 3.65610899700988012384e+00) (315, 2.72388477976999121566e+00) (316, 2.02884750594152496461e+00) (317, 3.63026647872460417332e+00) (318, 4.70508048460776251432e+00) (319, 3.45436969329929821626e+00) (320, 1.50000000000000000000e+03) (321, 4.80190645762547596576e+00) (322, 2.49781046027791608921e+00) (323, 1.15023791867300838021e+03) (324, 7.12583326243787840149e-01) (325, 1.59307671902000391739e+00) (326, 5.44478944960473221215e+00) (327, -1.37850870153611926305e+00) (0, -1.14753975556746090625e+00) (1, -7.85060229240611362478e-01) (2, 1.50000000000000000000e+03) (3, 1.50000000000000000000e+03) (4, 1.26263928139426662156e+00) (5, 3.28253924304254762756e-01) (6, -2.08596457067389096096e+00) (7, 6.23298883401991588471e+02) (8, 1.08693094463418438167e+00) (9, 2.58582168054996543560e+02) (10, -5.16524695739633901703e-02) (11, -1.83946803292447141898e-01) (12, 1.18675078899963182266e+03) (13, 3.42805712420416526243e+01) (14, 2.39155658020944450470e+00) (15, -1.93033658122792450840e+00) (16, 5.23668747339321726031e+02) (17, -5.10333235579881119293e+01) (18, -1.89080133152387119821e+01) (19, 1.12942248346141083104e+00) (20, 1.15171915538869118478e+01) (21, -8.11155356731564358697e-01) (22, -2.04236805789481060819e-03) (23, 8.69291049470099913554e-02) (24, -4.03794995098907594233e-01) (25, 1.84691699900954773739e+02) (26, -1.02176100047732418830e+01) (27, 3.51452417789935578352e-01) (28, 4.95393685694114349616e+00) (29, -7.02520429882521946219e-01) (30, 4.60939912814060392066e+02) (31, 1.26224607782063367267e+03) (32, -3.51306456197997718505e+00) (33, -5.92707083662164957438e-01) (34, 1.54327621227434335083e+01) (35, 1.06117379944425160865e+00) (36, 2.74236626759963087352e+02) (37, -2.42090140956796595617e+00) (38, 2.86795111234969990477e+00) (39, 1.09395560048877541703e+03) (40, 6.87127808435630880839e-04) (41, 7.24354648296129880691e+02) (42, 4.17808513012347304993e+02) (43, 4.42312448420446036046e-02) (44, -2.17227626892052078089e-01) (45, 9.22861004203722634642e-01) (46, 1.25978488032678637154e-01) (47, -1.91302804061824149873e-01) (48, 4.19267186071665065583e+01) (49, 1.24458084142546067596e+03) (50, 2.80835096856100889795e+01) (51, -2.89173300006043465515e-01) (52, 2.35660016832318994773e+01) (53, -2.67080496926809685121e-01) (54, 1.50000000000000000000e+03) (55, 1.17973780941388639576e+00) (56, 2.78661060128873259600e+02) (57, 3.05338163113097804668e+00) (58, 3.21512722924171479022e+00) (59, 9.53951432060569870508e-01) (60, 3.55529691693771754402e+00) (61, 2.21274965209193430482e+00) (62, 9.57545591645928340085e-01) (63, 4.20342952245946477330e-02) (64, 1.25120282339254296211e+00) (65, -2.53923929627049072000e-01) (66, 4.29069969617398726314e+02) (67, -4.21296356579515737795e-02) (68, 6.39316340843030017638e-01) (69, -1.24294230074688116794e+00) (70, 1.50000000000000000000e+03) (71, -4.39978296881681552044e-01) (72, 5.55147534862375779952e-01) (73, 2.29965356316166813500e+00) (74, 2.34053642666224748226e-01) (75, 4.36062279603477487289e-01) (76, 4.14717326978919664793e-01) (77, 2.08854893782545403269e+00) (78, -2.94018554954156074999e-01) (79, 5.50284076115622838188e+02) (80, 1.50000000000000000000e+03) (81, 6.86790735298706181311e+02) (82, 3.92733606593000729390e+02) (83, 5.41349974327673180596e+02) (84, 1.34018047090907144181e+00) (85, 7.16732552168083543620e+02) (86, 1.53918877959971087677e+01) (87, 1.10662439144198487817e+00) (88, 5.60933528358992017360e-01) (89, 4.30543790717751448938e+01) (90, -1.79294817390597627238e+00) (91, 1.39185460598252652709e+00) (92, 7.35544598811476930678e+02) (93, 1.29781455971439231689e+03) (94, 1.16738965096165214774e-01) (95, -2.53039199163065442466e-01) (96, -8.23930394121770992566e-02) (97, 2.27417553382571838938e+02) (98, 9.39367440157005129109e-01) (99, 2.64785266537304948997e+02) (100, 8.04683692108119544173e+02) (101, 5.28896779292844843035e-01) (102, -5.66635168599443517223e-01) (103, 1.06282477265671332134e+03) (104, 4.87552980031456115739e+02) (105, 6.58755417719904312612e-01) (106, 6.03310451494403099382e-01) (107, 1.67291958274326468814e-01) (108, 4.14636518619456850843e+00) (109, 5.62582214721428774951e-01) (110, 1.17525066026534474872e+00) (111, 2.21919755698653453635e+01) (112, -6.69148334514412801433e-01) (113, 4.15371639808449977238e+00) (114, 1.72877126199756958158e+02) (115, 6.05686334360820977096e-01) (116, 5.04177700714448974395e+02) (117, 1.23778068281654385352e+00) (118, -6.02088305096218912027e-01) (119, -6.09665725006608205661e-01) (120, -6.85952884731161338649e-02) (121, 2.01826723931538909440e+00) (122, 9.76327319464928677917e+02) (123, 4.20725242374413994639e+02) (124, 1.39922224492019209308e+00) (125, 2.81716596783730572895e+01) (126, 1.15243856720512940228e+03) (127, 1.19586307178632167414e+00) (128, 4.49603223068101613080e+02) (129, 1.23716177380749203785e+00) (130, 4.01838556184897299772e+02) (131, 5.57053728967232153479e+00) (132, 6.53163968100290389884e+02) (133, 1.54474698966673074096e+01) (134, 1.48237932196568245047e+00) (135, 9.20030446147146108160e+02) (136, 8.25257513769462434539e+02) (137, 1.10685498286376014221e+03) (138, -2.40756131402488016136e+00) (139, -1.37307329886399570595e-01) (140, 2.57076341240841799163e+01) (141, -7.61179364708799877093e-01) (142, 2.53009120798524733686e+01) (143, 1.48499151888574431268e+02) (144, 2.54955437293640557073e+02) (145, 4.64794950580624977032e-01) (146, 1.92037895391080914997e+00) (147, 2.33875046152110257935e+02) (148, 8.15013427112009338771e+01) (149, 9.96750358101083477891e-01) (150, 2.06448050438591890199e+00) (151, -1.41607246389074209469e-01) (152, 8.05695253597612719432e+01) (153, 6.15864819194633827948e+00) (154, -7.18333907193477227970e-01) (155, -1.31302885491822496355e+00) (156, 1.10018074361113993298e-01) (157, -1.95073358822408025048e+01) (158, 3.72391494167977343821e-01) (159, -6.45839814763284003618e+00) (160, 1.62252158657103140449e+00) (161, 5.44844190624494444819e+02) (162, 9.52912245464390572636e-01) (163, 9.93837091995106334252e+01) (164, 3.10654055566454700976e-02) (165, 6.16027061372610205581e+02) (166, 4.06647166894860467856e-01) (167, 9.87313048744407772972e+00) (168, 9.04961759009123845043e-02) (169, 3.92625142497151413679e-01) (170, -2.75428738453622479199e-01) (171, -2.90801828235020565216e+00) (172, 1.89397131453290096248e-01) (173, 2.82968354853950054828e-01) (174, -3.39637414996233344411e-02) (175, 2.68579936445303872006e+02) (176, 6.27399762971339147732e-01) (177, 6.56307696455647260336e+02) (178, -1.13786679737732896456e+01) (179, 6.94086424990337569341e-01) (180, -3.65661182351184432804e+00) (181, -4.40207889194982442405e+01) (182, 1.31117838742734625157e+03) (183, 6.16636603089597315375e+02) (184, 1.11800779491113666531e+00) (185, 2.07595500407171755342e+02) (186, 6.86939850647773297965e-01) (187, 1.40213741733546237711e+00) (188, 2.64038450685152303876e-01) (189, -3.62561731298932321543e-01) (190, 2.69297636902891667887e+02) (191, 7.14485142097277425854e-01) (192, 9.27195785178502984714e-01) (193, -2.91807620828875826646e+01) (194, 6.75403638862288602240e-01) (195, 1.50000000000000000000e+03) (196, -2.40531616434731698728e-01) (197, 3.30100458857609413421e-01) (198, 6.32182015266261942088e+02) (199, 2.14704185329589458675e+00) (200, 1.25807903997992642786e+00) (201, 7.98013734153676864480e+02) (202, 4.33531314077814033947e-01) (203, -3.48030374978815948417e-01) (204, 6.19136872396141568764e-01) (205, 6.41747485788890799085e+01) (206, -1.64510652564363324402e+00) (207, -1.03980443747068629357e+00) (208, 2.79046592415248753127e+01) (209, -1.17279220064799272194e+00) (210, 7.68940404011941414097e-01) (211, -1.46497554581598734558e+01) (212, 1.13619906657269154060e+00) (213, 5.19639811869124173427e+02) (214, -3.49201251411814536738e-04) (215, 2.15678812722724529749e+02) (216, 5.33043198469581547272e+00) (217, 2.12595123925108819840e-01) (218, 7.61586274950682207141e-01) (219, 2.63200555374926092878e-01) (220, 5.05789952177168913749e+02) (221, 9.43374226534561159951e+01) (222, 1.50000000000000000000e+03) (223, 7.47010270871614352473e+02) (224, 8.65989704058726772473e+01) (225, 4.38310960939582994200e-01) (226, 3.88903529497365840761e-01) (227, 6.34309784274488697164e-01) (228, 3.38499709385919445026e+01) (229, 3.11364049010745658208e-01) (230, -1.23131610602106462693e+01) (231, 1.98700238352376231887e+02) (232, 3.21476577868816226768e-01) (233, 3.50482704080446738626e-01) (234, 2.92284545745573443032e-01) (235, 7.03657039393909371938e+02) (236, -1.87249514079547978440e+01) (237, 4.03847637733819979644e+01) (238, 4.41260428437011409386e-01) (239, 5.62435901066385426361e+01) (240, 7.84486276200903944300e+02) (241, 2.74358689476738533131e+01) (242, 4.28068478587985246087e-01) (243, -3.02976128948665213159e-01) (244, -6.24561727138347455579e-01) (245, -1.56158972742110235821e+00) (246, 1.19570735827042291533e+01) (247, 1.53494146950928154638e+02) (248, 1.93858861184311990655e+02) (249, 1.17790898617978312402e+00) (250, 1.00178245928268205844e+00) (251, -1.10639079426015043972e-01) (252, 4.76692445374014653225e+02) (253, 2.19991590900417399723e+01) (254, 4.53554309980571279670e-01) (255, 5.17758836313731873879e-01) (256, 1.58337722249176776623e-01) (257, 7.63667865118774713551e-01) (258, -2.99877653324503057330e-01) (259, 3.81487016051857585897e-01) (260, 7.20695958290671234714e-01) (261, 3.38541928541661318874e+00) (262, 1.03874921299406319797e+00) (263, 2.91896280785844154659e-02) (264, -1.10197316213849802580e+02) (265, 6.06706554338116916369e+02) (266, 9.77854680895374031024e+02) (267, 1.12973034702916863559e+00) (268, 2.17183736537779670250e-01) (269, 4.10983709759694171293e-01) (270, 7.95313719772981486678e-01) (271, 5.09988907430245944852e+02) (272, 3.64072722762831002541e+00) (273, -6.48252163876046978430e+01) (274, 1.36348250176327292138e+03) (275, -4.43448883683837002945e-01) (276, 1.60887215314443143832e+00) (277, 1.00483721342172280799e+01) (278, 9.96428121192600380063e-01) (279, 1.20460848060976477569e+00) (280, 5.15939136470107584387e-01) (281, 3.21037411129245811026e+01) (282, 5.13694266834847894643e+02) (283, 1.26184310286101572274e+03) (284, 2.39812198129209334929e-02) (285, 1.89334951577520604893e+00) (286, 2.28755020048965224122e-01) (287, 8.67928914136328444329e+01) (288, -2.18295660722498979789e-01) (289, 3.93875641342126825428e-01) (290, 2.27391589407130956246e+00) (291, 1.19112022101126360241e+01) (292, 4.41722650115711132912e+02) (293, 1.30639238544150293464e+00) (294, 1.26909632530983440546e+00) (295, 1.99767732621260662995e+01) (296, 5.69659515977796848674e-01) (297, 1.20976851936951629796e+03) (298, 2.70551029638136708577e-01) (299, -1.57620399617135698023e+00) (300, -8.71584012547323871978e-01) (301, 6.13598342792915218524e+02) (302, 1.68074403919115274164e-02) (303, 7.36365269966497407950e+02) (304, -4.91494069798758481671e-01) (305, -4.48574803587248549519e-01) (306, 2.64764802355404924583e+02) (307, 1.29120921883912966877e+01) (308, -4.38697324357338269696e-01) (309, 1.09074524902865960030e+03) (310, 4.81757958218344981560e+02) (311, -2.46539764295686270046e+00) (312, -6.02140955631423779870e-01) (313, 2.10509900866398913521e+00) (314, 5.02992868107759227847e-01) (315, -2.20986389196172416938e-01) (316, 4.52574590255002295880e-01) (317, 1.17755171721597884371e+00) (318, 2.41423682132390154953e-01) (319, 1.50195712479278054019e+00) (320, 6.60982246392386855405e+02) (321, 4.38983790073761093176e-01) (322, 1.72727953781186160942e-01) (323, 6.01310748740423832714e+01) (324, -3.57831674888769435405e-01) (325, -1.52686315186967047630e+00) (326, -1.63999667740073573619e-01) (327, -3.11935918318648419678e-01) (0, -1.93548698706979604989e-01) (1, 6.22865993823536745477e-02) (2, 2.79042249878909629501e+01) (3, 1.50000000000000000000e+03) (4, -5.52815749491319619047e-01) (5, 3.36245279856982548505e-01) (6, 3.10598938414578729095e+00) (7, 7.34578963218657236212e+02) (8, -5.01060883092122599791e-01) (9, 7.41629460620964238160e+01) (10, 6.73564033576381282487e-01) (11, 9.92105086924860302133e+00) (12, 1.04763368397140354205e+02) (13, 1.22958115364850868900e+03) (14, 2.50181183871108947514e+00) (15, 7.00184027998265512416e-01) (16, 2.48119359516483939387e+02) (17, 3.50999449478796279323e+01) (18, 6.63326313229391644199e+02) (19, 9.24970737404808979187e-02) (20, 1.36935029484451964432e-01) (21, 2.25612821940120866770e+00) (22, 9.68004934270207617608e-01) (23, 1.03578840475632616425e+00) (24, 7.39728564831482193753e-01) (25, 2.84215308438600516183e+02) (26, 6.91842588375238931597e-01) (27, 6.13121674939077876409e-01) (28, -3.00839572245750597190e+00) (29, 2.24586342466363525494e-01) (30, 6.56690043186110585793e+01) (31, 1.44870571064548386175e+02) (32, 5.64849775874252379992e+00) (33, 7.52110849644444079409e-01) (34, -1.50000000000000000000e+03) (35, 8.49464642840956907222e-01) (36, -4.75668418395504346563e+01) (37, -2.49081501704089325333e-01) (38, 2.53445849184694083078e+01) (39, 2.76393225346841859391e+02) (40, 9.88655629286362969133e-02) (41, 3.16278773051952555306e+01) (42, 1.78731635940741114155e+02) (43, 4.09790973747001630034e-01) (44, 9.75272069977885514014e-01) (45, 8.56583056628174133174e-01) (46, 7.25797588971083956766e-02) (47, 6.77904721110907160231e-01) (48, 1.18655746009963664278e+02) (49, 1.84555318085016182295e+01) (50, 1.44829951245508548041e+00) (51, 1.79124968357940694830e+00) (52, 7.68780710041776501384e+02) (53, 1.09018116007192378270e+00) (54, -9.47226859325643999910e+02) (55, -6.53357708709260798230e-01) (56, -1.44899314545829538403e+00) (57, 6.09129832187347508565e-01) (58, -8.21773957762239271041e-01) (59, -3.19284968240379440907e-01) (60, -1.01732809339764673773e+00) (61, -4.52927892193869585657e-01) (62, 2.32794844493325658874e+00) (63, 2.00652436404483136556e+00) (64, 4.53055769497731186668e-01) (65, 3.18628986155949645021e-01) (66, 1.67976270381607122317e+01) (67, 3.04974312211091502789e-01) (68, 5.04075177868203216924e-01) (69, 3.27954314459854789909e-01) (70, 1.50000000000000000000e+03) (71, 4.43282036385534627954e+00) (72, -8.70199459885249604341e-01) (73, -5.71547816259675767192e-01) (74, 2.95334829835434908851e-01) (75, 5.06799429809078216813e-01) (76, 6.27229919267187518983e-01) (77, 2.96420843453638038767e+00) (78, 2.05793620752436984267e-01) (79, 3.14989399956903582734e+02) (80, 1.15409337352792931597e+03) (81, 9.11502582059757969546e+02) (82, 4.53954860608589569893e+01) (83, 7.67807109530425350385e+02) (84, -2.70611735607203751641e-01) (85, 7.39165617552374555999e+02) (86, -1.50000000000000000000e+03) (87, -6.77465234079011713320e-01) (88, -4.63552873260128922572e-02) (89, 7.52988364154240343851e+02) (90, 2.92501082697280867517e-01) (91, -4.27005993784249637812e-01) (92, -4.14782393716983960985e+02) (93, -6.04254597254894520120e+02) (94, 2.09270380012884088528e-01) (95, 1.61624570663536248905e-01) (96, 1.70096064641178146282e+00) (97, 1.70618608625845695315e+02) (98, 2.49750706452783477474e+00) (99, 9.79551877382052111898e+02) (100, -1.01541361881680109036e+03) (101, 1.81497176055513187443e-01) (102, 3.38944149603298461315e+00) (103, 7.62804635335179000322e+02) (104, 1.41466325664532689643e+02) (105, 5.36777142852622013436e-01) (106, 6.76224704943365062526e-01) (107, 9.58684893237244817321e-01) (108, -4.02207180445605629870e+01) (109, 3.80798695977699830362e-01) (110, -4.89321166772620011476e-02) (111, 2.63419473826057215504e+00) (112, 6.01487967134803938052e+01) (113, 7.58355694103505451054e-01) (114, 3.35317478737970645852e+02) (115, 7.05076954991770921133e-01) (116, 1.04902256909632356496e+02) (117, 1.63383799232301774040e+00) (118, -9.25340736157641285953e-03) (119, 4.43783404492103894512e+00) (120, 6.39742520708930229034e+00) (121, -4.71204582193548715541e-01) (122, 1.64396446364139706020e+02) (123, 3.38013737389920436271e+02) (124, -5.74626843843790424682e-02) (125, 2.81411847373906542913e+00) (126, 8.50406999312660332180e+02) (127, 1.32619709501865967738e-01) (128, 5.01497801850208873020e+01) (129, 6.09901047067086699016e-01) (130, 5.60886614236547131895e+00) (131, -2.64096858418953317482e+00) (132, 2.65944517117598024925e+02) (133, -1.50000000000000000000e+03) (134, -9.49411616703818594942e+00) (135, 4.34359251800839558655e+02) (136, 1.81689851617525789607e+02) (137, 9.28163901296565541088e+01) (138, -5.18105887944921184030e-01) (139, 5.62692741704368892819e-01) (140, 9.12801306567222923150e+02) (141, 3.39366748701048381864e-01) (142, 1.50000000000000000000e+03) (143, 1.50000000000000000000e+03) (144, 1.18767857076853502463e+02) (145, 5.10457025241575323982e-01) (146, 7.41572898417229980916e-02) (147, 2.84698156716499795493e+02) (148, 4.60802470358776986359e+02) (149, -4.73997017829664996080e-02) (150, 5.26077382573610474736e+00) (151, -1.84891764332730246245e-01) (152, 8.08013163115782390378e+02) (153, 6.47314855006282108274e-02) (154, 4.46180009050972969931e+00) (155, 6.69466824772026902757e-01) (156, 1.47553236650325325652e-01) (157, 1.56364476062292134806e+00) (158, 7.16070033342791734121e-01) (159, 6.57213645361903964215e-01) (160, -3.79090726836392999388e-01) (161, -1.50880992498479940878e+02) (162, -3.30071953363820391747e-01) (163, -2.25111112562797199832e-01) (164, 3.89859177592089078956e+00) (165, 5.35366502556154955528e+02) (166, 7.96546973041561190421e-01) (167, 3.99234659082759346660e-01) (168, 1.64832861372121697308e+00) (169, -1.21735163273691368579e-01) (170, 3.97873780368668494845e-01) (171, -6.87938631280577833627e-02) (172, 9.18133966892017649997e-01) (173, 1.04393183383677312648e+00) (174, 6.55114046204143540830e-02) (175, -2.91221044530502598535e-02) (176, 4.22915220434096128521e-01) (177, 2.88760669452214600028e+01) (178, 2.07962864036618633179e+01) (179, -1.31463313817064414435e-01) (180, 1.60010991662279694614e-01) (181, 1.19219043099423549492e+00) (182, 1.40164473028744165362e+01) (183, -5.50525870443432950196e+02) (184, 3.76669724716569842560e-01) (185, 7.58272885653447019649e+01) (186, 2.95335020620210053632e-01) (187, -1.10583075963360522032e+00) (188, -9.47500257294347364434e-03) (189, 5.30408836690059803942e+00) (190, -6.14194922606840236767e+02) (191, 3.64473655018230202618e-01) (192, -7.52012828475653455351e-02) (193, 1.66341252682313509581e+01) (194, 5.57779782772199972385e-01) (195, 3.65109027270115689134e+02) (196, 1.62042903515422387350e+00) (197, 3.59740946334689581931e+00) (198, 1.23529213470338481784e+03) (199, -2.99442767485550875861e-01) (200, -2.04945601339048294465e-01) (201, -1.34005022168069700683e+02) (202, 5.43394641512779053016e-01) (203, -2.59861164457983129239e-01) (204, 4.55036571160472025355e-01) (205, 2.81438036982038823908e+01) (206, -4.72155164866421506176e-01) (207, 1.30185781190960536691e+00) (208, -1.40408350861406211152e+03) (209, -1.09553472082060204817e-01) (210, 6.88955014628791495568e+00) (211, -4.20368421351162251109e-03) (212, 4.91529081622360863868e-01) (213, 1.29040700543207913142e+03) (214, -2.03727726311819834493e+00) (215, 2.37828512951571525491e+02) (216, -6.20140410076893133784e-01) (217, 2.37922254414618325469e-03) (218, 5.88105248855853357526e-01) (219, -1.41048884396985307887e+00) (220, 1.90412450566691916265e+02) (221, 5.11200686298086509396e+02) (222, -6.01742380278537780214e+02) (223, 5.83063200076257771798e+02) (224, 1.01352740265975199918e+02) (225, 6.06734321563806133781e-01) (226, 6.66103794876725774365e-01) (227, 7.10840272276470619417e-02) (228, -1.98238836876981272539e+00) (229, -3.46513700832388282791e+00) (230, 3.78908146915852228620e-01) (231, 1.50000000000000000000e+03) (232, 5.72228111150956952891e-01) (233, 6.18190949154336366611e-01) (234, 9.92540185206080671776e-01) (235, 7.73790297275571447244e+02) (236, 7.65026886364988513378e+02) (237, 1.50000000000000000000e+03) (238, 6.25620239990283821818e-01) (239, 3.09913829515621671362e+02) (240, 7.71791984746025150343e+01) (241, 2.38321830056298551881e+02) (242, 6.94033582549570482456e-01) (243, 8.01539500561048612326e-01) (244, 1.15278566827399875372e+00) (245, 1.86951402215869122436e+00) (246, -1.50000000000000000000e+03) (247, -1.85840016350879068341e+02) (248, -1.92797334503965367425e+00) (249, -2.77957586693424241187e-01) (250, 1.00773428615815383025e-01) (251, 7.84381635353548767320e-01) (252, -6.50503334448784016786e+02) (253, 8.59684311728966576993e+00) (254, 5.97740278718144724124e-01) (255, 4.18364982424681175477e-01) (256, 6.41691660745615077843e+00) (257, 2.27381083120992721902e+00) (258, 4.90447919434028670183e-02) (259, 4.83649850995457764036e-01) (260, 6.05298200109038342376e-01) (261, -7.77838418395601927102e+00) (262, -1.47070958706583959641e-01) (263, 3.20001025906685721001e-01) (264, 2.44349617024733928305e-01) (265, 1.81629820866513398414e+02) (266, 3.31468493351808376701e+02) (267, -3.00745511549714905630e-01) (268, -7.25868976947081911977e-02) (269, 3.27086437505694271888e-01) (270, 5.74750266405270049397e-01) (271, -3.22939196662947551886e+02) (272, -2.62707504931525022585e+02) (273, -3.71417862088150529942e-01) (274, 7.24043267878244364510e+02) (275, 1.69243368993945120238e+00) (276, 5.51210411211708217749e-01) (277, 8.39714364187751804991e+00) (278, 4.83201351074789398066e-01) (279, -5.11547849525157083406e-01) (280, 3.29019849930563157425e-01) (281, -1.09747911745303463249e+03) (282, 6.64991673096784836616e+01) (283, 1.24732578816897898832e+03) (284, 3.80963810462224439224e-01) (285, -2.89425334800187061823e-01) (286, -4.83567707737370955368e-02) (287, 1.66928221176628539979e+02) (288, 7.03714962815438038746e+00) (289, 2.04820833506967579785e-02) (290, -1.18477320148369091868e+00) (291, -5.53581009409340651928e+00) (292, 7.47984381877695980734e+00) (293, 1.70181189768969876042e+00) (294, -1.99469195935210230619e-01) (295, 7.98189724714610093770e+00) (296, 4.96853705618700403068e-01) (297, 2.40297801857088977329e+01) (298, 7.27683513635645068396e-02) (299, -8.67478569560573148367e-02) (300, 3.04701976595783130541e-02) (301, -1.01539202702810030132e+02) (302, 1.03590959089068990195e+00) (303, -5.75858116498597155442e+02) (304, 2.05435462289048365037e+00) (305, 6.66396918975309393574e-01) (306, 9.73820093271586642913e+02) (307, 2.95043629342538360483e-01) (308, 6.92721142655922772491e-01) (309, 5.93488896021674463555e+02) (310, 1.03236652147423956194e+03) (311, 7.92500781146780020059e-01) (312, 3.35497162246403024533e-01) (313, -2.45220518046356206199e+00) (314, 1.47855671237583280453e-01) (315, 6.76217150714042816162e+01) (316, 5.02096167823091188431e-01) (317, -2.00134389095033338180e-01) (318, 2.07396919147034536346e-01) (319, 1.38696388419655036728e+00) (320, 1.53905512161185185960e+02) (321, -3.38793542720593698903e-01) (322, 1.14544309695968027363e+00) (323, 7.83795482950246480414e-01) (324, 3.37894242032700353739e-01) (325, 4.25432236303569688562e-01) (326, 1.12078480260068905072e-02) (327, 2.36500947102961628365e-01) (0, 1.09088039658787594455e+00) (1, 3.13006639097150163309e+00) (2, 1.25670537417228024424e+03) (3, 1.50000000000000000000e+03) (4, 4.25535447942273936661e-01) (5, 1.02504447881277793719e+00) (6, 6.63734298220648213373e+01) (7, 8.44362396865622372388e+02) (8, 1.75053159397354884952e+00) (9, 1.50000000000000000000e+03) (10, 3.71856151382198651945e+00) (11, 2.30521932188943656783e+00) (12, 1.50000000000000000000e+03) (13, 5.33373041850578374579e+02) (14, 1.55988654241118585020e+00) (15, 1.25220859038370715410e+01) (16, 1.50000000000000000000e+03) (17, 1.46364763497494027433e+03) (18, 1.25248068126026737445e+03) (19, 6.16684927056453502381e-01) (20, 1.50000000000000000000e+03) (21, 5.74136543896402518072e+00) (22, 1.24436485304678390307e+00) (23, 9.55580346813004632978e-01) (24, 3.28718254223808736825e+00) (25, 1.18685378723844405613e+03) (26, 6.51882038084514547904e+00) (27, 5.81836784750309199410e+00) (28, 5.13215686802773851660e-01) (29, 6.33656537125562024926e-01) (30, 1.50000000000000000000e+03) (31, 8.08822884731022668348e+02) (32, 2.65607679264862195367e+00) (33, 7.05392146762485072742e-01) (34, 1.28120756725666069542e+02) (35, 5.90643448220710087782e+00) (36, 1.50000000000000000000e+03) (37, 4.72668014615389153743e-01) (38, 6.54995599989052657008e+00) (39, 1.50000000000000000000e+03) (40, 4.73065511150767004089e-01) (41, 1.50000000000000000000e+03) (42, 1.50000000000000000000e+03) (43, 2.33166053903283732041e+00) (44, 5.59470875182859117558e+02) (45, 3.78022402172758154038e+00) (46, 8.35289029267722753502e+02) (47, 2.43751292099618543929e+00) (48, 1.61668650185450388790e+02) (49, 1.50000000000000000000e+03) (50, 1.50000000000000000000e+03) (51, 4.20952244357327316493e+01) (52, 1.01449298524179175729e+03) (53, 1.09014976123854490098e+00) (54, 5.86859468564769144905e+02) (55, 1.19341107042756866541e+00) (56, 1.50000000000000000000e+03) (57, 2.13463804780181263254e+01) (58, 2.96218790589350078335e-01) (59, 4.54436272804377483503e-01) (60, 5.11297714293284188969e-01) (61, 4.30098484147369342079e-01) (62, 1.31055975971625571219e+00) (63, 2.26460203525433190208e+00) (64, 1.26966368756725671574e+01) (65, 1.43049087944195303379e+01) (66, 1.50000000000000000000e+03) (67, 2.04482663147873378051e+00) (68, 5.97023885559755740360e+00) (69, 8.40158801810669708665e-01) (70, 1.50000000000000000000e+03) (71, 3.04495796995860690259e+00) (72, 3.02726099197092723969e+00) (73, 4.09972809256420767099e+00) (74, 1.20974467372501526263e+00) (75, 6.36625922786610765058e+00) (76, 4.13310377201494638655e+00) (77, 1.26081712157075980230e+01) (78, 4.29463960068267591730e-01) (79, 1.50000000000000000000e+03) (80, 1.50000000000000000000e+03) (81, 1.18444985465988202122e+03) (82, 1.20292069167680074315e+03) (83, 1.50000000000000000000e+03) (84, 5.37392264385345042044e-01) (85, 1.50000000000000000000e+03) (86, 1.11075246316518678213e+03) (87, 5.23844015040311639098e-01) (88, 4.50108271672056303725e-01) (89, 1.65595802055587171253e+02) (90, 8.29479466611754534533e-01) (91, 5.84756441292435535928e-01) (92, 1.50000000000000000000e+03) (93, 1.50000000000000000000e+03) (94, 1.30230859839253332311e+00) (95, 2.88607806486521090150e+00) (96, 1.15785788065087080767e+00) (97, 1.50000000000000000000e+03) (98, 7.92503233969681919469e-01) (99, 1.50000000000000000000e+03) (100, 8.04633332057664347303e+02) (101, 3.34325956852659811336e-01) (102, 5.59650882349684319905e+00) (103, 1.50000000000000000000e+03) (104, 1.50000000000000000000e+03) (105, 5.42555486589816382548e+00) (106, 8.30001984606983178594e+00) (107, 1.72504550276079342552e+01) (108, 1.72196674862211089874e+01) (109, -1.05250112957724772933e+00) (110, 1.62911287931083004210e-01) (111, 1.91968507682508970902e+02) (112, 1.41429038589006115245e+01) (113, 5.44475035484377145600e-01) (114, 5.70938272034954593437e+02) (115, 3.72685014139445769388e+00) (116, 1.50000000000000000000e+03) (117, 9.56185467069035510690e+00) (118, 1.88445246752180338490e+02) (119, 4.27207290743061385285e+00) (120, 1.45796645029739413424e+00) (121, 1.59936264381863230133e-01) (122, 1.50000000000000000000e+03) (123, 1.50000000000000000000e+03) (124, 1.20575508498183081585e+00) (125, 1.50000000000000000000e+03) (126, 1.50000000000000000000e+03) (127, 2.72057401313300317724e+00) (128, 1.50000000000000000000e+03) (129, 1.47808741859903336469e+00) (130, 1.50000000000000000000e+03) (131, 1.20864194528296650666e-01) (132, 1.50000000000000000000e+03) (133, 3.07877845111013584756e+02) (134, 4.93266923579758298501e+00) (135, 1.28121930546896669512e+03) (136, 1.50000000000000000000e+03) (137, 1.18935318668170839373e+03) (138, 2.16482554676950567085e+00) (139, 1.72815994672453498993e+00) (140, 1.01076936924338974677e+03) (141, 3.54609942809476830217e-01) (142, 1.10494126642773562708e+03) (143, 1.35152653581302661223e+03) (144, 1.50000000000000000000e+03) (145, 1.80205838153586550554e+00) (146, 2.21796809713634157646e+00) (147, 7.50880920276749293407e+02) (148, 1.48989455584842767166e+03) (149, 3.94341717108939615599e-01) (150, -6.24523310530651265537e+00) (151, 1.13761125517659800188e+00) (152, 1.30016043110279747452e+03) (153, 8.95564417520155364727e-01) (154, 4.47796668719005452886e+00) (155, 4.38336843567439515823e+00) (156, 3.41177861931367565340e-01) (157, 2.70711272124065382982e+00) (158, 3.54173529445193224774e+00) (159, 3.52517482687905037153e+00) (160, 2.37435854962484038655e-01) (161, 1.50000000000000000000e+03) (162, 7.02255182555075352369e-01) (163, 3.92510340038631788673e+00) (164, 2.13214738848697099582e-01) (165, 1.50000000000000000000e+03) (166, -1.14686202916828938747e+00) (167, 1.09643540516572191024e+00) (168, 1.55491122528901759559e+00) (169, 4.67881539852495631493e+00) (170, 1.51758473203007460128e+00) (171, 1.01676586174092897785e+00) (172, 7.84417042810526543573e-02) (173, 1.86243969136136860998e-01) (174, 2.79887080071380234259e+00) (175, 1.09843076720395700363e+01) (176, 1.82932164781051476155e+00) (177, 1.34493323236234982687e+03) (178, 1.24623789132650557576e+02) (179, 2.33058705569628932253e+00) (180, 2.78009090215768861487e-01) (181, -5.65152619650789844741e+00) (182, 1.41534646088082899951e+03) (183, 1.41997456404842728261e+03) (184, 3.98269132703715511568e+00) (185, 1.44241663749484996515e+03) (186, 6.29081040280886294447e-01) (187, 2.49379692868813118700e-01) (188, 4.27688310587699049847e+02) (189, 2.93445474998215738438e+00) (190, 1.50000000000000000000e+03) (191, 4.34252812044388480928e+00) (192, 2.93391203931239352709e-01) (193, 2.88937958548122217906e+01) (194, 3.46467522370640113039e+00) (195, 1.43337967881142367332e+03) (196, 9.46650981601976693192e-01) (197, 3.97413939366462409808e+00) (198, 6.90135685787222655563e+02) (199, 2.73387321002510175205e+00) (200, 4.20657814447052635920e-01) (201, 1.49989016052611464147e+03) (202, 3.82197579472381399057e+00) (203, 1.10972691847472511029e+01) (204, 3.26460015606443665348e+00) (205, 3.56712677147625312202e+00) (206, 5.43420915075127908267e-01) (207, 2.86639065416561535926e+01) (208, 1.50000000000000000000e+03) (209, 7.85895378348167383820e+01) (210, 5.48454998978077590266e+00) (211, 1.49805555889440134010e+00) (212, 4.63519049861540799462e-01) (213, 1.38501169162288852021e+03) (214, 2.08587412579005047064e+01) (215, 1.21035711106713733898e+03) (216, 9.80780908827436515018e-01) (217, 1.09637768639600685638e+00) (218, 1.68829272950021835875e+00) (219, 1.42074778982167764241e+01) (220, 1.50000000000000000000e+03) (221, 1.37176900671802786746e+03) (222, 9.69251215776122762691e+02) (223, 1.50000000000000000000e+03) (224, 1.03788116717206639805e+03) (225, 4.28423156954955697273e+00) (226, 5.51608583622799031332e+00) (227, 4.18394489525992951950e-01) (228, 2.13076140351165221887e+00) (229, 6.41280502578420286142e+00) (230, 1.25946277124487782118e+00) (231, 1.50000000000000000000e+03) (232, 1.55850655613251509735e+00) (233, 3.57668911526336774642e+00) (234, 3.54389177171180191905e+00) (235, 5.09092590972237474034e+02) (236, 1.25564107065300095201e+03) (237, 1.50000000000000000000e+03) (238, 3.31653478594238171340e+00) (239, 2.06941841693862272678e+02) (240, 1.50000000000000000000e+03) (241, 1.01542973246469739479e+03) (242, 3.58698261898250025936e+00) (243, 3.40856009640224488777e+00) (244, 1.64653879387083024177e+00) (245, 7.99289020732943944481e-01) (246, 1.10887048152193210626e+03) (247, 3.73437395046858512160e+02) (248, 7.10529912078013836663e+01) (249, 4.74286645090529368485e-01) (250, 3.41408586261725766065e-01) (251, 1.82991873403893180239e+02) (252, 1.35407208978884227690e+03) (253, 1.47923835108028697505e+02) (254, 3.25177577636359504965e+00) (255, 1.74894249933929413210e+00) (256, 9.60118513976730980630e+00) (257, 3.63927273355032454560e+00) (258, 5.96373828890255142099e-01) (259, 1.51770013944485970825e+00) (260, 3.09838612684885905679e+00) (261, 2.93311758601925098855e-01) (262, 3.90277186630747008333e-01) (263, 2.05846083295625215115e+00) (264, 9.22696897558534012695e-01) (265, 1.50000000000000000000e+03) (266, 1.38894071219148509044e+03) (267, 2.81656758479722268973e-01) (268, 1.33769997249020278218e+00) (269, 4.78995652940426785982e-01) (270, 1.42260730192413054063e+00) (271, 1.50000000000000000000e+03) (272, 6.83390219541971873696e+02) (273, 3.03075296623658063666e-01) (274, 1.50000000000000000000e+03) (275, 3.30803857273091850288e+00) (276, 1.20744316931474990895e+01) (277, 2.09841634261411456919e+02) (278, 1.03901126685928758775e+02) (279, 2.27510038762766042542e-01) (280, 1.82896075606436547822e+00) (281, 9.55210730656723058019e+02) (282, 1.50000000000000000000e+03) (283, 1.50000000000000000000e+03) (284, -2.33584900880044715743e-01) (285, 2.26846172576221721817e-01) (286, 5.36396466359489343390e-01) (287, 1.28161344705691658419e+03) (288, 1.90607893403626826867e+00) (289, 4.80061820750912886524e+02) (290, 3.98043311536299904141e-01) (291, 2.03359358710829635219e-01) (292, 1.50000000000000000000e+03) (293, -1.80907639555333652481e+01) (294, 1.03671372661314264985e-01) (295, 1.40888211246470905280e+03) (296, 1.76587841691909575026e+00) (297, 1.36951166450851860645e+03) (298, 2.76292762824666038313e+00) (299, 1.36165651960458489178e+00) (300, 4.50844577652763511821e+00) (301, 1.50000000000000000000e+03) (302, 3.10055929836653909604e+00) (303, 7.29337069910485638502e+02) (304, 4.10591791200823941210e+00) (305, 4.81776004379397626565e+00) (306, 1.50000000000000000000e+03) (307, 1.68488520125209753076e+01) (308, 1.41153225225978418145e+00) (309, 1.50000000000000000000e+03) (310, 6.94500829684473387715e+02) (311, 1.99224137975561799152e+00) (312, 1.23182336022559923983e+00) (313, 1.37354264539733456063e-01) (314, 6.43556156832473802432e-01) (315, 7.66659504388697854438e+00) (316, 1.86148166941050119405e+00) (317, 3.54746308208413518859e-01) (318, 3.01360784301444972755e+00) (319, 3.25390085902068690871e+01) (320, 1.50000000000000000000e+03) (321, 2.52333275225497377647e+00) (322, 9.57324632906502825946e-01) (323, 1.14953039721285426822e+03) (324, 9.79989555416947211164e-01) (325, 3.54008764353813454306e+00) (326, 1.12068162970212314988e+00) (327, -1.02898226805483949953e+00) (0, 1.82299317472316624311e+00) (1, 1.88811801437097259715e+00) (2, 1.25613050015510361845e+03) (3, 1.50000000000000000000e+03) (4, 1.97249308166837744594e+00) (5, 1.92028939801895504047e+00) (6, 9.18779639291926741862e+01) (7, 1.26992069754876138177e+03) (8, 3.34708533669793961707e+00) (9, 1.50000000000000000000e+03) (10, 2.68564954792843746390e+00) (11, 1.42628465108081203816e+00) (12, 1.50000000000000000000e+03) (13, 1.00953441767375670679e+03) (14, 9.99171651521005443897e+00) (15, 5.51130813980193678958e+00) (16, 1.50000000000000000000e+03) (17, 1.00715600518353699044e+03) (18, 1.50000000000000000000e+03) (19, 7.51766432456409638974e+00) (20, 1.34406719160508555433e+03) (21, 2.79795747599181465759e+00) (22, 7.17979106428911495463e-01) (23, 8.91742390175860211166e-01) (24, 2.36724716991552863732e+00) (25, 9.66875375978692659373e+02) (26, 1.23173051455913551422e+01) (27, 4.30103856870761891429e+00) (28, 6.07297461563549312302e+00) (29, 2.98278891776292232052e+00) (30, 1.50000000000000000000e+03) (31, 8.08494701619906209089e+02) (32, 5.99754517784782503753e+00) (33, 2.38847478709600657965e+00) (34, 1.17966819578828381054e+03) (35, 6.49830217941752952271e+00) (36, 1.50000000000000000000e+03) (37, 1.85426003281924467458e+00) (38, 2.51362084510842542784e+00) (39, 1.50000000000000000000e+03) (40, 2.13143174647386990372e+00) (41, 1.50000000000000000000e+03) (42, 1.50000000000000000000e+03) (43, 3.38597458085997216060e+00) (44, 2.32178311657945926072e+02) (45, 4.33427291377725243393e+00) (46, 1.32386737940274997527e+03) (47, 5.86799706817676547388e+00) (48, 3.07101120621543827838e+02) (49, 1.25530632706314509051e+03) (50, 1.50000000000000000000e+03) (51, 4.65673613903403449399e+00) (52, 1.49244552030599766113e+03) (53, 7.30206758225202445800e+00) (54, 1.50000000000000000000e+03) (55, 1.48969079357750766590e+00) (56, 1.50000000000000000000e+03) (57, 1.16271568870898079240e+02) (58, 1.66967630179686743475e+00) (59, 2.00605974120239460845e+00) (60, 2.15457532402316438436e+01) (61, 3.39599403386937215288e+00) (62, 3.96440092661179255273e+00) (63, 1.55088220731677783881e+00) (64, 9.62958635392264916675e+00) (65, 1.41614191281363996922e+01) (66, 1.50000000000000000000e+03) (67, 1.46870617569818784354e+00) (68, 3.09055343515044134151e+00) (69, 1.84465494880489822016e+00) (70, 1.50000000000000000000e+03) (71, 8.43837186425214191843e+00) (72, 9.67172259390549626801e+00) (73, 2.52958796881041392268e+00) (74, 6.54263955521677265104e-01) (75, 3.35379776562967313325e+00) (76, 2.07018543776793118028e+00) (77, 2.52426610781081262047e+00) (78, 2.22240750942661158263e+00) (79, 1.50000000000000000000e+03) (80, 1.50000000000000000000e+03) (81, 1.50000000000000000000e+03) (82, 1.20434874272083789037e+03) (83, 1.50000000000000000000e+03) (84, 2.67964551673451056857e+00) (85, 1.50000000000000000000e+03) (86, 1.50000000000000000000e+03) (87, 1.07434003797577553030e+01) (88, 1.91622230557941986007e+00) (89, 4.95264493580467785705e+02) (90, 6.99403889659912714194e+00) (91, 1.35989907194324679551e+01) (92, 1.50000000000000000000e+03) (93, 1.42970928328995069023e+03) (94, 3.98234418851964422359e+00) (95, 4.74846388841516908741e+00) (96, 2.03919005348911408504e+00) (97, 1.50000000000000000000e+03) (98, 1.52092016951897512911e+00) (99, 1.50000000000000000000e+03) (100, 1.09224083706753572187e+03) (101, 2.01424058453138687952e+00) (102, 3.80691538496115633450e+00) (103, 1.50000000000000000000e+03) (104, 1.50000000000000000000e+03) (105, 1.01763355748892632135e+01) (106, 1.52879403846784067689e+00) (107, 2.21529493796688781160e+00) (108, 6.28307328679610037625e+01) (109, -8.96057447648663796258e+00) (110, 3.32379530743617257471e+00) (111, 4.59510810587787204895e+02) (112, 3.75153385274650519321e+00) (113, 8.13542983336054881249e+00) (114, 8.87459114054985747089e+01) (115, 1.72792770393264794038e+00) (116, 1.50000000000000000000e+03) (117, 1.49046611196620055750e+01) (118, 4.49744117134993075524e+01) (119, 5.13317690882063804025e+00) (120, 1.09480994640313200605e+00) (121, 8.03365792604398443189e+00) (122, 1.50000000000000000000e+03) (123, 1.50000000000000000000e+03) (124, 1.62385297931043748321e+00) (125, 1.50000000000000000000e+03) (126, 1.50000000000000000000e+03) (127, 2.60563329088785700094e+00) (128, 1.47424203179030769206e+03) (129, 1.31981003214293179937e+00) (130, 1.50000000000000000000e+03) (131, 2.13114956677641345095e+01) (132, 1.50000000000000000000e+03) (133, 1.17985033226723317057e+03) (134, 1.91086490488262406018e+01) (135, 1.50000000000000000000e+03) (136, 1.50000000000000000000e+03) (137, 1.50000000000000000000e+03) (138, 1.40279563467549301947e+01) (139, 2.94096691214443994866e+00) (140, 1.24844330205247615595e+03) (141, 1.29385243893594736875e+00) (142, 1.39177027539176060600e+03) (143, 8.51767985164039259871e+02) (144, 1.50000000000000000000e+03) (145, 1.61152177725719547574e+00) (146, 3.29883877919592727324e+00) (147, 8.18164746063632037476e+02) (148, 1.50000000000000000000e+03) (149, 2.26165894911876907969e+00) (150, 4.87010924430341773927e+00) (151, 1.08268334904404595065e+00) (152, 1.30375377464598841470e+03) (153, 2.08467265954999092514e+00) (154, 3.31358164329500537448e+00) (155, 1.33856805997882304382e+01) (156, 1.87533886676918437608e+00) (157, 1.62161916044254859059e+01) (158, 2.22000039563944184806e+00) (159, 5.00424948351263854107e+00) (160, 1.85677667278035185561e+00) (161, 1.50000000000000000000e+03) (162, 9.12154419497914581427e+00) (163, 2.17165798744211846483e+00) (164, 6.79121308184546634834e-01) (165, 1.50000000000000000000e+03) (166, -5.69552856893006831385e-01) (167, 2.30276367687729122125e+00) (168, 2.12052462487748130116e+01) (169, 1.72390867780178846935e+00) (170, 1.86588606175085680583e+00) (171, 6.40246180624604832587e+00) (172, 1.79659008788022406256e-01) (173, 7.59031640520455797017e-01) (174, 2.37170878625303194198e+00) (175, 9.56955809500376730625e+00) (176, 4.25922329953239220401e+00) (177, 1.34489587924863417356e+03) (178, 1.14829280936066098207e+01) (179, 4.09837833513869931323e+00) (180, 2.04185452829878366643e+00) (181, -6.44932280742728347711e-01) (182, 1.41047415921143783635e+03) (183, 1.50000000000000000000e+03) (184, 2.48249203123337425225e+00) (185, 9.54605893508381768697e+02) (186, 2.17637197339456767153e+00) (187, 3.03059123675288191180e+01) (188, 4.91063215796239035171e+02) (189, 2.43036448522665349259e+00) (190, 1.50000000000000000000e+03) (191, 2.02295952655514676977e+00) (192, 2.04856446098174327375e+00) (193, 7.87840449542716498854e+01) (194, 3.97588929674674718129e+00) (195, 1.18962280982759580183e+03) (196, 5.20646031207517800965e+00) (197, 3.07978276916183979495e+00) (198, 8.34680677022353165739e+02) (199, 1.63389214470862995654e+01) (200, 2.15668891737037071721e+00) (201, 1.50000000000000000000e+03) (202, 1.51433539192344590596e+00) (203, 2.16051013818047943360e+00) (204, 1.87122265497505702037e+00) (205, 1.90673187303265478931e+01) (206, 1.30945903860003487473e+00) (207, 2.45558287691739085545e+00) (208, 1.50000000000000000000e+03) (209, 9.67318925442089181388e+01) (210, 1.69851194338489119851e+00) (211, 2.11988360197481462421e+00) (212, 1.49083461034159658887e+00) (213, 9.42998786638770297941e+02) (214, 2.59086322903484145286e+00) (215, 1.50000000000000000000e+03) (216, 3.36130270562878319396e+00) (217, 3.80061300811146907108e+00) (218, 5.88076575251568733904e+00) (219, 4.54656379111231601087e+00) (220, 1.50000000000000000000e+03) (221, 1.50000000000000000000e+03) (222, 1.50000000000000000000e+03) (223, 1.50000000000000000000e+03) (224, 8.36288468294597123531e+02) (225, 2.23513818168653921603e+00) (226, 2.70345382247934074016e+00) (227, 2.30136760900082437686e+00) (228, 1.61145823398056116105e+01) (229, 5.07268066296197606135e+00) (230, 2.35662870390802181575e+00) (231, 8.48965310987461975856e+02) (232, 2.60954635345661678514e+00) (233, 2.03694439910610425315e+00) (234, 2.46238247972840795796e+00) (235, 6.60961092810253603602e+02) (236, 1.50000000000000000000e+03) (237, 1.68126698099687615695e+02) (238, 3.04725047720483077640e+00) (239, 4.81576501450456362363e+02) (240, 1.50000000000000000000e+03) (241, 1.19254782578717527031e+03) (242, 2.09055791076338781664e+00) (243, 1.81244692481214242363e+00) (244, 1.58661373280235040717e+00) (245, 1.69370565480054846574e+00) (246, 1.50000000000000000000e+03) (247, 1.41343338632957875234e+03) (248, 1.62496285562487400966e+02) (249, 2.40315411998133354743e+00) (250, 1.97311622667594366298e+00) (251, 1.32636315844839288047e+02) (252, 1.50000000000000000000e+03) (253, 6.73311690632269232992e+02) (254, 1.81740699751161782771e+00) (255, 4.32136159901304051090e+00) (256, 2.02540297822292192365e+00) (257, 8.74628779118522547975e-01) (258, 1.98573631655474902580e+00) (259, 1.91095977364125113596e+00) (260, 3.96320030915500343127e+00) (261, 4.69396667431943459547e+00) (262, 5.32001764814532407399e+00) (263, 1.39966490764239526179e+00) (264, 2.75742546228502671823e+00) (265, 1.14569549753604155740e+03) (266, 1.42273115381859861373e+03) (267, 1.90801639407190859465e+00) (268, 1.84560039549030507899e+00) (269, 1.92139449805756434841e+00) (270, 2.57711554203159520782e+00) (271, 1.50000000000000000000e+03) (272, 9.36598304498558718478e+02) (273, 1.36519998688218868743e+00) (274, 1.50000000000000000000e+03) (275, 7.52353122582414624020e+00) (276, 6.46730199909734526642e+00) (277, 1.07333014139705554157e+02) (278, 4.36400977446743638666e+01) (279, 2.02517983729990103114e+00) (280, 2.28253251012066726844e+00) (281, 1.50000000000000000000e+03) (282, 1.50000000000000000000e+03) (283, 1.50000000000000000000e+03) (284, -1.18787465367343902933e+00) (285, 2.65300563321791793570e+00) (286, 1.97774571978832938157e+01) (287, 1.50000000000000000000e+03) (288, 1.44481511912109406026e+00) (289, 4.80127732505878668690e+02) (290, 6.71834426350351332502e+00) (291, 3.06575738675892894847e+00) (292, 1.50000000000000000000e+03) (293, -1.19686214240494614991e+00) (294, 2.24311216152980508198e+00) (295, 4.53106238795526792273e+02) (296, 2.81105633224707673889e+00) (297, 8.28435857104237470594e+02) (298, 4.01551989288795407873e+00) (299, 1.56207720352458134805e+00) (300, 4.50449872211625379492e+00) (301, 1.50000000000000000000e+03) (302, 4.95188760782937631433e+00) (303, 1.45531404011260997322e+03) (304, 3.71857064076546794951e+00) (305, 2.52663306079149707628e+00) (306, 1.50000000000000000000e+03) (307, 7.83966881339046128829e+00) (308, 1.62004003068434720980e+00) (309, 1.50000000000000000000e+03) (310, 1.16333567480363285540e+03) (311, 1.88987722892698584154e+00) (312, 3.56426641782525166491e+00) (313, 1.36846312175310669268e+00) (314, 2.57515535526601135885e+00) (315, 1.27242300900117810691e+00) (316, 2.77506533941217181649e+00) (317, 3.24585487074838141552e+00) (318, 9.86139121445137156741e+00) (319, 3.46598166157818310396e+00) (320, 1.50000000000000000000e+03) (321, 8.43223365871337904309e+00) (322, 9.32633996048295776937e-01) (323, 8.31539068178135948983e+02) (324, 1.67935359644656623246e+00) (325, 1.11263726202026127510e+01) (326, 1.40794359745828834285e+00) (327, -7.46723078784522820150e-01) (0, 1.65959032980209486574e+00) (1, 1.13789827630981665862e+00) (2, 6.42366092166537754338e+01) (3, 1.50000000000000000000e+03) (4, 2.51496327842958555809e-02) (5, 8.37655536324188432218e-01) (6, 2.96473359145338344334e+00) (7, 7.61552390736140409899e+02) (8, -8.99094900098682314749e-01) (9, 1.06114386073843434133e+02) (10, 1.27362733919956738760e+00) (11, 3.04521525512366064703e+00) (12, 4.70650410930076532168e+02) (13, 1.24429341043224212626e+03) (14, 7.90614661038957944328e-01) (15, 2.96734440084915318536e+00) (16, 5.46308782263482498820e+02) (17, 7.69502954103405727437e+02) (18, 7.79194706583700281044e+02) (19, -6.62188636256708096361e-03) (20, 1.83455584030910294757e+01) (21, 1.10373858961014326141e+00) (22, 1.62287716520404479148e+00) (23, 3.09440570393761626988e+00) (24, 1.51690985456386484564e+00) (25, 9.99632162586965336004e+01) (26, 9.00557698993021205069e+00) (27, 9.50803723544671020029e-01) (28, -4.51549810299796239299e-01) (29, 2.50867055896861401720e+00) (30, 7.16250604557029305397e+02) (31, 3.58638980437273858115e+02) (32, 3.53000471580874153332e+00) (33, 1.97415838209302951789e+00) (34, -1.33882659745668502183e+03) (35, 1.30041035279880889952e+00) (36, 4.62192930168540897284e+02) (37, -2.99966764092551400889e-02) (38, -4.11073829359619651314e+01) (39, 1.25736206677705399670e+03) (40, -1.46703920253064529211e-01) (41, 3.96100093739801195625e+02) (42, 4.78001880587158609615e+02) (43, 1.40602910474415310205e+00) (44, 6.28699058252658993240e+00) (45, 1.35916441240804597435e+00) (46, 1.79890991574778347228e+01) (47, 1.03043491328437353260e+00) (48, 5.47915727986525737947e+01) (49, 2.76837500832796024497e+02) (50, 6.20175591767906411178e+01) (51, 1.98278236651579425898e-01) (52, 7.75738495841548910903e+02) (53, 1.12361496045622799578e+00) (54, -1.09650609353636809828e+02) (55, -7.54970355441945906172e-01) (56, 5.37255143606010108215e+01) (57, -1.80070601863906154527e+00) (58, -1.21650136811815334781e+00) (59, 1.63361763431010859060e-01) (60, -6.11317093031877201170e-01) (61, -4.23102766335330282566e-01) (62, 1.09413679377257122560e+00) (63, 2.71299433875414486295e+00) (64, 8.20126628216828801321e-01) (65, 1.40945895871657245202e+00) (66, 2.34091384267187606838e+02) (67, 1.33665108936391008321e+00) (68, 9.69518270183910013671e-01) (69, 2.31620275922161011906e+00) (70, 1.50000000000000000000e+03) (71, 1.18238208388100174417e+00) (72, 8.65834694261694681749e-01) (73, 8.78355253284157755367e-01) (74, 6.54339835109337242258e-01) (75, 1.29960206619404394779e+00) (76, 1.23440663919726523190e+00) (77, 2.25085253387729089525e+00) (78, 7.36142098734717920117e-01) (79, 7.85772086994579467500e+02) (80, 1.50000000000000000000e+03) (81, 7.45381748078030000215e+02) (82, 2.26513658438067636780e+02) (83, 1.01496912853567096136e+03) (84, 9.00896442159615729040e-01) (85, 7.78984625980862574579e+02) (86, -1.12966048075969183628e+03) (87, -4.75260519656238429320e+01) (88, 6.74172288432865918217e-01) (89, 7.63132531138546937655e+02) (90, 8.77794861288885841510e-01) (91, -1.11591724111714896139e+00) (92, 6.61573803914243967483e+01) (93, 2.26501556941567002923e+02) (94, 1.64296465746031006283e+00) (95, 2.97790921001707387106e+00) (96, 3.49317071555583602560e+00) (97, 