FANN_FLO_2.1
num_layers=3
learning_rate=0.700000
connection_rate=1.000000
network_type=0
learning_momentum=0.000000
training_algorithm=2
train_error_function=1
train_stop_function=0
cascade_output_change_fraction=0.010000
quickprop_decay=-0.000100
quickprop_mu=1.750000
rprop_increase_factor=1.200000
rprop_decrease_factor=0.500000
rprop_delta_min=0.000000
rprop_delta_max=50.000000
rprop_delta_zero=0.100000
cascade_output_stagnation_epochs=12
cascade_candidate_change_fraction=0.010000
cascade_candidate_stagnation_epochs=12
cascade_max_out_epochs=150
cascade_min_out_epochs=50
cascade_max_cand_epochs=150
cascade_min_cand_epochs=50
cascade_num_candidate_groups=2
bit_fail_limit=3.49999999999999977796e-01
cascade_candidate_limit=1.00000000000000000000e+03
cascade_weight_multiplier=4.00000000000000022204e-01
cascade_activation_functions_count=10
cascade_activation_functions=3 5 7 8 10 11 14 15 16 17 
cascade_activation_steepnesses_count=4
cascade_activation_steepnesses=2.50000000000000000000e-01 5.00000000000000000000e-01 7.50000000000000000000e-01 1.00000000000000000000e+00 
layer_sizes=328 167 7 
scale_included=0
neurons (num_inputs, activation_function, activation_steepness)=(0, 0, 0.00000000000000000000e+00) (0, 0, 0.00000000000000000000e+00) (0, 0, 0.00000000000000000000e+00) (0, 0, 0.00000000000000000000e+00) (0, 0, 0.00000000000000000000e+00) (0, 0, 0.00000000000000000000e+00) (0, 0, 0.00000000000000000000e+00) (0, 0, 0.00000000000000000000e+00) (0, 0, 0.00000000000000000000e+00) (0, 0, 0.00000000000000000000e+00) (0, 0, 0.00000000000000000000e+00) (0, 0, 0.00000000000000000000e+00) (0, 0, 0.00000000000000000000e+00) (0, 0, 0.00000000000000000000e+00) (0, 0, 0.00000000000000000000e+00) (0, 0, 0.00000000000000000000e+00) (0, 0, 0.00000000000000000000e+00) (0, 0, 0.00000000000000000000e+00) (0, 0, 0.00000000000000000000e+00) (0, 0, 0.00000000000000000000e+00) (0, 0, 0.00000000000000000000e+00) (0, 0, 0.00000000000000000000e+00) (0, 0, 0.00000000000000000000e+00) (0, 0, 0.00000000000000000000e+00) (0, 0, 0.00000000000000000000e+00) (0, 0, 0.00000000000000000000e+00) (0, 0, 0.00000000000000000000e+00) (0, 0, 0.00000000000000000000e+00) (0, 0, 0.00000000000000000000e+00) (0, 0, 0.00000000000000000000e+00) (0, 0, 0.00000000000000000000e+00) (0, 0, 0.00000000000000000000e+00) (0, 0, 0.00000000000000000000e+00) (0, 0, 0.00000000000000000000e+00) (0, 0, 0.00000000000000000000e+00) (0, 0, 0.00000000000000000000e+00) (0, 0, 0.00000000000000000000e+00) (0, 0, 0.00000000000000000000e+00) (0, 0, 0.00000000000000000000e+00) (0, 0, 0.00000000000000000000e+00) (0, 0, 0.00000000000000000000e+00) (0, 0, 0.00000000000000000000e+00) (0, 0, 0.00000000000000000000e+00) (0, 0, 0.00000000000000000000e+00) (0, 0, 0.00000000000000000000e+00) (0, 0, 0.00000000000000000000e+00) (0, 0, 0.00000000000000000000e+00) (0, 0, 0.00000000000000000000e+00) (0, 0, 0.00000000000000000000e+00) (0, 0, 0.00000000000000000000e+00) (0, 0, 0.00000000000000000000e+00) (0, 0, 0.00000000000000000000e+00) (0, 0, 0.00000000000000000000e+00) (0, 0, 0.00000000000000000000e+00) (0, 0, 0.00000000000000000000e+00) (0, 0, 0.00000000000000000000e+00) (0, 0, 0.00000000000000000000e+00) (0, 0, 0.00000000000000000000e+00) (0, 0, 0.00000000000000000000e+00) (0, 0, 0.00000000000000000000e+00) (0, 0, 0.00000000000000000000e+00) (0, 0, 0.00000000000000000000e+00) (0, 0, 0.00000000000000000000e+00) (0, 0, 0.00000000000000000000e+00) (0, 0, 0.00000000000000000000e+00) (0, 0, 0.00000000000000000000e+00) (0, 0, 0.00000000000000000000e+00) (0, 0, 0.00000000000000000000e+00) (0, 0, 0.00000000000000000000e+00) (0, 0, 0.00000000000000000000e+00) (0, 0, 0.00000000000000000000e+00) (0, 0, 0.00000000000000000000e+00) (0, 0, 0.00000000000000000000e+00) (0, 0, 0.00000000000000000000e+00) (0, 0, 0.00000000000000000000e+00) (0, 0, 0.00000000000000000000e+00) (0, 0, 0.00000000000000000000e+00) (0, 0, 0.00000000000000000000e+00) (0, 0, 0.00000000000000000000e+00) (0, 0, 0.00000000000000000000e+00) (0, 0, 0.00000000000000000000e+00) (0, 0, 0.00000000000000000000e+00) (0, 0, 0.00000000000000000000e+00) (0, 0, 0.00000000000000000000e+00) (0, 0, 0.00000000000000000000e+00) (0, 0, 0.00000000000000000000e+00) (0, 0, 0.00000000000000000000e+00) (0, 0, 0.00000000000000000000e+00) (0, 0, 0.00000000000000000000e+00) (0, 0, 0.00000000000000000000e+00) (0, 0, 0.00000000000000000000e+00) (0, 0, 0.00000000000000000000e+00) (0, 0, 0.00000000000000000000e+00) (0, 0, 0.00000000000000000000e+00) (0, 0, 0.00000000000000000000e+00) (0, 0, 0.00000000000000000000e+00) (0, 0, 0.00000000000000000000e+00) (0, 0, 0.00000000000000000000e+00) (0, 0, 0.00000000000000000000e+00) (0, 0, 0.00000000000000000000e+00) (0, 0, 0.00000000000000000000e+00) (0, 0, 0.00000000000000000000e+00) (0, 0, 0.00000000000000000000e+00) (0, 0, 0.00000000000000000000e+00) (0, 0, 0.00000000000000000000e+00) (0, 0, 0.00000000000000000000e+00) (0, 0, 0.00000000000000000000e+00) (0, 0, 0.00000000000000000000e+00) (0, 0, 0.00000000000000000000e+00) (0, 0, 0.00000000000000000000e+00) (0, 0, 0.00000000000000000000e+00) (0, 0, 0.00000000000000000000e+00) (0, 0, 0.00000000000000000000e+00) (0, 0, 0.00000000000000000000e+00) (0, 0, 0.00000000000000000000e+00) (0, 0, 0.00000000000000000000e+00) (0, 0, 0.00000000000000000000e+00) (0, 0, 0.00000000000000000000e+00) (0, 0, 0.00000000000000000000e+00) (0, 0, 0.00000000000000000000e+00) (0, 0, 0.00000000000000000000e+00) (0, 0, 0.00000000000000000000e+00) (0, 0, 0.00000000000000000000e+00) (0, 0, 0.00000000000000000000e+00) (0, 0, 0.00000000000000000000e+00) (0, 0, 0.00000000000000000000e+00) (0, 0, 0.00000000000000000000e+00) (0, 0, 0.00000000000000000000e+00) (0, 0, 0.00000000000000000000e+00) (0, 0, 0.00000000000000000000e+00) (0, 0, 0.00000000000000000000e+00) (0, 0, 0.00000000000000000000e+00) (0, 0, 0.00000000000000000000e+00) (0, 0, 0.00000000000000000000e+00) (0, 0, 0.00000000000000000000e+00) (0, 0, 0.00000000000000000000e+00) (0, 0, 0.00000000000000000000e+00) (0, 0, 0.00000000000000000000e+00) (0, 0, 0.00000000000000000000e+00) (0, 0, 0.00000000000000000000e+00) (0, 0, 0.00000000000000000000e+00) (0, 0, 0.00000000000000000000e+00) (0, 0, 0.00000000000000000000e+00) (0, 0, 0.00000000000000000000e+00) (0, 0, 0.00000000000000000000e+00) (0, 0, 0.00000000000000000000e+00) (0, 0, 0.00000000000000000000e+00) (0, 0, 0.00000000000000000000e+00) (0, 0, 0.00000000000000000000e+00) (0, 0, 0.00000000000000000000e+00) (0, 0, 0.00000000000000000000e+00) (0, 0, 0.00000000000000000000e+00) (0, 0, 0.00000000000000000000e+00) (0, 0, 0.00000000000000000000e+00) (0, 0, 0.00000000000000000000e+00) (0, 0, 0.00000000000000000000e+00) (0, 0, 0.00000000000000000000e+00) (0, 0, 0.00000000000000000000e+00) (0, 0, 0.00000000000000000000e+00) (0, 0, 0.00000000000000000000e+00) (0, 0, 0.00000000000000000000e+00) (0, 0, 0.00000000000000000000e+00) (0, 0, 0.00000000000000000000e+00) (0, 0, 0.00000000000000000000e+00) (0, 0, 0.00000000000000000000e+00) (0, 0, 0.00000000000000000000e+00) (0, 0, 0.00000000000000000000e+00) (0, 0, 0.00000000000000000000e+00) (0, 0, 0.00000000000000000000e+00) (0, 0, 0.00000000000000000000e+00) (0, 0, 0.00000000000000000000e+00) (0, 0, 0.00000000000000000000e+00) (0, 0, 0.00000000000000000000e+00) (0, 0, 0.00000000000000000000e+00) (0, 0, 0.00000000000000000000e+00) (0, 0, 0.00000000000000000000e+00) (0, 0, 0.00000000000000000000e+00) (0, 0, 0.00000000000000000000e+00) (0, 0, 0.00000000000000000000e+00) (0, 0, 0.00000000000000000000e+00) (0, 0, 0.00000000000000000000e+00) (0, 0, 0.00000000000000000000e+00) (0, 0, 0.00000000000000000000e+00) (0, 0, 0.00000000000000000000e+00) (0, 0, 0.00000000000000000000e+00) (0, 0, 0.00000000000000000000e+00) (0, 0, 0.00000000000000000000e+00) (0, 0, 0.00000000000000000000e+00) (0, 0, 0.00000000000000000000e+00) (0, 0, 0.00000000000000000000e+00) (0, 0, 0.00000000000000000000e+00) (0, 0, 0.00000000000000000000e+00) (0, 0, 0.00000000000000000000e+00) (0, 0, 0.00000000000000000000e+00) (0, 0, 0.00000000000000000000e+00) (0, 0, 0.00000000000000000000e+00) (0, 0, 0.00000000000000000000e+00) (0, 0, 0.00000000000000000000e+00) (0, 0, 0.00000000000000000000e+00) (0, 0, 0.00000000000000000000e+00) (0, 0, 0.00000000000000000000e+00) (0, 0, 0.00000000000000000000e+00) (0, 0, 0.00000000000000000000e+00) (0, 0, 0.00000000000000000000e+00) (0, 0, 0.00000000000000000000e+00) (0, 0, 0.00000000000000000000e+00) (0, 0, 0.00000000000000000000e+00) (0, 0, 0.00000000000000000000e+00) (0, 0, 0.00000000000000000000e+00) (0, 0, 0.00000000000000000000e+00) (0, 0, 0.00000000000000000000e+00) (0, 0, 0.00000000000000000000e+00) (0, 0, 0.00000000000000000000e+00) (0, 0, 0.00000000000000000000e+00) (0, 0, 0.00000000000000000000e+00) (0, 0, 0.00000000000000000000e+00) (0, 0, 0.00000000000000000000e+00) (0, 0, 0.00000000000000000000e+00) (0, 0, 0.00000000000000000000e+00) (0, 0, 0.00000000000000000000e+00) (0, 0, 0.00000000000000000000e+00) (0, 0, 0.00000000000000000000e+00) (0, 0, 0.00000000000000000000e+00) (0, 0, 0.00000000000000000000e+00) (0, 0, 0.00000000000000000000e+00) (0, 0, 0.00000000000000000000e+00) (0, 0, 0.00000000000000000000e+00) (0, 0, 0.00000000000000000000e+00) (0, 0, 0.00000000000000000000e+00) (0, 0, 0.00000000000000000000e+00) (0, 0, 0.00000000000000000000e+00) (0, 0, 0.00000000000000000000e+00) (0, 0, 0.00000000000000000000e+00) (0, 0, 0.00000000000000000000e+00) (0, 0, 0.00000000000000000000e+00) (0, 0, 0.00000000000000000000e+00) (0, 0, 0.00000000000000000000e+00) (0, 0, 0.00000000000000000000e+00) (0, 0, 0.00000000000000000000e+00) (0, 0, 0.00000000000000000000e+00) (0, 0, 0.00000000000000000000e+00) (0, 0, 0.00000000000000000000e+00) (0, 0, 0.00000000000000000000e+00) (0, 0, 0.00000000000000000000e+00) (0, 0, 0.00000000000000000000e+00) (0, 0, 0.00000000000000000000e+00) (0, 0, 0.00000000000000000000e+00) (0, 0, 0.00000000000000000000e+00) (0, 0, 0.00000000000000000000e+00) (0, 0, 0.00000000000000000000e+00) (0, 0, 0.00000000000000000000e+00) (0, 0, 0.00000000000000000000e+00) (0, 0, 0.00000000000000000000e+00) (0, 0, 0.00000000000000000000e+00) (0, 0, 0.00000000000000000000e+00) (0, 0, 0.00000000000000000000e+00) (0, 0, 0.00000000000000000000e+00) (0, 0, 0.00000000000000000000e+00) (0, 0, 0.00000000000000000000e+00) (0, 0, 0.00000000000000000000e+00) (0, 0, 0.00000000000000000000e+00) (0, 0, 0.00000000000000000000e+00) (0, 0, 0.00000000000000000000e+00) (0, 0, 0.00000000000000000000e+00) (0, 0, 0.00000000000000000000e+00) (0, 0, 0.00000000000000000000e+00) (0, 0, 0.00000000000000000000e+00) (0, 0, 0.00000000000000000000e+00) (0, 0, 0.00000000000000000000e+00) (0, 0, 0.00000000000000000000e+00) (0, 0, 0.00000000000000000000e+00) (0, 0, 0.00000000000000000000e+00) (0, 0, 0.00000000000000000000e+00) (0, 0, 0.00000000000000000000e+00) (0, 0, 0.00000000000000000000e+00) (0, 0, 0.00000000000000000000e+00) (0, 0, 0.00000000000000000000e+00) (0, 0, 0.00000000000000000000e+00) (0, 0, 0.00000000000000000000e+00) (0, 0, 0.00000000000000000000e+00) (0, 0, 0.00000000000000000000e+00) (0, 0, 0.00000000000000000000e+00) (0, 0, 0.00000000000000000000e+00) (0, 0, 0.00000000000000000000e+00) (0, 0, 0.00000000000000000000e+00) (0, 0, 0.00000000000000000000e+00) (0, 0, 0.00000000000000000000e+00) (0, 0, 0.00000000000000000000e+00) (0, 0, 0.00000000000000000000e+00) (0, 0, 0.00000000000000000000e+00) (0, 0, 0.00000000000000000000e+00) (0, 0, 0.00000000000000000000e+00) (0, 0, 0.00000000000000000000e+00) (0, 0, 0.00000000000000000000e+00) (0, 0, 0.00000000000000000000e+00) (0, 0, 0.00000000000000000000e+00) (0, 0, 0.00000000000000000000e+00) (0, 0, 0.00000000000000000000e+00) (0, 0, 0.00000000000000000000e+00) (0, 0, 0.00000000000000000000e+00) (0, 0, 0.00000000000000000000e+00) (0, 0, 0.00000000000000000000e+00) (0, 0, 0.00000000000000000000e+00) (0, 0, 0.00000000000000000000e+00) (0, 0, 0.00000000000000000000e+00) (0, 0, 0.00000000000000000000e+00) (0, 0, 0.00000000000000000000e+00) (0, 0, 0.00000000000000000000e+00) (0, 0, 0.00000000000000000000e+00) (0, 0, 0.00000000000000000000e+00) (0, 0, 0.00000000000000000000e+00) (0, 0, 0.00000000000000000000e+00) (0, 0, 0.00000000000000000000e+00) (0, 0, 0.00000000000000000000e+00) (0, 0, 0.00000000000000000000e+00) (0, 0, 0.00000000000000000000e+00) (0, 0, 0.00000000000000000000e+00) (0, 0, 0.00000000000000000000e+00) (0, 0, 0.00000000000000000000e+00) (0, 0, 0.00000000000000000000e+00) (0, 0, 0.00000000000000000000e+00) (0, 0, 0.00000000000000000000e+00) (0, 0, 0.00000000000000000000e+00) (0, 0, 0.00000000000000000000e+00) (0, 0, 0.00000000000000000000e+00) (0, 0, 0.00000000000000000000e+00) (0, 0, 0.00000000000000000000e+00) (0, 0, 0.00000000000000000000e+00) (328, 4, 5.00000000000000000000e-01) (328, 4, 5.00000000000000000000e-01) (328, 4, 5.00000000000000000000e-01) (328, 4, 5.00000000000000000000e-01) (328, 4, 5.00000000000000000000e-01) (328, 4, 5.00000000000000000000e-01) (328, 4, 5.00000000000000000000e-01) (328, 4, 5.00000000000000000000e-01) (328, 4, 5.00000000000000000000e-01) (328, 4, 5.00000000000000000000e-01) (328, 4, 5.00000000000000000000e-01) (328, 4, 5.00000000000000000000e-01) (328, 4, 5.00000000000000000000e-01) (328, 4, 5.00000000000000000000e-01) (328, 4, 5.00000000000000000000e-01) (328, 4, 5.00000000000000000000e-01) (328, 4, 5.00000000000000000000e-01) (328, 4, 5.00000000000000000000e-01) (328, 4, 5.00000000000000000000e-01) (328, 4, 5.00000000000000000000e-01) (328, 4, 5.00000000000000000000e-01) (328, 4, 5.00000000000000000000e-01) (328, 4, 5.00000000000000000000e-01) (328, 4, 5.00000000000000000000e-01) (328, 4, 5.00000000000000000000e-01) (328, 4, 5.00000000000000000000e-01) (328, 4, 5.00000000000000000000e-01) (328, 4, 5.00000000000000000000e-01) (328, 4, 5.00000000000000000000e-01) (328, 4, 5.00000000000000000000e-01) (328, 4, 5.00000000000000000000e-01) (328, 4, 5.00000000000000000000e-01) (328, 4, 5.00000000000000000000e-01) (328, 4, 5.00000000000000000000e-01) (328, 4, 5.00000000000000000000e-01) (328, 4, 5.00000000000000000000e-01) (328, 4, 5.00000000000000000000e-01) (328, 4, 5.00000000000000000000e-01) (328, 4, 5.00000000000000000000e-01) (328, 4, 5.00000000000000000000e-01) (328, 4, 5.00000000000000000000e-01) (328, 4, 5.00000000000000000000e-01) (328, 4, 5.00000000000000000000e-01) (328, 4, 5.00000000000000000000e-01) (328, 4, 5.00000000000000000000e-01) (328, 4, 5.00000000000000000000e-01) (328, 4, 5.00000000000000000000e-01) (328, 4, 5.00000000000000000000e-01) (328, 4, 5.00000000000000000000e-01) (328, 4, 5.00000000000000000000e-01) (328, 4, 5.00000000000000000000e-01) (328, 4, 5.00000000000000000000e-01) (328, 4, 5.00000000000000000000e-01) (328, 4, 5.00000000000000000000e-01) (328, 4, 5.00000000000000000000e-01) (328, 4, 5.00000000000000000000e-01) (328, 4, 5.00000000000000000000e-01) (328, 4, 5.00000000000000000000e-01) (328, 4, 5.00000000000000000000e-01) (328, 4, 5.00000000000000000000e-01) (328, 4, 5.00000000000000000000e-01) (328, 4, 5.00000000000000000000e-01) (328, 4, 5.00000000000000000000e-01) (328, 4, 5.00000000000000000000e-01) (328, 4, 5.00000000000000000000e-01) (328, 4, 5.00000000000000000000e-01) (328, 4, 5.00000000000000000000e-01) (328, 4, 5.00000000000000000000e-01) (328, 4, 5.00000000000000000000e-01) (328, 4, 5.00000000000000000000e-01) (328, 4, 5.00000000000000000000e-01) (328, 4, 5.00000000000000000000e-01) (328, 4, 5.00000000000000000000e-01) (328, 4, 5.00000000000000000000e-01) (328, 4, 5.00000000000000000000e-01) (328, 4, 5.00000000000000000000e-01) (328, 4, 5.00000000000000000000e-01) (328, 4, 5.00000000000000000000e-01) (328, 4, 5.00000000000000000000e-01) (328, 4, 5.00000000000000000000e-01) (328, 4, 5.00000000000000000000e-01) (328, 4, 5.00000000000000000000e-01) (328, 4, 5.00000000000000000000e-01) (328, 4, 5.00000000000000000000e-01) (328, 4, 5.00000000000000000000e-01) (328, 4, 5.00000000000000000000e-01) (328, 4, 5.00000000000000000000e-01) (328, 4, 5.00000000000000000000e-01) (328, 4, 5.00000000000000000000e-01) (328, 4, 5.00000000000000000000e-01) (328, 4, 5.00000000000000000000e-01) (328, 4, 5.00000000000000000000e-01) (328, 4, 5.00000000000000000000e-01) (328, 4, 5.00000000000000000000e-01) (328, 4, 5.00000000000000000000e-01) (328, 4, 5.00000000000000000000e-01) (328, 4, 5.00000000000000000000e-01) (328, 4, 5.00000000000000000000e-01) (328, 4, 5.00000000000000000000e-01) (328, 4, 5.00000000000000000000e-01) (328, 4, 5.00000000000000000000e-01) (328, 4, 5.00000000000000000000e-01) (328, 4, 5.00000000000000000000e-01) (328, 4, 5.00000000000000000000e-01) (328, 4, 5.00000000000000000000e-01) (328, 4, 5.00000000000000000000e-01) (328, 4, 5.00000000000000000000e-01) (328, 4, 5.00000000000000000000e-01) (328, 4, 5.00000000000000000000e-01) (328, 4, 5.00000000000000000000e-01) (328, 4, 5.00000000000000000000e-01) (328, 4, 5.00000000000000000000e-01) (328, 4, 5.00000000000000000000e-01) (328, 4, 5.00000000000000000000e-01) (328, 4, 5.00000000000000000000e-01) (328, 4, 5.00000000000000000000e-01) (328, 4, 5.00000000000000000000e-01) (328, 4, 5.00000000000000000000e-01) (328, 4, 5.00000000000000000000e-01) (328, 4, 5.00000000000000000000e-01) (328, 4, 5.00000000000000000000e-01) (328, 4, 5.00000000000000000000e-01) (328, 4, 5.00000000000000000000e-01) (328, 4, 5.00000000000000000000e-01) (328, 4, 5.00000000000000000000e-01) (328, 4, 5.00000000000000000000e-01) (328, 4, 5.00000000000000000000e-01) (328, 4, 5.00000000000000000000e-01) (328, 4, 5.00000000000000000000e-01) (328, 4, 5.00000000000000000000e-01) (328, 4, 5.00000000000000000000e-01) (328, 4, 5.00000000000000000000e-01) (328, 4, 5.00000000000000000000e-01) (328, 4, 5.00000000000000000000e-01) (328, 4, 5.00000000000000000000e-01) (328, 4, 5.00000000000000000000e-01) (328, 4, 5.00000000000000000000e-01) (328, 4, 5.00000000000000000000e-01) (328, 4, 5.00000000000000000000e-01) (328, 4, 5.00000000000000000000e-01) (328, 4, 5.00000000000000000000e-01) (328, 4, 5.00000000000000000000e-01) (328, 4, 5.00000000000000000000e-01) (328, 4, 5.00000000000000000000e-01) (328, 4, 5.00000000000000000000e-01) (328, 4, 5.00000000000000000000e-01) (328, 4, 5.00000000000000000000e-01) (328, 4, 5.00000000000000000000e-01) (328, 4, 5.00000000000000000000e-01) (328, 4, 5.00000000000000000000e-01) (328, 4, 5.00000000000000000000e-01) (328, 4, 5.00000000000000000000e-01) (328, 4, 5.00000000000000000000e-01) (328, 4, 5.00000000000000000000e-01) (328, 4, 5.00000000000000000000e-01) (328, 4, 5.00000000000000000000e-01) (328, 4, 5.00000000000000000000e-01) (328, 4, 5.00000000000000000000e-01) (328, 4, 5.00000000000000000000e-01) (328, 4, 5.00000000000000000000e-01) (328, 4, 5.00000000000000000000e-01) (328, 4, 5.00000000000000000000e-01) (328, 4, 5.00000000000000000000e-01) (328, 4, 5.00000000000000000000e-01) (328, 4, 5.00000000000000000000e-01) (328, 4, 5.00000000000000000000e-01) (0, 0, 0.00000000000000000000e+00) (167, 4, 5.00000000000000000000e-01) (167, 4, 5.00000000000000000000e-01) (167, 4, 5.00000000000000000000e-01) (167, 4, 5.00000000000000000000e-01) (167, 4, 5.00000000000000000000e-01) (167, 4, 5.00000000000000000000e-01) (0, 0, 0.00000000000000000000e+00) 
connections (connected_to_neuron, weight)=(0, 7.74707238276189813497e-01) (1, 7.91302038347594272061e-01) (2, 2.03344429461441166040e+02) (3, 1.24468133573957720728e+03) (4, 2.95596486733158969606e-01) (5, -2.68197406767430868157e-01) (6, 1.02455686144808417737e+01) (7, 2.85963961357106086325e+02) (8, 2.20387206629330506535e-01) (9, 3.66246549643152832232e+01) (10, 4.11817368913618808701e-01) (11, 9.61647183337356215027e-01) (12, 1.11506501796270232063e+01) (13, 5.25528158332009525111e+02) (14, 2.34165835842271174982e+00) (15, 5.36900534504262783031e+00) (16, 1.16458250838071393218e+02) (17, 8.58254661402770757661e+00) (18, 1.35902926913379019425e+02) (19, -2.14576180740933014635e-01) (20, 1.07386400246383750812e+01) (21, -1.91260348009318181806e-01) (22, 8.61749722780259241883e-02) (23, 3.12709481692947321996e-01) (24, 3.41662606520128697696e-01) (25, 8.37024057709047752951e+01) (26, 3.76382430331478801122e+00) (27, 6.78654065617597668236e-01) (28, 3.27972771220498671152e-01) (29, 5.37032224310402095391e-01) (30, 8.24168202742326911903e+01) (31, -5.98715041703635719728e+00) (32, -1.02672935215349439564e-01) (33, 2.88886999347154393991e-01) (34, 1.19005251479667009562e+02) (35, 2.92616677418834958413e-01) (36, 3.36937503668436079352e+02) (37, 3.07715629256158806903e-01) (38, 3.02119929881607907074e-01) (39, 2.78027964037941899278e+00) (40, 1.75820584927486617266e-01) (41, 2.15051653952005992210e+01) (42, 6.70607216884975656512e+01) (43, 8.15217179446803386078e-01) (44, 6.76320539975531098698e-01) (45, 9.01825425475933961650e+00) (46, 3.33156353660946180639e+00) (47, 3.89983187198017888786e-01) (48, 1.74769403645379739487e+01) (49, 1.29597794373059855388e+02) (50, 4.27649194789924891325e+00) (51, 2.83427639711823664559e-01) (52, 4.13177258282429136216e+01) (53, 1.69879697638630811074e-01) (54, 2.84496809217362851996e+02) (55, 1.44830643452946850047e+00) (56, 4.92991645766108774751e+01) (57, 9.81429326226357190421e+00) (58, 1.17552684174638999437e+00) (59, 2.27173068546718537331e-01) (60, 1.59085037994703026865e-01) (61, 7.15001698132081697779e-01) (62, 2.45719412430901851252e+00) (63, 4.21660658413070377204e-01) (64, 5.90393945271018516507e-01) (65, 3.30259111109147740493e-01) (66, 1.88907835727874022780e+01) (67, 1.18309440061638015962e-01) (68, 1.62695406215608073808e-01) (69, 1.61218064229876195670e-01) (70, 1.24467640352600255937e+03) (71, -5.61542604532190847699e-01) (72, 9.00937901806029284302e-01) (73, 3.11574103785213774032e-01) (74, 1.98029266399855047309e-01) (75, 4.01597989467147975517e-01) (76, 1.53445563981628507744e-01) (77, 1.80593669471920437175e+00) (78, 2.76873565783257946649e-01) (79, 5.89502334256982649663e+01) (80, 1.91105310150371892064e+01) (81, 5.18119954941516198232e+02) (82, 1.18345224135618082073e+02) (83, 2.07733809176432231425e+01) (84, 2.21070516559554675062e-01) (85, 1.47032247637902486304e+02) (86, 2.84419019730201227958e+02) (87, 1.82587879771394678841e+00) (88, 4.98428596403333659670e-02) (89, 2.72741062843806048477e+02) (90, 2.28815212218712371595e-01) (91, 7.41541470899435423147e-02) (92, 5.24353417024490227050e+02) (93, 2.85843604818428957515e+02) (94, 2.21395347495395272697e-01) (95, -9.70023126810559133126e-02) (96, 3.92239968794585447398e-01) (97, 3.10899567451411229513e+00) (98, -2.65260006247279722658e+00) (99, 3.15376603741745942244e+00) (100, 2.85830584913934671931e+02) (101, 2.66431799589398832229e-01) (102, -9.13866349597882987599e-02) (103, 3.69331141301709067193e+01) (104, 8.26551277253022220748e+01) (105, 1.63752516942441417314e-01) (106, -5.46535102657237037427e-01) (107, 4.96989051504611034638e-02) (108, 9.51571266412470251339e+00) (109, 1.82266490193697699995e-01) (110, 2.46811151557970842596e-01) (111, 2.21955495758826648611e+00) (112, 2.57979831526562675137e-01) (113, 2.03965976143405725018e-01) (114, 4.18707130930726023621e+00) (115, 1.01609887330611145528e-01) (116, 5.37411919522560026508e+01) (117, 5.86632613901243438193e+00) (118, 2.07403046879373533784e+01) (119, -1.27627398197614150277e-01) (120, -1.36336169506399595974e-01) (121, 2.16327890295473695970e-01) (122, 6.67948768319902370649e+01) (123, 1.14724154537475797611e+02) (124, 9.70321504644750948421e-02) (125, 3.08302733526272447762e+01) (126, 2.67041565824789245198e+02) (127, 1.52092860629985571208e+00) (128, 8.33463690710136688722e+01) (129, 1.43761694845309928592e-01) (130, 1.89864574393573981581e+01) (131, 9.03016644381831157240e-01) (132, 2.84466557376192042739e+02) (133, 1.18940146481018842906e+02) (134, 7.74344763851339035199e+00) (135, 3.01110113533028993515e+02) (136, 8.55848210247557688035e+01) (137, 5.24334320292350639647e+02) (138, 2.96251635070271479577e+00) (139, 2.91684568601700555668e-01) (140, 3.84817649425029983945e+00) (141, 3.80403001137786089814e+00) (142, 7.55917566883090785268e+02) (143, 7.60358729748588935138e+00) (144, 1.21265788147683281295e+02) (145, 1.05134369285959830553e-01) (146, 4.58908989236111897192e-01) (147, 3.56309960784686268198e+01) (148, 4.96940825064845626002e+01) (149, 2.82122551208667582401e-01) (150, 5.04947259349262722594e+00) (151, 2.08154894567853715470e-01) (152, 5.19863122902885379517e+02) (153, 7.66931568990270456920e-02) (154, 2.19830593128768764233e-02) (155, 1.18155512652685334984e+00) (156, 2.71771669012458805259e-01) (157, 5.52769912514797123748e-01) (158, 2.26846087075793456656e-01) (159, 3.36103884763944593672e+00) (160, 3.09276523744992926090e-01) (161, 1.40881685731090129821e+02) (162, 5.57015503881834517230e-01) (163, -8.88701166783288809548e-01) (164, 1.11342140650665527568e-01) (165, 1.43654538273415454341e+02) (166, 1.59253771779836322819e-01) (167, 4.06852537142247783208e-01) (168, 1.10181766225453559027e-01) (169, 1.67548438093941459703e-01) (170, 2.86206688090710648087e-01) (171, 3.19224323575581614421e-01) (172, 9.07996715055927883231e-02) (173, 1.26661836733062721505e-01) (174, 3.48793128551193876152e-02) (175, 1.37978594521417630148e+00) (176, 2.30336569601341870084e-02) (177, 2.89397422110843791643e+01) (178, -8.20464872686851309780e-02) (179, 3.03667515448607268358e-02) (180, 2.27487277392687231581e-01) (181, 6.48380771428479008023e+00) (182, 5.15633058035521116835e+02) (183, 4.99061955372851741686e+02) (184, 4.80758331296098961882e-01) (185, 1.26161205808008901386e+02) (186, 1.27847131321184054320e-01) (187, 3.93461979433508746151e-01) (188, 4.95691431621042681854e+01) (189, -1.06139299359797517619e-01) (190, 2.84356165537050230796e+02) (191, 2.14923975359928576268e-01) (192, 1.47304203661671989645e-01) (193, -2.87283102912198806678e+00) (194, 1.72041327314007541638e+00) (195, 1.19563562103278586690e+00) (196, 1.75627972345851701697e-01) (197, 6.27464474162167218374e-01) (198, 5.23178242063761558711e+02) (199, 7.66756769828449202819e-01) (200, 3.02563051053780174282e-01) (201, 5.24155281539123961920e+02) (202, 4.26857360974663424535e-01) (203, 6.74601733019185856310e-02) (204, 1.12652261037942846844e-01) (205, 9.96530120968993315955e+00) (206, 3.19795278494912238454e-01) (207, 3.58149257898891903995e-01) (208, 2.84344202482512457664e+02) (209, 8.69750245035624658385e+00) (210, 1.15247850593377276773e+00) (211, 1.96459488094961026716e-01) (212, 2.92558459095847933629e-01) (213, 6.05725976300367506155e+02) (214, 1.40989689077925195448e-01) (215, 3.90702563051484688117e+01) (216, 6.16332709428347280678e-01) (217, 3.42998415548424973043e-01) (218, 4.59635611780645325641e-01) (219, 1.41476939563519987786e+00) (220, 1.13573756226976541939e+02) (221, 5.04251181196070348278e+01) (222, 2.84381795249984691054e+02) (223, 1.47048997742627847174e+02) (224, 5.21622254271577048712e+02) (225, 5.18687694336956828245e-01) (226, 4.08839837152787100027e-01) (227, 1.20875394569500207997e-01) (228, 1.27323457579931864636e+00) (229, 2.36869514925596114097e+00) (230, 5.04096883871858949533e+01) (231, 3.91416420336739321328e+01) (232, 4.46812892657747706693e-01) (233, 4.13259408617361212457e-01) (234, 5.52979346161935003678e-01) (235, 7.69451832784566931878e+02) (236, 8.68518259581688539583e+02) (237, 5.02118138273145397932e+00) (238, 4.16398700044897263073e-01) (239, 3.84563353668797880403e+00) (240, 3.70432886144765172176e+00) (241, 1.07798570681397933413e+02) (242, 1.98218205121488272313e-01) (243, 2.86609050334946269256e-01) (244, 3.51838839927453073120e-01) (245, 1.73563975738362324952e-01) (246, 5.24304955423352112120e+02) (247, 1.06951623052123565571e+02) (248, 6.70961170851032906448e-01) (249, 1.66444565108460118541e-01) (250, 2.90273805572111687212e-01) (251, 7.27437740457374371061e+00) (252, 4.99054656158250224962e+02) (253, 2.09607563340053069112e+01) (254, 1.09516165653463601326e-01) (255, 5.04440631730631228180e+00) (256, 2.84589152583739457558e-01) (257, 3.04198199662700208279e+00) (258, 2.58374436128399942447e-01) (259, 2.19625135214023881058e-01) (260, 2.61597862116959734013e-01) (261, 5.76886470656661121126e+00) (262, 2.01428110283247752132e-01) (263, -1.11518772606625526933e+00) (264, 1.48313837929846453756e-01) (265, 1.63880540612653802235e+00) (266, 1.17106668288921387244e+01) (267, 3.44799066770043127761e-01) (268, 3.31074980544455055309e-01) (269, 9.12255058105179428285e-02) (270, 2.73545798499665537840e-01) (271, 2.84340733952925631911e+02) (272, 1.69820182068893243965e+00) (273, 3.91968983695647255061e-01) (274, 1.27223945089830312583e+01) (275, 1.67985223735511529641e-01) (276, 1.23995750806677115796e-01) (277, 4.77462615499984579515e+01) (278, 1.93424060022310773110e-01) (279, 1.83790082146574107469e-01) (280, 2.91793640158800882123e-01) (281, 5.24374974370476593322e+02) (282, 9.15529921860984075010e+00) (283, 1.24669935212967946114e+01) (284, -5.66483522809729592162e-02) (285, 3.02813602326672259846e-01) (286, 4.86257559637144454179e-01) (287, 9.28826345109088009622e+01) (288, 1.58107926122514785838e-01) (289, 8.71415916250866673387e-01) (290, 4.83715153865272695644e-01) (291, 7.73822538656966707471e-01) (292, 5.89158942795700135697e-01) (293, 1.00222654010487151055e+01) (294, 2.63760432601684025045e-01) (295, 1.28637634162656382841e+02) (296, 2.43537151356820275039e-01) (297, 7.55208442227293630822e+02) (298, 3.08270379815545891855e-01) (299, 1.57252677755248870817e-01) (300, 6.28922061628965689550e+00) (301, 5.24208506778356422728e+02) (302, 1.81554861076470924752e-01) (303, 5.23515588271221872674e+02) (304, 1.38626230588984378223e-01) (305, 1.48342442510075361861e-01) (306, 1.58755304801437269191e+00) (307, 1.29095347333718329930e-01) (308, 3.67336249792535485259e-01) (309, 4.99152870412033450975e+02) (310, 1.75698867899284010718e+02) (311, 4.32149585705588978879e-01) (312, 2.80084836618600507840e-01) (313, 7.13201778468582486825e-02) (314, 3.54015109354747781190e-01) (315, 1.89494887986531579394e-01) (316, 2.44617263104330406875e-01) (317, 8.31968219580213053099e-02) (318, 6.40578213501624915693e-01) (319, 1.66274935370514609367e+00) (320, 1.45670629795642156523e+02) (321, 1.20502922423456240719e-01) (322, 1.45099513164268806298e-01) (323, 1.76062957296183242306e+01) (324, 8.55895504534838202915e-02) (325, 5.40510121050580671920e+00) (326, -1.52776012448756063657e-03) (327, 1.27768757634126761680e-01) (0, 3.19113218237644691300e+00) (1, 3.02966009929648283361e+00) (2, 8.60049101398305282373e+01) (3, 1.24468460869022646875e+03) (4, 4.73353691030452772281e+00) (5, 1.30150109933955326902e+00) (6, 1.01330544819478429730e+01) (7, 2.11810086592621331647e+01) (8, 6.30486592724356920137e-01) (9, 8.83484158431473360906e+01) (10, 2.07380295185093244115e+00) (11, 3.31998315927131937286e+00) (12, 6.40198897806158271351e+01) (13, 2.84240743188187138912e+02) (14, 6.61593777232573021507e+00) (15, 9.44569124911986301996e-01) (16, 2.80405230799545165610e+02) (17, 2.11103149273576455869e+01) (18, 1.06218554112952947577e+01) (19, 2.02769761818720484214e+00) (20, 2.64590945221326485637e+01) (21, 2.95087679454825391190e+00) (22, 1.01325546129199461909e+00) (23, 1.57554062329637067918e+00) (24, 8.33715398950903963105e-01) (25, 7.74926057928277032261e+01) (26, 2.20917383205059314477e+00) (27, 6.13183418880219477387e+00) (28, 2.58653504404408485229e+00) (29, 4.57108158166708644643e+00) (30, 1.98761690830021365173e+02) (31, 7.70596112548455058899e-01) (32, 4.95774738220487432017e+00) (33, 8.88487879254056700518e+00) (34, 5.01649701887035575965e+02) (35, 3.22352310687483933904e+00) (36, 6.51352637360201242700e+02) (37, 3.90793202074313805738e+00) (38, 4.21031617314554473808e+00) (39, 1.61747238779061639491e+01) (40, 4.26262003225410701646e+00) (41, 3.74010544457634864557e+02) (42, 3.03613821114253312317e+02) (43, 4.14357817122437577240e+00) (44, 1.06453572359169457151e+00) (45, 4.15457482276376577346e+00) (46, 1.88611895482186433526e+01) (47, 1.17826737584816942928e+00) (48, 4.71905191903269827236e+00) (49, 5.51507867532055371385e+01) (50, 2.41400039642116404082e+01) (51, 5.79538611962081962048e+00) (52, 7.15096730388217860508e+00) (53, 4.37631879601285511683e+00) (54, 1.30197819806387144581e+02) (55, 6.16166359341001079741e+00) (56, 2.84127949575074239874e+02) (57, 1.10311181450313107177e+01) (58, 1.67943944404135194759e+01) (59, 2.86704136388934571755e+00) (60, 2.11764327733352386574e+00) (61, 1.11198461940845678697e+01) (62, 1.11468501941534849919e+01) (63, 1.76824502130387739562e+00) (64, 2.59751519464465729925e+00) (65, 2.47177448285080547663e+00) (66, 4.59195045557752479226e+01) (67, 5.98147636686738093381e-01) (68, 8.72789097033545901994e-01) (69, 3.65377124768401806421e+00) (70, 1.24483266444110313387e+03) (71, 1.52354189137042528301e+01) (72, 1.33879740747323672245e+00) (73, 1.27647914628148617666e+00) (74, 2.57140425336409528256e+00) (75, 2.40605929806322693665e+00) (76, 1.08505669717369102045e+00) (77, 4.85805787830191277976e+01) (78, 3.81845725214228481903e+00) (79, 1.42665279326067462762e+02) (80, 4.67603950684473801402e+01) (81, 1.17804499163462850220e+02) (82, 2.84842621532691566699e+02) (83, 1.24475713177376428575e+03) (84, 2.04655397211871781238e+00) (85, 3.53734409835967483104e+02) (86, 2.85726735546452800918e+02) (87, 2.75972242377150900339e-01) (88, 2.08504574861113889384e+00) (89, 1.12442890089039678969e+02) (90, 3.29542555784630586402e+00) (91, -7.81365388154899420670e-01) (92, 5.83011289649325817663e+02) (93, 3.33292303638162010770e+01) (94, 3.50420772004539049505e+00) (95, -2.25263644224151488027e-01) (96, 1.64377667563557805508e+00) (97, 5.41715069159596822601e+01) (98, -1.51072871798168084645e+00) (99, 5.94369291895721744368e+02) (100, 5.54208140241094895373e+01) (101, 3.77789249003098648316e+00) (102, 3.79226426971816454881e+00) (103, 7.54072967905823219326e+01) (104, 1.99360722799281091966e+02) (105, 1.00019545847681667894e+00) (106, -4.88798126279190725541e+00) (107, 5.38953989780331932380e-01) (108, 1.24145839649504807767e+02) (109, 8.50648911881593861040e-01) (110, 1.10648392024569830472e-01) (111, 1.26291126944259541887e+01) (112, 8.62711002067996890474e-01) (113, 3.44764381717406820371e+00) (114, 6.05161726084545080084e+02) (115, 8.95512110568233765662e-01) (116, 1.35438456634743971563e+02) (117, 2.31333499855734103789e+00) (118, 1.19873389064073506916e+02) (119, 2.28484441681560124238e+00) (120, 8.87736716598454544958e-01) (121, 4.05995010076212725636e+00) (122, 3.85764906210919093610e+02) (123, 2.76083336479634283478e+02) (124, 1.04335459702406962990e+00) (125, 3.04376055001238853492e+02) (126, 4.83306422297335075200e+02) (127, 7.84548789093702314545e+00) (128, 3.40785130913884415804e+02) (129, 1.72089221595190644543e+00) (130, 4.61325387182821629040e+01) (131, 8.49096784697484707749e+00) (132, 7.65253540776157933578e+02) (133, 5.02040156337473604253e+02) (134, 1.55119854804861638797e+01) (135, 5.65352336939598217214e+02) (136, 2.05952754450863864122e+02) (137, 1.00211268537568935244e+03) (138, 1.55662694658296918426e+00) (139, 1.14311328925715005589e+00) (140, 5.33896152343796970285e+00) (141, 8.97371903904826018206e-01) (142, 2.82497271499865746591e+02) (143, 1.00196598035299246021e+03) (144, 2.91678992425787441789e+02) (145, 9.31212723681883458582e-01) (146, 5.97020775355256372308e+00) (147, 3.27599052906613366076e+01) (148, 9.03917724882722417590e+00) (149, 7.90915307235488906912e+00) (150, 4.33554609320578343556e+00) (151, 1.15360455566736685995e+00) (152, 1.17484673791341094784e+02) (153, 7.39757094373553414357e-01) (154, 3.32547533444088116994e+00) (155, 8.74153264497494753016e-01) (156, 4.22975758727395589887e+00) (157, 3.00999027299981580796e+00) (158, 8.50843086784159208236e-01) (159, 2.55021875543697085220e+00) (160, 7.01829356257093817106e+00) (161, 6.52860025900367645590e+02) (162, 2.59712829437774717078e+00) (163, 7.00149378371203834348e-01) (164, 9.24107067849477492594e-01) (165, 2.79652507610837972152e+02) (166, 7.46159762865085007810e-01) (167, -2.60946006792329976420e+00) (168, 7.31345293643070615275e+00) (169, 1.01518768693384009438e+00) (170, 1.28281232262914879350e+00) (171, 1.41329018515588833438e+00) (172, 1.04120738919623034846e+00) (173, 1.11640295948035994655e+00) (174, 1.39570647512672563195e+00) (175, 2.19885181074147766367e+01) (176, 7.20207566378316843547e-01) (177, 3.30626008407463530148e+02) (178, 4.96221007099615629699e+00) (179, 1.75206341239105523044e+00) (180, 3.99521322690090929797e+00) (181, 2.57549392101250829157e+00) (182, 4.98511232847622096642e+01) (183, 7.40305842801416474686e+02) (184, 1.46205331598255305892e+00) (185, 3.03607567197369348833e+02) (186, 3.63830867849783379242e+00) (187, 7.98367076072233938788e+00) (188, 1.19931074364781323993e+02) (189, 3.36303448888680200923e+00) (190, 6.74206562539904211917e+02) (191, 9.22173752296603477241e-01) (192, 4.00895659927397307598e+00) (193, 1.20660852148704691444e+01) (194, 2.63497250711744879226e+00) (195, 1.96033550957857841013e+02) (196, 2.88119882638066791003e+01) (197, 1.40469822093580298805e+00) (198, 1.18957020525555719814e+02) (199, 1.07823148945266256149e+00) (200, 5.51702270409776929228e+00) (201, 7.65297159485006886825e+02) (202, 2.25871872505297410783e+00) (203, 1.00913866786117378815e+00) (204, 1.10201055726269769863e+00) (205, 2.77404649023666527441e+00) (206, 1.65262839803733374566e+00) (207, 1.64297777195587668686e+00) (208, 7.61410811638801305890e+02) (209, 1.19896143725812379444e+02) (210, 4.61381393563507273825e+01) (211, 3.24639062393369703940e+00) (212, 9.70255724697986998706e+00) (213, 2.74421698133259155838e+02) (214, 9.23588512607300460289e-01) (215, 9.40462495267446740854e+01) (216, 1.55842673262925357491e+00) (217, 1.69226414084627907464e+00) (218, 4.92579692695704718375e+00) (219, 1.29217729654683255447e+00) (220, 2.73159395755064565492e+02) (221, 1.27265698212259081856e+02) (222, 3.10279005552210151109e+02) (223, 3.53875191216203631939e+02) (224, 2.10752079111244867704e+01) (225, 2.84343064741188289446e+00) (226, 2.54410974330716976866e+00) (227, 4.03946569129191068726e+00) (228, 1.57369943338166056179e+01) (229, 2.15110748253308958766e+00) (230, 8.75843399303508896026e+00) (231, 8.66816384867790020508e+02) (232, 1.08254062052029320640e+00) (233, 2.10900309853077772004e+00) (234, 2.01828118762604091785e+00) (235, 1.19608840951584738832e+02) (236, 3.81891721791465215574e+02) (237, 4.77283722945543971150e+01) (238, 1.07341696971064459731e+00) (239, 1.30253634449081747704e+01) (240, 2.91428519892114536560e+02) (241, 2.05549438089170806165e+01) (242, 1.03194930997676026507e+00) (243, 1.01395714020362825991e+00) (244, 1.60664048152086080812e+00) (245, 1.25294605074389076016e+00) (246, 5.24637767281506057770e+02) (247, 7.41795804753267361775e+02) (248, 5.87466061958316831948e+00) (249, 3.73611160720575830041e+00) (250, 3.67072999729997384577e+00) (251, 1.17251907844655391955e+01) (252, 7.40191948614502507553e+02) (253, 2.57900597235600400836e+02) (254, 1.11373610059006211692e+00) (255, 1.17200456805488339995e+00) (256, 1.04574352646305523962e+00) (257, 7.78158453741142608351e+00) (258, 3.53735539130656917450e+00) (259, 1.05133710646508937714e+00) (260, 9.66034340787435330533e-01) (261, 2.64656834921466028732e+01) (262, 3.93243099765417447600e+00) (263, -6.16497104768830350707e-01) (264, 3.18597904375210516648e+00) (265, 6.99464180753135792656e+02) (266, 6.76201206171918727250e+01) (267, 5.11256681269361035191e+00) (268, 2.08988649591662967175e-01) (269, 3.82120997900144354631e+00) (270, 9.93311062284126355948e-01) (271, 7.64924632646112286238e+02) (272, 1.17534861912749448720e+02) (273, 2.06863049480251603995e+00) (274, 7.45065709891411756871e+02) (275, 5.07793540782849195381e+00) (276, 2.07235837145436585516e+00) (277, 1.15508972713236417462e+02) (278, 1.71297705053096760430e+00) (279, 3.82920144179101207271e+00) (280, 8.97482953906456937254e-01) (281, 7.62325639062086111153e+02) (282, 4.28408207261367195429e+01) (283, 6.94223260280905492436e+02) (284, 8.70909584841419448509e-01) (285, 4.13242760238338835421e+00) (286, 5.58677056314614062238e-01) (287, 2.23638099499406990844e+02) (288, 1.55259558683819309799e+00) (289, 1.89551410938743707391e+01) (290, 1.42025689986000802634e+01) (291, 1.27444530261290598361e+01) (292, 9.25806674688510433668e+00) (293, 2.95727867740322629686e+01) (294, 3.42478461554859103799e+00) (295, 3.09384468372661558533e+02) (296, 1.61786053680558272738e+00) (297, 5.21845726675647938464e+02) (298, 1.08224886034762191045e+00) (299, -2.89571225966511924810e+00) (300, 1.64124449073583882353e+01) (301, 5.24983112452068098719e+02) (302, 5.44882631099089032034e+00) (303, 5.23861403066872640011e+02) (304, 9.97441021786330761500e-01) (305, 1.21404440621213693952e+00) (306, 6.12907045528196405826e+01) (307, 8.64678678316530224812e-01) (308, 9.13991620917662395129e-01) (309, 7.40242261386895734177e+02) (310, 1.77120156510839677821e+02) (311, 2.42901846047983216437e+00) (312, 3.60261116983229801036e+00) (313, 1.65440084197861159154e+00) (314, 1.24825504915005880413e+00) (315, 1.33416426610580884926e+00) (316, 1.44193481706734516479e+00) (317, 2.01428825758780893906e+00) (318, 8.80346270954000531539e-01) (319, 1.41171456302181930198e+01) (320, 3.50324025568786851181e+02) (321, 9.57883579163641418752e-01) (322, 9.52992449320301027171e-01) (323, 4.28249725413009016961e+01) (324, 3.67815674356130362099e+00) (325, 1.28272988457598957623e+00) (326, 8.79182173179285153530e-01) (327, -5.68371846168345129513e-01) (0, 7.41819328877263739486e+00) (1, 1.56473909795714209992e+01) (2, 4.81138086915122244136e+02) (3, 1.24466159741931596727e+03) (4, 7.97799745839466112329e+00) (5, 4.90646073201590215973e+00) (6, 2.61399215790596795017e+00) (7, 2.83905665466283210208e+02) (8, 1.10084364412227064811e+00) (9, 2.12408669538821129663e+02) (10, 2.04774955137306147179e+00) (11, 1.24705099753784356409e+01) (12, 1.53005514139155962994e+02) (13, 5.23148341741645936054e+02) (14, 1.49382860380519577603e+01) (15, 1.63852091626373685962e+00) (16, 5.14250162773442298203e+02) (17, 8.85956388905423253277e+00) (18, 1.33042641242715859562e+02) (19, 1.80213344315021917197e+00) (20, 6.28704349303391865078e+01) (21, -3.85170108457627113907e-01) (22, 2.59100177133918929684e+00) (23, 6.32068915885092685869e+00) (24, 1.83964381315649183612e+00) (25, 2.94504399140671125679e+02) (26, 4.25852197053473346955e+00) (27, 3.56196309647381337271e+00) (28, 6.00276422975367562884e+00) (29, 3.87061186649851274311e+00) (30, 4.68344021894421587149e+02) (31, 1.40599630472697256778e+00) (32, 1.31165532758104697031e+00) (33, 2.43799593507909229118e+00) (34, 9.95593088045551212417e+02) (35, 2.01301993134887080572e+00) (36, 9.34986945347263940675e+02) (37, 5.38641472953924260736e+00) (38, 1.75269062618557924793e+00) (39, 3.79810767752663025476e+01) (40, 3.46911579821269855373e+00) (41, 7.23121701239137223638e+02) (42, 4.23368044496166874069e+02) (43, 2.21946917543644879345e+01) (44, 2.12296325843214761520e+00) (45, 1.01108476126061450628e+01) (46, 4.56963636476023395971e+01) (47, 2.29388466644862454302e+00) (48, 1.64897918582365861084e+01) (49, 3.15934787181747253726e+02) (50, 5.70451579341012759983e+01) (51, 1.14580701246741933907e+00) (52, 3.72378095708718248602e+01) (53, 2.52780349064126497183e+00) (54, 9.17207641338785379048e+02) (55, 1.09551777811566193321e+01) (56, 5.22624038636747400233e+02) (57, 6.09045257849657275528e+01) (58, 1.99010988470059437816e+01) (59, 1.14456227721973546885e+00) (60, 2.31105358154941908921e+00) (61, 1.70098602524410438264e+01) (62, 1.50310250426937290769e+01) (63, 4.06606110040730506228e+00) (64, 2.05597933311605940432e+00) (65, 5.38857557520153740427e+00) (66, 1.10465820106535474565e+02) (67, 1.57939408946969805925e+00) (68, 2.81007153647431584531e+00) (69, 1.29674967071360658366e+00) (70, 1.24482000283502975435e+03) (71, -6.91585384089318466749e-01) (72, 2.71018817316047799792e+00) (73, 3.06849861518684630113e+00) (74, 1.00192523820910555088e+01) (75, 5.44132919684650140368e+00) (76, 2.05216955991621086142e+00) (77, 2.10479395958165902414e+01) (78, 1.54999624915902556310e+00) (79, 6.26865638380715608946e+02) (80, 1.11767651916191681494e+02) (81, 2.81903566486090483068e+02) (82, 5.24842209161499795300e+02) (83, 1.00580093971984183554e+03) (84, 4.60679249032757365256e+00) (85, 6.83296504381453360111e+02) (86, 1.00913465677111662444e+03) (87, 1.66139164462100126229e+01) (88, 1.41269710219306809940e+00) (89, 4.85641664111985960517e+02) (90, 1.19058649930236915004e+00) (91, -3.10114409625090559075e+00) (92, 5.90131998519324952213e+02) (93, 7.76582382868969716583e+02) (94, 1.16274370530294879345e+00) (95, -4.11865231301535583697e+00) (96, 4.52201462668477027762e+00) (97, 1.29340146552701071414e+02) (98, -4.46409204602820700036e-02) (99, 2.48607800443521824718e+02) (100, 5.98309670878840961450e+02) (101, 2.53715026259704501399e+00) (102, 3.85306289787212730147e+00) (103, 1.39740206761248600742e+02) (104, 4.69858449308151421064e+02) (105, 2.01378112451886037704e+00) (106, -3.10419517989140736347e+00) (107, 3.01092589953861766716e+00) (108, 1.31557798624376204089e+02) (109, 2.01761830897984362210e+00) (110, 5.60250516400888454172e+00) (111, 3.04888767548967152266e+01) (112, 6.61686146568726152317e-01) (113, 1.61501451502062165488e+00) (114, 6.05346358512535516638e+02) (115, 2.68910166215711621263e+00) (116, 3.10011084144341111823e+02) (117, 4.68424263581921795918e+00) (118, 2.86504205778136849858e+02) (119, 5.43687968018772949108e-01) (120, 2.64921508222621149287e+00) (121, 2.45208181458010621157e+00) (122, 6.21508332104618375524e+02) (123, 5.45091589847049021955e+02) (124, 3.07093918348521244255e+00) (125, 3.55397399125684330556e+02) (126, 6.66382534034489594887e+02) (127, 1.26820209296781740704e+01) (128, 6.19532817871765359996e+02) (129, 7.02108638589103772887e+00) (130, 1.10433883490829984453e+02) (131, 7.02921854833501136284e+00) (132, 1.24472966565542856188e+03) (133, 9.95702040545477302658e+02) (134, 6.01266385313969564663e+01) (135, 8.62710430442522692829e+02) (136, 4.28899966101649738448e+02) (137, 1.00679224027193026814e+03) (138, 3.16346223748166055501e+00) (139, 2.30038841934787985366e+00) (140, 1.18159775732649947599e+01) (141, 1.26386013295988486327e+00) (142, 5.19632777543435281586e+02) (143, 1.00193493729286853977e+03) (144, 5.41572894987972176750e+02) (145, 1.76881024773990946919e+00) (146, 9.03773733501160769777e+00) (147, 8.17249514910117795807e+01) (148, 1.12613037733098025228e+02) (149, 3.74306901123698443357e+00) (150, 6.95371885367338293804e+00) (151, 1.93954666632541483651e+00) (152, 5.15251218885387743285e+02) (153, 1.59493479248269753867e+00) (154, 9.91661376289093898784e-01) (155, 1.14674270002134903734e+00) (156, 1.60179257305181854676e+00) (157, 6.14838468081476197113e+00) (158, 2.76059132647852312203e+00) (159, 1.53907812098110863275e+00) (160, 7.04794517040822476872e+00) (161, 1.17903138323330358617e+03) (162, 4.16198125746443903239e+00) (163, 9.31753546030942736422e-01) (164, 2.92424568566628728661e+00) (165, 6.70727915739799755102e+02) (166, 3.89443269960175586508e-01) (167, -5.70797553121467018400e+01) (168, -1.46843958677065389296e+00) (169, 2.19535499457204830165e+00) (170, 2.84043380893195740455e+00) (171, 1.21583794383969645558e+00) (172, 3.40477264260450285249e+00) (173, 3.68827610183204690486e+00) (174, 3.94286508921047706977e+00) (175, 2.12353375213086863482e+01) (176, 1.50321791419190509131e+00) (177, 6.34632863035683840280e+02) (178, 1.18109631415895766082e+00) (179, 1.33307700239244137919e+01) (180, 3.36040894126655498297e+00) (181, 1.96413822602271048723e+00) (182, 2.84249063190716753979e+02) (183, 1.21973150144123474092e+03) (184, 2.01715991112305781385e+00) (185, 5.70231705231061482664e+02) (186, 1.03876454642906645986e+00) (187, 5.02863273283033862526e+00) (188, 2.86745066069497283934e+02) (189, 8.22620579579838362427e-01) (190, 1.21980464467012325258e+03) (191, 3.29420292486302246360e+00) (192, 2.19738344599711066252e+00) (193, 8.78722373400159995072e+00) (194, 5.74379544271589548288e+00) (195, 1.96172398748516314981e+02) (196, 5.31375921768296066716e+00) (197, 6.98588164839805969564e+00) (198, 7.58162851943355690310e+02) (199, 2.30959912591727611897e+00) (200, 8.55746646904948349288e+00) (201, 1.24464749510937372179e+03) (202, 5.02929529943743069964e+00) (203, 7.01442315749076961140e+00) (204, 4.33246420423057809757e+00) (205, 1.19700031366234131980e+01) (206, 1.51770794708804288575e+01) (207, 3.01420678066513536564e+00) (208, 1.00910994592218912658e+03) (209, 2.86761535071267303465e+02) (210, 2.01339976994559712864e+01) (211, 1.77145021458778018086e+00) (212, 6.87085474184815492293e+00) (213, 4.99910093387905817508e+02) (214, 1.79553368035784433054e+00) (215, 2.25256450519316587133e+02) (216, 5.66849165596080606377e+00) (217, 5.81088202965601485772e+00) (218, 1.14325182676597538745e+01) (219, 8.26605141231116391509e+00) (220, 4.97007699521993686176e+02) (221, 5.26868513062142483250e+02) (222, 1.00916209769158876952e+03) (223, 6.83327867525970304996e+02) (224, 2.81135567717704986990e+02) (225, 2.07851374208756922712e+00) (226, 2.42314826346450651329e+00) (227, 1.41659894573111388993e+00) (228, 8.49869949505424528979e+01) (229, 1.02619566615560078304e+01) (230, 4.65470935602525770491e+01) (231, 5.48583539616178768483e+02) (232, 2.17295895606324274141e+00) (233, 2.00334401599884825984e+00) (234, 4.37442592773013849694e+00) (235, 2.86201620844603951355e+02) (236, 6.64152509227380846824e+02) (237, 2.85508982030117905992e+01) (238, 1.89682267809603777309e+00) (239, 9.36296608663962537378e+00) (240, 2.91395478787440197266e+02) (241, 1.14040855642604526565e+02) (242, 2.11187159433751192594e+00) (243, 2.10688777226874091042e+00) (244, 4.05655967490025659572e+00) (245, 2.94350824471439365126e+00) (246, 1.00905627079963005599e+03) (247, 5.00698120133093823370e+02) (248, 1.39535578392393784242e+01) (249, 3.49099848265673085024e+00) (250, 1.54644390226163941371e+00) (251, 1.15498283625552424780e+01) (252, 1.21973076263421216936e+03) (253, 5.01387859849190817840e+02) (254, 2.21900589922682067723e+00) (255, 2.83270583301573886104e+00) (256, 1.82749507664915666894e+00) (257, 3.28350562515596422486e+00) (258, 2.44217486923044591052e+00) (259, 2.24592973941200613197e+00) (260, 1.86535926627301962277e+00) (261, 1.73335428276845142648e+01) (262, 3.35529045953630600252e+00) (263, -7.01693073545304901728e+00) (264, 6.64758317513586272085e-01) (265, 4.47867179904780130073e+02) (266, 1.61913413050826818562e+02) (267, 8.54973984282373677956e+00) (268, 6.93692621042465873415e+00) (269, 1.18524787346304760760e+00) (270, 2.22447884140976626099e+00) (271, 1.24468176505693236322e+03) (272, 5.13537106862865186940e+01) (273, 4.15651842211084598944e+00) (274, 4.21535655559845167772e+02) (275, 2.77826627613966126162e+00) (276, 3.81393263058879528060e+00) (277, 5.44544738287459495041e+02) (278, 3.59156928005823949945e+00) (279, 3.52903544670271962502e+00) (280, 1.89352355725462540015e+00) (281, 5.26780435026453801584e+02) (282, 6.06651604403633584184e+01) (283, 6.94141530101416833531e+02) (284, 2.92037611929970930547e+00) (285, 5.48481379608108632340e+00) (286, 7.88991023974374439121e+00) (287, 4.86900939167409148922e+02) (288, 3.69330756703582352429e+00) (289, 4.55873457464797695593e+01) (290, 6.38627415234805351218e+00) (291, 6.29112216817058467200e+00) (292, 1.62844618777295480072e+01) (293, 6.26699768803972201425e+00) (294, 2.55608482667025427304e+00) (295, 5.83950225903367709179e+02) (296, 3.50343583227240307210e+00) (297, 9.88819593810586411564e+02) (298, 2.87425562145168145278e+00) (299, 1.26756657535682926152e+00) (300, 3.88211183554323966405e+01) (301, 1.24466838470452466936e+03) (302, 1.87034352435802464498e+00) (303, 1.00388890152034639414e+03) (304, 3.12776700354332204412e+00) (305, 2.64599139689238338491e+00) (306, 1.10967259740582932181e+02) (307, 2.64022852325434609355e+00) (308, 2.04493780558003779291e+00) (309, 1.21969926143788734407e+03) (310, 6.32551599281103108297e+02) (311, 4.15421706138700219668e+00) (312, 1.21725627947706360743e+00) (313, 2.46352541265318913943e+00) (314, 2.21927216190105491833e+00) (315, 3.93822957417768959587e+00) (316, 3.15671914340269754717e+00) (317, 1.68655336485086149168e+00) (318, 1.39468137500930278172e+00) (319, 1.27115610363323412457e+01) (320, 6.82693777453736402094e+02) (321, 2.00269654116616147022e+00) (322, 1.78649978937679043689e+00) (323, 1.03080699924385569943e+02) (324, 1.19559386330627237527e+00) (325, 7.62675641635444812039e+00) (326, 5.51804059750862840872e+00) (327, -1.33919943650530171020e+00) (0, 1.52494357113119122227e-01) (1, 2.93756224664051324158e-01) (2, 1.49684520115863595180e+01) (3, 1.24470736335569063158e+03) (4, 1.03539134533265395066e-01) (5, 2.68334396683870712863e-01) (6, 2.81445383565769369216e-01) (7, 2.86026765668619987082e+02) (8, 2.92209117829679232425e-01) (9, 8.74984518931701700240e+01) (10, 2.54134093218705947592e-01) (11, 1.87489083244042253895e+00) (12, 2.64992240588710288307e+01) (13, 5.25659700552721233180e+02) (14, 1.10669683313088174081e+00) (15, 8.30874850271467124685e-01) (16, 9.36244565073826890966e+01) (17, 1.30550658831322330400e+00) (18, 1.35869556195019072220e+02) (19, 8.77928754398259014735e-01) (20, 4.67698731861636929352e+00) (21, 1.87363706314235756167e+01) (22, 3.69277633531223004049e-01) (23, 4.06078881293581717138e-01) (24, 1.89025196859294780660e-01) (25, 2.58540793395992977821e+02) (26, 5.27130111398623424357e-01) (27, 2.74851048288903609951e-01) (28, 3.35264597293702601433e-02) (29, 1.89375465759127425969e+00) (30, 8.19419672730923309700e+01) (31, -2.45926524228196274890e-01) (32, 4.33576083684629587367e+00) (33, 3.36382732092601788310e+00) (34, 2.57143920127550984489e+02) (35, 1.67658359915163729381e-01) (36, 3.37003199315586357443e+02) (37, 2.84426003269272476004e-01) (38, 4.04147831152109482389e+00) (39, 6.42153635295838398633e+00) (40, 2.60771126630532923407e-01) (41, 6.46381609853103498153e+01) (42, 7.30526924769355190392e+01) (43, 3.53904811294560861512e-01) (44, 1.63651955946629706906e-01) (45, 5.78486432648709691939e-01) (46, 5.65202737228032936478e-01) (47, 3.77777835992553712163e-01) (48, 1.74120090202970700943e+01) (49, 2.27597874774560082756e+01) (50, 4.71746230339993477543e+00) (51, 2.18781328825136878180e+00) (52, 1.69779087721978321213e+01) (53, 2.63280822053862006982e+00) (54, 5.15526023474416206227e+01) (55, 4.30011536358790458223e+00) (56, 2.82963415242428652618e+02) (57, 1.94264755639963770939e+00) (58, 3.71840178467591364608e+00) (59, 1.22951400360946938584e+00) (60, 1.76742456659837676725e-01) (61, 2.33626847735757731117e-01) (62, 1.12123048698620553232e+00) (63, 6.83815179832329977927e-01) (64, 2.20515458370196815174e-01) (65, 4.34421629985062285328e-01) (66, 3.62064739532928747678e+00) (67, 1.58982152906354423649e-01) (68, 1.66605335202961252206e-01) (69, 3.97481101056876506838e-01) (70, 1.24478233185016551943e+03) (71, 4.84576006170046591492e-01) (72, 3.52652390526344727828e-01) (73, 2.15054307213031625778e+00) (74, 3.90987598742818687203e-01) (75, 4.52692764112133161358e-01) (76, 2.37538666145040350264e-01) (77, 2.93604574321464673048e+00) (78, 2.76905781994066624296e-01) (79, 1.41780385754125603626e+02) (80, 1.91426548973606927007e+01) (81, 5.18026078274195469930e+02) (82, 1.14721587002027916924e+02) (83, 2.84439006706483610287e+02) (84, 2.91009142920680141664e-01) (85, 1.46915341916739720318e+02) (86, 1.17627039460593863396e+02) (87, 3.29869744757801050539e-02) (88, 7.34179347559785200339e-01) (89, 2.70210725233861523975e+02) (90, 6.78479391126056818884e-01) (91, 3.87481479234251080523e-01) (92, 3.05861413361017810075e+02) (93, 1.84571915149430850533e+02) (94, 4.48953832418949927430e-01) (95, -1.22566216518072743091e-01) (96, 1.98653018478797660507e+00) (97, 2.21284645911946853403e+01) (98, -9.01230957966542151061e-02) (99, 4.21234262681615874158e+01) (100, 1.28115939572219133424e+02) (101, 3.77573630280824468208e-01) (102, 4.40747938958441096702e+01) (103, 7.43586967388372670484e+01) (104, 8.25310129490137427410e+01) (105, 1.72234404724220496741e-01) (106, -8.89043978177569527155e-01) (107, 2.93065838330371142284e-01) (108, 1.19109866497538348540e+02) (109, 4.54005045941593909919e-01) (110, 5.95683420372350114214e-01) (111, 5.06120049302164876082e+00) (112, 7.27622427200473986808e-01) (113, 6.21734007561677515241e-01) (114, 2.23722600199067045423e+01) (115, 3.18195280181966910771e-01) (116, 1.34651550628945415156e+02) (117, 6.11251363329110120048e+00) (118, 2.19487051417304499523e+01) (119, 1.71863870025529585917e+00) (120, 2.14491112896094238138e-01) (121, 1.28469258580064166209e-01) (122, 1.60400906112726801211e+02) (123, 1.14504723872663291218e+02) (124, 2.61344557847410896567e-01) (125, 6.16122513745097819537e+01) (126, 4.82603464076735178878e+02) (127, 8.58978390498184118940e+00) (128, 1.41662280397385330843e+02) (129, 3.22654643059557488805e-01) (130, 1.74020719960045937569e+01) (131, 2.79395174710968308140e-01) (132, 7.63661643034731696389e+02) (133, 2.57056305956344033348e+02) (134, 2.60003223397882310408e+00) (135, 5.64265416830759136246e+02) (136, 1.90785558451534456026e+02) (137, 7.61326474201729752167e+02) (138, 2.07682042370581054769e+00) (139, 1.33713608088557101006e+00) (140, 6.41950880178782412600e+00) (141, 3.76076997347884356415e+00) (142, 5.22080439403836408019e+02) (143, 1.01134443038734417541e+02) (144, 1.21196662320281404845e+02) (145, 1.73687601092980176132e-01) (146, 3.80965403497851795578e+00) (147, 7.18950490510612780781e+01) (148, 3.75499556918591537169e+01) (149, 4.00055122700933907254e-01) (150, 7.41979287196904535584e-01) (151, 1.75187599341479816051e-01) (152, 2.35947858545259038010e+02) (153, 2.01222054686988865990e-01) (154, 1.79364504320040971663e+01) (155, 5.62374667385534654507e-01) (156, 2.53744971904083793657e-01) (157, 3.00732351024683652874e-01) (158, 2.00355655485395522941e-01) (159, 3.93206320024311328787e-01) (160, 1.08463412071650736057e-01) (161, 3.37383206416189295851e+02) (162, 3.36636207946830190441e-01) (163, -5.16083882427339712962e-01) (164, 1.77637818847767303687e-01) (165, 1.42977836597709540456e+02) (166, 3.46766528063434720242e-01) (167, -3.54168071110806392809e-02) (168, 1.41066547452868173984e+00) (169, 5.17890822543880857687e-01) (170, 2.47340144673174472389e-01) (171, 6.62572082497507208743e-01) (172, 4.35825996301827334189e-01) (173, 3.73261861959372776010e-01) (174, 2.13015922973452342948e-01) (175, 2.77502316317004904533e+00) (176, -1.37740182431660446172e-01) (177, 1.37399197183950832368e+02) (178, 3.63465413906655276932e+00) (179, 2.44176933892117337122e-01) (180, 4.20635523440084924118e-01) (181, 2.78680446406883219890e-01) (182, 1.17184780420086298136e+02) (183, 7.38827231406187365792e+02) (184, 1.63187327950441773972e-01) (185, 1.25480396325471417640e+02) (186, 3.85680448377520301850e-01) (187, 1.97517097514415068682e-01) (188, 2.37191396090801731589e+01) (189, 1.37400227596737938285e+01) (190, 1.59725004900960300347e+02) (191, 3.05132788752474404248e-01) (192, 5.66260537656202295187e-02) (193, 1.99750710276423859568e+01) (194, 1.67102376924383899670e+00) (195, 1.08004282123014778705e+01) (196, 1.32521018973487358927e+00) (197, 3.31839642460445727323e-01) (198, 5.23252024150133934199e+02) (199, 8.22351884655605047669e-01) (200, 5.13816116624738583596e-01) (201, 7.63757304630195449135e+02) (202, 2.83165959440843773010e-01) (203, 2.36567473080811774278e-01) (204, 1.14484698913573559875e-01) (205, 6.36030945137850745041e-01) (206, 3.14563136098486156866e-02) (207, 4.05837811944873783077e-01) (208, 5.22327999791982165334e+02) (209, 2.05453541894505988807e+01) (210, 2.78428466648284755891e+00) (211, 1.53020012776616685102e+01) (212, 4.70631715739952216637e-01) (213, 7.05107597462170360814e+02) (214, 3.16164580828164398785e-01) (215, 3.83953870464781772398e+01) (216, 2.41248773456862863895e+00) (217, 4.03674695062988420080e-01) (218, 6.67623457067968884004e-01) (219, 1.89170271487927615928e-01) (220, 1.13528029868086008491e+02) (221, 5.22934919051241280386e+01) (222, 3.07952174976656749550e+02) (223, 1.46899182836770791027e+02) (224, 5.42679512443888114603e+01) (225, 1.13514504397066923191e-01) (226, 2.70689546997151087027e-01) (227, 1.24365665596353780487e+00) (228, 7.52792127489325491041e+00) (229, 2.25738651558984593226e-01) (230, 4.87770105352886957917e+01) (231, 1.00546937766440510131e+03) (232, 3.57903259615578561714e-01) (233, 2.13978865844875298929e-01) (234, 7.91499908327083501192e-01) (235, 5.27126457796540989875e+02) (236, 3.82858495659272591638e+02) (237, 1.24483203894996086092e+03) (238, 2.93248221997702174235e-01) (239, 5.17780697411133594699e+00) (240, 2.04549527235185095719e+01) (241, 6.41896690869781991751e+01) (242, 3.16908386998187963091e-01) (243, 2.23594059846064535657e-01) (244, 2.84642663827650077568e-01) (245, 4.53787788315411166895e-01) (246, 2.82939194165351239008e+02) (247, 4.98900775936213392470e+02) (248, 7.37031015534260758315e-01) (249, 1.07507850657490217072e-01) (250, 2.79097508477672395788e-01) (251, 4.55421920167547700231e+00) (252, 7.38767664282535861275e+02) (253, 4.50492621607647336646e+01) (254, 2.41351471733275591003e-01) (255, 2.22054553794780318299e+00) (256, 9.26618087278616830993e-01) (257, 2.99448245732306828071e-01) (258, 2.70868790982723983696e-01) (259, 1.44417573751377259494e-01) (260, 3.30960866739968051498e-01) (261, 3.87743891824519792966e-01) (262, 2.49199126727807723780e-01) (263, -4.10125665805003078446e-02) (264, 9.10053261857460160655e-01) (265, 8.06445181498235115214e+01) (266, 1.17102755337627275622e+01) (267, 2.77945370638213395953e-01) (268, 1.48392954454937742170e+00) (269, 5.03849731797985533888e-01) (270, 2.26128792001865114303e-01) (271, 5.23619272435691982537e+02) (272, 2.09029511061800548077e+01) (273, 2.37502160165454556662e-01) (274, 7.25225307241495613653e+01) (275, 8.37102623914808940953e-01) (276, 3.91671184704485531025e-01) (277, 1.13887680530783356403e+02) (278, 1.87604022989094426643e-01) (279, 5.22734127700679104822e-02) (280, 2.59191000388432013501e-01) (281, 2.90010045349140114013e+02) (282, 3.91481772272370207588e+01) (283, 7.03475874129542688706e+01) (284, 1.25255114035409231832e-01) (285, 4.01101073073174663186e-01) (286, 9.91343173745356104343e-02) (287, 3.86910626332342673095e+01) (288, 3.98401769834942021120e-01) (289, 1.78091492908888260338e+00) (290, 1.94008000524620027871e-01) (291, 4.07279113685453442173e+00) (292, 1.61551119985909963361e+00) (293, 9.84712109371127630730e-01) (294, 3.68140179337488659961e-01) (295, 6.30328019015675806713e+01) (296, 3.46886966201833235601e-01) (297, 2.82960396617294179578e+02) (298, 5.13797859264836898063e-01) (299, 1.85904760071274072208e-01) (300, 1.20156473253509532562e+00) (301, 5.39932362317083516245e+02) (302, 5.50596677636799980426e-01) (303, 7.54384232538777837362e+02) (304, 2.08838264801596756870e-01) (305, 3.35168924510683086115e-01) (306, 3.57984571137967222398e+00) (307, 1.82540655326538625580e-01) (308, 3.82445842144564951415e-01) (309, 7.38847922309254954598e+02) (310, 3.97932354256624989830e+02) (311, 6.36845859942755443406e-01) (312, 2.02971517297762304999e-01) (313, 1.62628867647058555912e-01) (314, 2.13563674721197693795e-01) (315, 7.88461283567050141841e-01) (316, 2.10747585082360994191e-01) (317, 5.99712398219966247304e-01) (318, 3.24981632118038155088e-01) (319, 8.52147792829298111883e+00) (320, 6.08438454984977710183e+01) (321, 2.30374712279282939376e-01) (322, 2.28590516290330336702e-01) (323, 4.17084625387069465319e+01) (324, 4.64986197278156043744e-01) (325, 2.45493547034592429767e+00) (326, 1.70471767460082967993e-01) (327, 8.89048314137766276799e-02) (0, 1.19033592738472848716e+00) (1, 2.56754607612406404726e+00) (2, 2.06273219004856002812e+02) (3, 1.24479741078221240969e+03) (4, 4.24830964509826980446e+00) (5, 2.87419412895575154820e+00) (6, 1.34357926789299906289e+01) (7, 1.18497830896552102331e+02) (8, 5.55127690763665193607e-01) (9, 3.66389768912118611865e+01) (10, 5.19145616384817110145e+00) (11, 3.27912942048652933380e+00) (12, 6.29528264129070436184e+01) (13, 5.22699661992305209424e+02) (14, 1.24561994219613723089e+01) (15, 1.02668278931916590047e+00) (16, 1.16365405044781255128e+02) (17, 4.85616831710638336972e+01) (18, 5.62122758476827613094e+01) (19, 2.00204627427702375186e+00) (20, 1.05800435579349585424e+01) (21, 2.46310866138181294716e+00) (22, 2.01955291100135791993e+00) (23, 2.97762343752483760184e+00) (24, 1.78573459836550618718e+00) (25, 2.94573633951440683632e+02) (26, 5.06078230148043317627e-01) (27, 8.64465591029338220608e+00) (28, 4.46769183754269771924e+00) (29, 4.01793996759705063226e+00) (30, 8.24866215562856837096e+01) (31, 1.49390109496436362946e+00) (32, 1.51739221418943714959e+00) (33, 3.52703844666735788493e+00) (34, 7.46823701563807276216e+02) (35, 3.06855553060950425603e+00) (36, 3.36746408670689163500e+02) (37, 5.64405979197851781493e+00) (38, 3.97988013390124528712e+00) (39, 1.48753249799759075245e+01) (40, 3.76364700056741563472e+00) (41, 6.48213186232221971750e+01) (42, 7.31279938728383456237e+01) (43, 8.82857665134862479306e+00) (44, 2.41739829517316179297e-01) (45, 1.18340963761837834056e+01) (46, 7.49144243384003694075e+00) (47, 1.95509828924339545964e+00) (48, 7.90208774538366665041e+00) (49, 1.32063801846432369302e+02) (50, 9.68676562017203579558e+00) (51, 3.99855801987050840651e+00) (52, 3.71240445248713442083e+01) (53, 2.36230555867190616937e+00) (54, 5.88904913920179637898e+02) (55, 5.58911619411985416406e+00) (56, 2.82774717080735570107e+02) (57, 2.54981632919375442725e+01) (58, 8.65148514206819285732e+00) (59, -2.72924972451691616460e-01) (60, 1.87939398265478962990e+00) (61, 1.72891966997808310680e+01) (62, 2.39762971385071388397e+01) (63, 1.85876845796941214672e+00) (64, 8.43757891076314159307e+00) (65, 2.39104062480188916950e+00) (66, 1.88331077460161431247e+01) (67, 8.73817620257222316127e-01) (68, 1.85309903515232932136e+00) (69, 3.53768370271973520147e+00) (70, 1.24470127638780513735e+03) (71, 5.13075332930638561280e-01) (72, 2.11945701341921255434e+00) (73, 3.13125346229616408067e+00) (74, 8.62608888984149757562e+00) (75, 2.39211695901628260685e+01) (76, 2.06477811256015542085e+00) (77, 4.85350203155117654319e+01) (78, 3.52098214041570933830e+00) (79, 5.89535402741712530883e+01) (80, 1.91564153485034793789e+01) (81, 2.81998388021141352056e+02) (82, 1.18280873660907616340e+02) (83, 1.24480189571880737276e+03) (84, 4.53904623105547511130e+00) (85, 1.47048524954775558626e+02) (86, 2.86514922770925068107e+02) (87, 2.97351123572046471821e+00) (88, 1.77645430577323426569e+00) (89, 1.11345539014006732259e+02) (90, 2.01336085655412144746e+00) (91, -2.10884883017079971523e+00) (92, 5.86116532888321785322e+02) (93, 7.76577679123723783050e+02) (94, 3.27724046209222397152e+00) (95, -6.21867044915730526888e-01) (96, 3.71206737738027836571e+00) (97, 2.19567256868277240756e+01) (98, -2.43212269924121837761e+00) (99, 5.94456955061946700880e+02) (100, 3.16117706376148873915e+02) (101, 3.57598730954114030212e+00) (102, 3.04784574587473677809e+00) (103, 3.67719670987611664259e+01) (104, 8.26616954455413832648e+01) (105, 1.94314781988331386486e+00) (106, -6.51311329862206545016e+00) (107, 2.20756927463474905693e+00) (108, 2.31308739172478539103e+01) (109, 2.08813637049851275052e+00) (110, 2.11136416784531633084e+00) (111, 5.00030148486802072938e+00) (112, 1.71222278307232778083e+00) (113, 1.54770453194595658530e+00) (114, 6.05267513138249341864e+02) (115, 1.77895936418189037909e+00) (116, 5.35230791593516244120e+01) (117, 9.57758735712233644222e+00) (118, 4.95841269169407752315e+01) (119, 1.47991798917775807531e+00) (120, 1.74406376310280619713e+00) (121, 3.63875286777475359656e+00) (122, 6.67480566799160328628e+01) (123, 1.14557216236215325011e+02) (124, 2.11543977931475835064e+00) (125, 6.13896076242275086088e+01) (126, 2.67072783388601976640e+02) (127, 1.25590372132498941937e+01) (128, 1.41819116279552162041e+02) (129, 3.73903217140722787803e+00) (130, 1.88590398115507333898e+01) (131, 1.60276115529216909295e+01) (132, 7.65251820317888814316e+02) (133, 7.46912563982935694185e+02) (134, 1.85844917698595111233e+01) (135, 3.01194000599636467541e+02) (136, 8.55023355761020695809e+01) (137, 7.66696193668595469717e+02) (138, 3.17850101089913339436e+00) (139, 2.25693752737629171889e+00) (140, 1.17369516863121177153e+01) (141, 1.08542570300110940984e+00) (142, 5.19080511053302643631e+02) (143, 1.00202117163145010181e+03) (144, 1.21001419655096668748e+02) (145, 1.27345583275644247401e+00) (146, 9.03145464782441287355e+00) (147, 7.74441621990989688129e+01) (148, 2.08146142977859938128e+01) (149, 7.75411815655574354622e+00) (150, 4.67257448220597471078e+00) (151, 1.12578159922453391317e+00) (152, 9.76780884133551410287e+01) (153, 8.13299488117545266164e-01) (154, 2.18120529972898768989e+00) (155, 4.24561237609494379619e-01) (156, 3.94541891050709558897e+00) (157, 1.37322206913912858717e+00) (158, 1.84604966307350704113e+00) (159, 2.58836391015155520279e+00) (160, 6.95120167613599271306e+00) (161, 3.38778742250789093760e+02) (162, 4.89091089890696473219e+00) (163, 3.96995150236904237318e-01) (164, 1.88416490744215447961e+00) (165, 1.16191110996332639616e+02) (166, 4.36744540027867389487e-01) (167, -1.16603537048598449033e+00) (168, 2.93858126557380572308e+00) (169, 1.85137279902092832806e+00) (170, 2.03719312475696767706e+00) (171, 1.76859106906349472510e+00) (172, 1.68607324407574132863e+00) (173, 1.72872505461788517067e+00) (174, 1.91923690836688565220e+00) (175, 5.02898402769435861615e+01) (176, 1.60599146408050996726e+00) (177, 1.37068948637562215254e+02) (178, 2.09079301294439501291e+00) (179, 2.78027060607194043129e+00) (180, 2.80472382691164634494e+00) (181, 8.95935160137472585973e+00) (182, 1.19238838509092488493e+02) (183, 7.40188989705825406418e+02) (184, 3.26545317963641767989e+00) (185, 1.26162801062911739791e+02) (186, 3.33853279056377294509e+00) (187, 5.59924267597580893607e+00) (188, 4.95228429794578346446e+01) (189, 2.18289824358657469361e+00) (190, 9.80794215928480980438e+02) (191, 2.13804674339094269442e+00) (192, 3.71230213489613491973e+00) (193, 6.54701304175537579511e+00) (194, 3.36511620131338240469e+00) (195, 4.16133421148555783020e+02) (196, 3.43800748921051235740e+00) (197, 3.12942470815891049529e-01) (198, 5.22509290114036730301e+02) (199, 1.11598592989235578798e+00) (200, 4.96791892252686384523e+00) (201, 7.65182671218598443375e+02) (202, 2.19394028536780041350e+01) (203, 2.01389714491189941725e+00) (204, 2.07674273393921193787e+00) (205, 1.84036901188325163758e+00) (206, 4.31452800474386055640e+00) (207, 4.74890888564019730822e-01) (208, 5.26464116536175197325e+02) (209, 4.95022592231898102000e+01) (210, 2.46981795520525722054e+01) (211, 3.21623556702665958085e+00) (212, 8.03346334524605509841e+00) (213, 4.36323602247960138811e+02) (214, 2.01673561402124956743e+00) (215, 3.87098450900982484768e+01) (216, 2.88289778015622388807e+00) (217, 2.82093796425494813818e+00) (218, 6.55868087236255004058e-01) (219, 4.04707284812241718797e-01) (220, 1.13317355221367506601e+02) (221, 5.25445415535984352573e+01) (222, 3.12274253282394454345e+02) (223, 1.47049872518936382448e+02) (224, 2.80588950309935114547e+02) (225, 1.03896154358401435758e+01) (226, 2.62846250018169946827e+01) (227, 3.66555936067303989034e+00) (228, 1.22421068303357898799e+02) (229, 4.37426426985978444861e+00) (230, 4.59279436657663069354e+01) (231, 5.50157293610294118480e+02) (232, 1.30073968972691833557e+00) (233, 5.23369981106565163032e+00) (234, 2.95501348367891978342e+01) (235, 2.86269749132396157165e+02) (236, 8.56716386403017054363e+02) (237, 7.11788243989377278353e+00) (238, 1.93261521759339238713e+00) (239, 9.86723470973199390244e+00) (240, 2.91403025480526821411e+02) (241, 4.85532743234302586188e+01) (242, 2.01283912166410505762e+00) (243, 1.91338444777065608271e+00) (244, 3.56556991463758854444e-01) (245, 1.52978518524569051529e+00) (246, 7.68088719420000757054e+02) (247, 5.00520095551860208616e+02) (248, 6.04167983778957395913e+00) (249, 3.11487934790426024279e+00) (250, 3.47598651608517927869e+00) (251, 1.72635961703498219677e+00) (252, 7.40230639606202203140e+02) (253, 4.46489337845341580646e+01) (254, 1.96077220195941825942e+00) (255, 2.01949563015839794744e+00) (256, 2.16477207051044073793e+00) (257, 2.26503362116710640350e+01) (258, 2.61917699947350612888e+00) (259, 2.14435859213353596786e+00) (260, 1.81958239989661962888e+00) (261, 7.47348215569052864993e+00) (262, 3.54502904093694937160e+00) (263, 1.46151858383111377115e+00) (264, 2.60564066754015399852e+00) (265, 6.99454593580716959877e+02) (266, 2.78034423317412517918e+01) (267, 2.62921194884094600042e+00) (268, -2.01075123443062803164e-01) (269, 3.52887070520965551168e+00) (270, 2.10785470216044190650e+00) (271, 7.65318528562272149429e+02) (272, 5.13432727730475164662e+01) (273, 7.45397095832434253282e+00) (274, 7.45076941939684843419e+02) (275, 3.89751124367798285064e+00) (276, 4.13380841144371657947e+00) (277, 1.14500930436375298882e+02) (278, 3.54300114060828263973e+00) (279, 3.61292446172165959695e+00) (280, 1.94223921055258030854e+00) (281, 7.65232161693175612527e+02) (282, 1.03108148222640902958e+01) (283, 6.94217598376093633306e+02) (284, 1.86134562464377761870e+00) (285, 3.88607952985596316609e+00) (286, 8.53703990128253664693e+00) (287, 9.28502906463832431427e+01) (288, 2.77823978493006384927e-01) (289, 7.57321224296689088362e+00) (290, 6.16568862453280885916e+00) (291, 7.22217718599222546771e+00) (292, 5.97664022601869571183e-01) (293, 1.94504698978268422138e+01) (294, 3.13535616700848818184e+00) (295, 1.28377996107020692307e+02) (296, 3.34331179872330652714e+00) (297, 5.22021565955912592472e+02) (298, 1.82561482007867881272e+00) (299, 9.74279728376144293911e-01) (300, 6.52300182628376479244e+00) (301, 1.00574938105391061072e+03) (302, 2.69336335066071708155e+00) (303, 7.65711242704988535479e+02) (304, 1.65989290352602264500e-01) (305, 2.09940640408766210356e+00) (306, 6.13671030595802378116e+01) (307, 1.82671087335641901817e+00) (308, 1.64939966495669865232e+00) (309, 7.40338082760060387955e+02) (310, 3.97026349833614915497e+02) (311, 6.17947474683953057450e-01) (312, 3.18570086049230827285e+00) (313, 1.89551294432016481650e+00) (314, 2.32426417160039955334e+00) (315, 6.04055896273627324078e-01) (316, 2.29301863260373561815e+00) (317, 2.16675868752989453370e+00) (318, 7.89124038402129301950e-01) (319, 1.27446227344114504376e+01) (320, 1.45606202431547899323e+02) (321, 1.72849879829541119847e+00) (322, 1.82650464998656025806e+00) (323, 1.73688691509430057636e+01) (324, 3.49119169348468094682e+00) (325, 9.52231706587738035985e-01) (326, 9.01939898149411556361e-01) (327, -1.57884704783882656720e+00) (0, 2.07409948763175622233e+00) (1, 1.40452425780448919568e+00) (2, 1.16721381351065165433e+01) (3, 1.24480828103029170961e+03) (4, -4.26559035921663776136e-01) (5, -4.47960254366409849069e-01) (6, 1.63875492718779297574e-01) (7, 3.07211443370909265127e+01) (8, 1.16833641799674814443e+00) (9, 2.16755569595052435261e+01) (10, -3.41579404851736601056e-01) (11, 7.69218460491972733095e-01) (12, 2.33614432509169432706e+02) (13, 2.58356510146752498258e+02) (14, 7.53780511808167852372e-01) (15, 7.75977673879402018997e+00) (16, 6.06161556307547968458e+01) (17, 4.18216032676241966648e-01) (18, 8.46649785976376847429e+01) (19, 3.91783210584386865083e-01) (20, -9.05530446530449562026e-01) (21, 6.94769752398926154768e+00) (22, -3.62870106858849572617e-01) (23, -1.58853197741848833902e-01) (24, 5.71683126133272212499e-02) (25, 2.46300473972274431844e+01) (26, 1.46017836630588000446e+01) (27, -5.89284939962470777353e-01) (28, -1.81067309043595092710e+00) (29, 1.01251147366554694607e+00) (30, 1.49676563842425821349e+02) (31, 3.32089374396138925505e+00) (32, 5.80897556125466874022e+00) (33, 6.03960947080766619166e+00) (34, -1.56046387903415162413e+01) (35, -3.56696901357886897443e-01) (36, 1.26942124217537596564e+02) (37, 7.07084491859963637506e-02) (38, -1.87763607969291657085e+00) (39, 4.12844852525309931934e+02) (40, 1.67763078971054968580e-01) (41, 1.05099509938609969595e+02) (42, 2.07406157431108510991e+01) (43, -2.14131215053072782029e-01) (44, 1.46872362079873108875e+00) (45, -8.67081872547584980859e-02) (46, 2.06531279821691216014e+00) (47, -1.60612982174059393259e-01) (48, 9.09107224563318538912e+00) (49, 1.21259967172255200829e+00) (50, 1.00981497780724840396e+01) (51, 1.80069345924847423746e+00) (52, 8.85837068411332850815e+00) (53, 8.01819938076605431831e+00) (54, -1.38035574431883361513e+02) (55, 8.50405363376517975382e+00) (56, 1.92080426084951056964e+01) (57, 4.02474562071961472487e-01) (58, 8.91801722399847673906e-01) (59, 2.24978625512557511845e-01) (60, -9.84840916719776915400e-02) (61, 2.96364233952351209533e-02) (62, 5.09478865508638412152e-01) (63, 7.11706082071046242099e-01) (64, -5.66775030341611474327e-01) (65, -2.46636120338893441439e-02) (66, 2.18645979779611323579e+01) (67, 7.50148622221969763046e-01) (68, 1.17058810893463524638e-01) (69, 2.35661404686981068579e+00) (70, 1.24476135706507602663e+03) (71, 8.14272885685288372315e+00) (72, -3.32045437157950790175e-02) (73, 1.93099231059483966710e+00) (74, -1.89628674087823467787e+00) (75, -1.89663731063505780483e+00) (76, -2.54361250661510718274e-01) (77, 8.07087925805155537162e-02) (78, 1.34609761451558296308e+00) (79, 1.40116681277327529642e+02) (80, 1.04939742885794103699e+02) (81, 1.76356821830289362651e+02) (82, 2.66303571916440773748e+02) (83, 2.92296586173761916427e+01) (84, 1.34049244932881728154e-02) (85, 3.50444906396523776948e+02) (86, -1.16273664246878016826e+01) (87, 4.86125618084579658174e-01) (88, 9.39049929190747117991e-02) (89, 1.73880272082048406901e+02) (90, 6.33858192657969965467e+00) (91, 7.19490085279968716314e-01) (92, -1.76106853597893611152e+01) (93, 1.06832199201625392959e+01) (94, 3.62501518918557463778e+00) (95, 4.67996905259947304501e+00) (96, 8.24372410780244280204e+00) (97, 2.56415790396837564913e+02) (98, 1.12806745831257812518e-01) (99, 4.07081566948216710955e+00) (100, -3.64559919176293867338e+00) (101, 1.35704407444158792195e+00) (102, 9.78843386375006652145e+00) (103, 2.37702775681413640996e+02) (104, 6.49345575243239068186e+01) (105, 1.69238857921388569094e-01) (106, -3.43316247809250407741e-01) (107, 4.87696525929888213824e-02) (108, -6.76472936333070290482e-02) (109, -3.03108777176109012164e-01) (110, -1.14872210707477953595e-01) (111, 1.84419939386309450491e+00) (112, 3.79247745087144938481e+00) (113, 3.58213402998904639762e-01) (114, 2.48526115282859283440e-01) (115, -1.79479469142366648837e-01) (116, 3.26788197728943856646e+01) (117, -1.31885035259596966606e-02) (118, 3.32887300191252544224e+00) (119, 3.14566341011773253911e+00) (120, 6.16230078473460965438e-02) (121, 1.27505190362022180484e-01) (122, 2.83216649032743191583e+02) (123, 9.42961936853574833606e+00) (124, -3.58153411405852550864e-01) (125, 2.44682657739241804506e+01) (126, 4.27960577266024415621e+01) (127, 1.21661669489606438788e+00) (128, 3.66482744361320698090e+01) (129, -1.54785476371502722648e-01) (130, 2.26946129189985441599e+01) (131, -2.30157644295740648754e-01) (132, 1.70073875987829467249e+02) (133, -1.67548775616153911017e+01) (134, -3.74524286599132949505e+00) (135, 3.09952590516877961591e+01) (136, 1.53104588198203174443e+02) (137, 1.55771675744489328963e+02) (138, 4.07117686916030896427e-01) (139, 5.22704536412581610705e+00) (140, 2.87080855593069770748e+02) (141, 3.76185225301192538438e+00) (142, 9.94920117848074028188e+01) (143, 1.65515944303427087192e-01) (144, 2.58296403053770369240e+01) (145, 3.24293150064567728408e-02) (146, 1.02999483401003200100e+00) (147, 5.85135729259326495821e+01) (148, 1.08573992337592741819e+01) (149, 1.27495826942408380100e-01) (150, 9.12266379360270190935e-02) (151, 1.28613735650378369080e-01) (152, 5.63853214983360047086e+01) (153, 1.72509700113196862148e+00) (154, 7.15590654381557111918e+00) (155, 3.63672627085181199291e+00) (156, 1.27237538549162554347e+00) (157, 4.46186099841131245114e+00) (158, -1.79491873040856453336e+00) (159, -7.16538018964791856291e-02) (160, 9.16529674399473026636e-02) (161, 2.53531131797418609608e+01) (162, 1.45932520162560863675e-01) (163, -7.32527539479153610991e-02) (164, 4.22211266929069239939e-02) (165, 7.72032626284555476559e+01) (166, -3.77081640199365894506e-02) (167, -1.26246238986063463727e+00) (168, 6.66539268060627954071e+00) (169, 1.96083356637993005966e-01) (170, 9.85167550043243023250e-02) (171, 2.62229453535801892983e+00) (172, -1.04908624719521170743e-01) (173, -2.22438332985959885679e-01) (174, 1.46685809992152349501e+00) (175, -3.23761649297486009402e+00) (176, -1.54237648391456011465e-01) (177, 3.52995277732125771308e+02) (178, 1.36430719637733979255e+01) (179, 6.10609959853013264941e-02) (180, -7.64518991855026724958e-03) (181, -2.67187856852297400678e-01) (182, 1.90860124298176891955e+00) (183, 9.78448311361058697955e-01) (184, -3.64365836418724664547e-01) (185, -2.07136743073599260967e+00) (186, 1.66281894122781248591e+00) (187, 7.41332790987113965375e-02) (188, -1.25074309584073244395e+01) (189, 1.40521433910070836504e+01) (190, -1.11688258769520931679e-01) (191, -7.63200509999285708895e-02) (192, 6.21806872556811898733e-02) (193, 2.56345595536804289338e+01) (194, -2.52687362189747931340e-02) (195, -5.32636072862466747324e+00) (196, 2.52472911479912998090e+00) (197, 1.07003483043849829670e+01) (198, 1.83138801698675024454e+01) (199, 5.98308166207983482821e+00) (200, -3.62158108647764320764e-02) (201, -6.84213433499499217305e+01) (202, -2.03452210303420955029e+00) (203, 2.05631240648468882615e-01) (204, -1.06970999324875104541e+00) (205, 1.29600935678787294592e+01) (206, -1.11530003658946080813e-01) (207, 2.55643329123879858855e+00) (208, -7.41604355070412957218e+00) (209, -9.87566995712804041041e-01) (210, -8.44028634343193973066e-01) (211, 3.73393726503200351630e-01) (212, 2.61984463418839019777e-01) (213, 1.68424613675158269643e+02) (214, 1.52487117517794840138e-01) (215, -3.53287253409966410800e+01) (216, 2.95655732980093732820e-01) (217, -7.08436720630735039528e-01) (218, -7.87994444636638813328e-03) (219, 5.59261850312336994406e-02) (220, 3.58387340414156696511e+01) (221, 6.59311080514404501685e+00) (222, -1.59294711231596977541e+02) (223, 1.50227120479651262031e+02) (224, 7.31724723236922329761e+01) (225, -3.57861958936112001251e-01) (226, -6.94008338018501369504e-01) (227, 1.51893656877431615371e+00) (228, -6.93321195322778205394e+00) (229, 1.75102405984648469561e-02) (230, 1.75359450138012036291e+01) (231, 9.21245107325127946751e+02) (232, 2.24750791437676733509e-02) (233, -4.73228710650035355734e-01) (234, -2.24700103856489707965e+00) (235, 1.07905735211306854637e+01) (236, 1.75287015138602157549e+02) (237, 1.01006685612317494360e+03) (238, 4.47688007185706379754e-02) (239, 3.27807913882210826273e+01) (240, -1.45925283998575139321e+00) (241, 1.48450616814030542656e+01) (242, -9.77414461916153776144e-01) (243, -2.32396702716587855164e-01) (244, 1.46533394397775973417e+00) (245, 8.51408466731645607872e-01) (246, -1.29395582058951550408e+01) (247, -1.94363895026632627072e+00) (248, -1.69254260968237590923e+00) (249, -1.86692280097317309107e-01) (250, 1.39567625147454044132e+00) (251, 1.73453844311486804486e+00) (252, -6.75728726724847916785e+00) (253, 3.66853957128810748145e+01) (254, -3.73754103768813517039e-01) (255, 1.97200025091311209602e-01) (256, 9.89969364448269328882e-02) (257, -5.58243497169517821632e-01) (258, 6.90431716972658843234e-02) (259, -1.62140620269717143642e-02) (260, -8.43869555753287148292e-02) (261, -1.08463087279583225708e+00) (262, 7.52705507956712843720e-02) (263, -1.59932245035820430612e-01) (264, 1.31796457408542511125e+00) (265, 5.89783240264198149738e-01) (266, 2.10037999457525671687e+02) (267, 2.13756885689966071029e-02) (268, 2.69094013238023022083e+00) (269, 8.81386650386672410029e-01) (270, 1.01689839963857248106e-01) (271, 1.01134153078853699981e+02) (272, -5.35631281561405714342e-01) (273, -3.19011866199895188778e-01) (274, 2.16300398500965300741e+01) (275, 2.57429646653066424022e+00) (276, -2.56059119918277477979e+00) (277, -2.25525879464482370551e+00) (278, -1.18107222946726686530e+00) (279, -5.81635365822187333507e-02) (280, 8.19170685735420150975e-02) (281, -5.53584816614310426530e+01) (282, 8.85430652497806214285e+00) (283, -1.39004341754117941576e+01) (284, -7.10001984345330794390e-01) (285, 8.86385101455359203371e-02) (286, 3.42467355268042006333e-01) (287, 1.11543496630383003776e+02) (288, 1.06674797739806859198e+00) (289, 2.64975531649236817344e+00) (290, -1.31670401426528371064e-02) (291, -8.61401432085626805879e-01) (292, 3.13805956894994331208e+01) (293, 6.61921326406392118713e-01) (294, 9.25700355197376228977e-02) (295, 9.67717268425475651838e+00) (296, 1.12522782610049956742e-01) (297, 1.41497625929289938540e+01) (298, -6.91882537416213305725e-01) (299, 1.80961686826297596387e-01) (300, 1.24125735733963771246e+00) (301, 1.94289797705091906721e+01) (302, 2.73530672100446325956e+00) (303, -6.02077864938188369592e+01) (304, 8.60080590528271127226e-01) (305, 3.27199343055112445988e-01) (306, -3.35364307697282670873e+00) (307, -9.58017076752987750687e-02) (308, 3.64096074590854357211e-01) (309, 1.64562118024075800804e+01) (310, 9.09931028301486009013e+01) (311, 1.31955228368448462817e+00) (312, 1.65434730487727832404e+00) (313, 4.18583212634847212641e-01) (314, 1.97812514075753220766e+00) (315, 1.32844379695758307847e+00) (316, -3.90031179331078781125e-01) (317, 7.28231072443476845635e-01) (318, 7.36714669256552379117e-01) (319, 3.49645760392429361119e+00) (320, 3.98042648863446970608e+02) (321, 4.72187546897038235016e-01) (322, 1.31001164670370706666e-01) (323, 6.70382638529102070635e+00) (324, 2.46892259813325321005e+00) (325, 3.56486466182050110163e+00) (326, 1.18191427286046457645e+00) (327, 1.76606990472974706430e-01) (0, 4.31008498183742627674e+00) (1, 1.73393391203215507801e+01) (2, 2.05578929506193844645e+02) (3, 1.24465529913061300249e+03) (4, 1.34800855296826438412e+00) (5, 2.61190749993749138369e+00) (6, 1.01398557262996646955e+00) (7, 4.97251268089820825935e+01) (8, 1.56906498808596217565e+00) (9, 6.58173682425865251844e+01) (10, 2.65615961786657472921e-01) (11, 1.09966217778780905867e+00) (12, 6.39323077222551319210e+01) (13, 1.18369314720031127308e+02) (14, 6.16814164204507608957e+00) (15, 1.45975559683500955011e+00) (16, 1.17076931206720701084e+02) (17, 4.75295528780673270930e-01) (18, 5.61254502701089137418e+01) (19, 2.05943583976900407295e-01) (20, 1.69890975173195073467e+01) (21, -2.17389167287196816147e-01) (22, 1.65894439038049679169e+00) (23, 6.46727857512984627419e+00) (24, 1.92680560502537817635e-01) (25, 9.56933059535240317928e+01) (26, 1.04846883905293042361e+00) (27, 3.49848725998852416730e-01) (28, 4.60971263282736387623e+00) (29, 8.90848670548521126555e-01) (30, 8.30266437130433274660e+01) (31, -4.11208945781600476721e+00) (32, -7.10224004076512316352e-02) (33, 1.88516022322174459092e-01) (34, 7.45940270322896594735e+02) (35, -1.14848988288798067869e-01) (36, 3.37114068603669693402e+02) (37, 3.78377717345970421281e-01) (38, 1.13501320977345199204e+00) (39, 3.64950359382023279409e+01) (40, 2.22396699722150065215e-01) (41, 1.55624010040311276271e+02) (42, 7.37258138601478663077e+01) (43, 1.22149743896137064070e+00) (44, 2.38968461061913073351e+00) (45, 3.72649851480974847462e-01) (46, 1.88505930178756528903e+01) (47, 2.33561127291336129153e-01) (48, 1.48608717031920694041e+01) (49, 1.31457726097638413876e+02) (50, 2.38080466686345566529e+01) (51, 1.66612663463573590361e-01) (52, 1.47139595743923354831e+01) (53, 1.90344351096166153336e-01) (54, 1.00471453764634497929e+03) (55, 1.67830825010397477470e+00) (56, 2.83778516950157609244e+02) (57, 2.51437421977583923649e+01) (58, 1.51377210704891052018e+01) (59, 2.60839337111053504170e-01) (60, 7.27527618071636461572e-01) (61, 8.70576620162903580535e+00) (62, 6.08592949194818277903e+00) (63, 5.34886580831568148042e-01) (64, 8.02634308451466160772e-02) (65, 7.72537711093772383464e+00) (66, 1.93970870056566546680e+01) (67, 1.49612219626712295018e+00) (68, 2.13895497827909814026e-01) (69, 5.49598237320873816980e-02) (70, 1.24476035402321258516e+03) (71, -2.04785450128962143168e+00) (72, 2.42209848144484762855e+00) (73, 1.26601550478000124400e+00) (74, -2.73796607759335619559e-01) (75, -2.35092249874966213730e-02) (76, 6.70568466295139997690e-02) (77, 3.58010163492032906785e-01) (78, 4.64993104586791314303e-02) (79, 1.42356764727134532222e+02) (80, 1.96731380496184300455e+01) (81, 2.82384432019105702238e+02) (82, 1.18915277537492926285e+02) (83, 4.97138205461122026918e+01) (84, 1.71946961446865742573e+00) (85, 1.47546526447914146729e+02) (86, 7.66108985015126108920e+02) (87, 1.44382549771196924127e+01) (88, 2.72705744009162309727e-01) (89, 1.17227926938548705493e+02) (90, 1.09585036822529124922e-01) (91, -4.95646885966144201685e-02) (92, 5.87761684800705552334e+02) (93, 5.29167036256617507206e+02) (94, 6.09692220502431048157e-02) (95, 2.10678235598030250131e+00) (96, 1.13227064536035593179e-01) (97, 2.55576998762173758450e+02) (98, 2.15561903996456916133e+00) (99, 1.49864849711004595179e+01) (100, 3.15112241241176263884e+02) (101, 1.73408667089903958253e-03) (102, -5.48166165582120834543e-01) (103, 3.73588564988564542091e+01) (104, 8.31950870326026006296e+01) (105, 2.81324715078597908935e-01) (106, 2.46607428256257005250e-01) (107, 3.83970893109670197152e-01) (108, 5.46227407904951007822e+01) (109, 6.82317819307228790038e-01) (110, 2.14361682124513075465e+00) (111, 1.26203779449648454403e+01) (112, -1.18306465545387706761e-01) (113, 5.54016945593500786948e-01) (114, 2.28623349164589697580e+01) (115, 1.56486334395562365351e-01) (116, 5.61100023825662788113e+01) (117, 1.07842297282537158409e+00) (118, 1.19589967011173143874e+02) (119, 5.53328001441854080977e-02) (120, 5.27689093473219106301e+00) (121, 7.86827563965342258179e-01) (122, 1.60515765611402883906e+02) (123, 1.15192897194469011879e+02) (124, 2.19648169973871765226e-01) (125, 1.27006723656642236620e+02) (126, 2.67644032947748712559e+02) (127, 5.11803562254220523187e+00) (128, 1.42250250994853502107e+02) (129, 1.34860219087057009446e+00) (130, 1.94146871173199961902e+01) (131, 3.08962745387164794408e+00) (132, 1.00482582914429076482e+03) (133, 7.45860129396952743264e+02) (134, 4.05064681845855076858e+01) (135, 5.64968156741721031722e+02) (136, 8.60351680715952795708e+01) (137, 1.00479346711533435155e+03) (138, 2.57112764407370963937e-01) (139, 2.13194736691343589285e-01) (140, 2.87781646284541636760e+00) (141, 6.50623982113380128212e-01) (142, 2.83619035541244784326e+02) (143, 2.42749436741888189317e+02) (144, 1.29320888599381390804e+02) (145, 4.32194071134894208797e+00) (146, 1.70862628456140819289e+00) (147, 3.98163342096121084523e+01) (148, 1.87342273136942090161e+01) (149, 3.38915636066788872327e-01) (150, 1.20655359746055332315e-01) (151, 5.75162282781250921992e-01) (152, 1.16565997865604629169e+02) (153, 5.18346684425058934487e-01) (154, 1.24809008737146370782e-01) (155, 1.42154012895528175653e-01) (156, 4.44629365403652193622e-02) (157, 7.01089937106855742854e-01) (158, 2.50655464057970900349e-01) (159, 4.53998305198051246845e-02) (160, 1.24663640521239971193e+00) (161, 9.38952059181503386753e+02) (162, 2.42528178958803630749e+00) (163, 6.60412609307047704377e-01) (164, 4.91116431600528624557e+00) (165, 1.43864266242074876345e+02) (166, 9.97129229290753316128e-01) (167, 2.62482353683386127052e-01) (168, -2.35381523468758430129e-01) (169, 4.52781143634349945160e+01) (170, 1.19135616319429349375e+00) (171, 3.27041395215534491658e-01) (172, 3.02143121421805593840e+00) (173, 1.14627388589219880721e+00) (174, 2.71175296357446304896e+00) (175, 1.58420185215983444493e-01) (176, -2.72088939137299264115e-02) (177, 1.36619102249297696972e+02) (178, 2.16938766648825595573e-02) (179, 1.39072285808879225755e+01) (180, 8.25316266212762494892e-02) (181, 3.33916783898755675786e-01) (182, 5.17029005620834482215e+02) (183, 9.79757969181708176620e+02) (184, 6.10610407520491768607e-02) (185, 1.26686556866241033958e+02) (186, 1.42317249451375832381e-01) (187, 3.48311852325568049871e-01) (188, 1.19606695106883421431e+02) (189, -5.12108099099249300390e-02) (190, 9.14029894741348357456e+02) (191, 1.69404477679725690153e-01) (192, 3.82252162741478829222e-01) (193, -1.98225239113692941473e+00) (194, 2.30368983082198885981e-01) (195, 7.93374306389191819022e-01) (196, 3.44136058874037420452e-01) (197, 5.99335552626262035858e+00) (198, 2.83208128074755393300e+02) (199, 2.27952237760621553853e-02) (200, 1.42423860502936205918e+00) (201, 1.00470744938375719357e+03) (202, -1.86980694330686307569e-02) (203, 3.15185757539975108799e+00) (204, 2.75012947456411527281e-01) (205, 5.56211580027040408680e-01) (206, 6.27665811885502566980e+00) (207, -1.87195038575070915599e-01) (208, 7.66106929176421999728e+02) (209, 4.98350696173791618548e+01) (210, 1.04328782260337971088e+00) (211, 1.39730479374440080820e-01) (212, 2.33864377073862073075e+00) (213, 1.13988588435969944612e+02) (214, 3.72712856673145576103e-01) (215, 9.39862243024515038314e+01) (216, 6.10526156852626344929e-01) (217, 1.41317299506483395888e+00) (218, 3.54847299548126882129e+00) (219, 2.00231796656912877097e+01) (220, 2.85422418704267556677e+02) (221, 2.85081039392621789830e+02) (222, 7.65972555582346558367e+02) (223, 1.47591034450612568207e+02) (224, 1.17886417390625297230e+02) (225, 6.20762240440436187383e-03) (226, 6.02518165842937158949e-01) (227, 1.05684542523539759529e-01) (228, 4.54643631956153981832e+00) (229, 5.95163922715785176365e+00) (230, 3.60613308655099018551e+00) (231, 1.22377383644081191960e+02) (232, 6.73334361397759706414e-01) (233, 2.51234309152074231086e-01) (234, 8.40313083798527038493e-02) (235, 4.94966766551255545892e+01) (236, 6.62340263037472425367e+01) (237, 2.94300226967560121238e+01) (238, 1.98742736126755581427e-01) (239, 3.48624059754925230692e+00) (240, 7.90493476035096076515e+00) (241, 4.33179483796423028252e+01) (242, 1.56342760757302357000e-01) (243, 9.99334147898989916259e-02) (244, 6.53890541787515289229e+00) (245, 1.34799377802175723851e+00) (246, 7.65947868780167937075e+02) (247, 2.57238630149511948275e+02) (248, 9.85961170376489981493e+00) (249, 5.24893926919944187048e-01) (250, 3.90085588319974627125e-02) (251, 4.60602514621845138265e+00) (252, 9.79752995904258568771e+02) (253, 2.57120328325134096303e+02) (254, 1.73572341646150762884e-01) (255, 4.84686567116993927140e-01) (256, 4.56292947133963844308e-01) (257, 2.22636306316106757919e-01) (258, 2.76731924847180621452e-01) (259, 2.68133447865157581447e-01) (260, 1.96088264698774467076e-01) (261, 4.19909708296678907402e+00) (262, 3.50520491349985863216e-01) (263, 1.87211222888428441280e+00) (264, -1.77845511790058558033e-01) (265, 1.16801362287133447815e+00) (266, 6.72263022536044587696e+01) (267, 7.55740596360062633075e-01) (268, 4.93721083762370049897e+00) (269, -1.22870747859029696980e-01) (270, 1.40545419328524129332e-01) (271, 1.00480532913999923039e+03) (272, 2.13098133306899200079e+01) (273, 2.81412013591525100864e+00) (274, 1.24378506892963951458e+01) (275, 4.62672865202810090768e-01) (276, 6.38099095241801833600e-02) (277, 1.15125134579882129060e+02) (278, 3.74027407273730475024e-02) (279, 5.04402025627007533082e-01) (280, 1.29000965979975301678e+00) (281, 1.00479542992608912755e+03) (282, 1.92278523280301740783e+01) (283, 3.00143193943908173082e+01) (284, 2.16783617140362372400e-01) (285, 6.50468540187630006599e-01) (286, 8.85558194174391521969e-01) (287, 9.31911138680584087979e+01) (288, 1.63081704801991311804e+00) (289, 1.88529435009653383304e+01) (290, 1.50945572002083516772e+00) (291, 3.17397652500872151649e+00) (292, 2.14307516311296453182e+00) (293, 1.97883050993698877962e-01) (294, 6.43690688246921105531e-01) (295, 1.29165429726580043734e+02) (296, 2.80067765971524496038e-01) (297, 7.57496246247658291395e+02) (298, 4.39999780254768768639e-01) (299, 3.93624387638143169443e-01) (300, 9.01942561481219513553e+01) (301, 1.00471276171850331593e+03) (302, 2.19808172763284098705e-01) (303, 7.63771774053979243035e+02) (304, 4.91674374391718516097e-01) (305, 1.20980497031788414297e+00) (306, 4.35845601708569585497e+00) (307, 9.05476973892449188419e-01) (308, 1.80942451288318095770e-01) (309, 9.79653770427874405868e+02) (310, 7.36420326614747438043e+01) (311, 6.73623734119893291528e-01) (312, 8.28116239488105587707e-02) (313, 8.11621158779338935929e-01) (314, 1.18835032359506387323e+00) (315, 2.32190741878369744100e+00) (316, 3.03851481393215328008e-01) (317, 5.31090886072094536807e-01) (318, 1.58463651254190884821e+00) (319, 3.28583805160768127607e+00) (320, 1.46312340765733324588e+02) (321, 3.68245092355189340694e+00) (322, 1.04397865154965718837e+00) (323, 3.35471616115799236013e+01) (324, 3.21048304958422708877e-02) (325, 1.07816331652148527098e+01) (326, -1.49330041436850025072e-01) (327, 1.32884014774962616601e-01) (0, 1.06786097390045515709e+01) (1, 3.53431059582440010303e+00) (2, 8.45306334901172249374e+01) (3, 1.24463868915640750856e+03) (4, 1.50332576959473196432e+00) (5, 1.59275614587327779548e-01) (6, 3.49877045961073704916e+01) (7, 5.28658527581219686908e+02) (8, 1.91001698867389646530e+00) (9, 2.11743815542088668735e+02) (10, 4.70372363155977879501e+00) (11, 1.13306263211493600807e+01) (12, 1.53511527688224106214e+02) (13, 2.86514042660190909828e+02) (14, 2.31376868357703635581e+00) (15, 5.81337105599051273686e+00) (16, 2.79500342166712528069e+02) (17, 4.86326869359316162900e+01) (18, 3.26291665370816019731e+02) (19, 8.20229613640537924546e-01) (20, 9.55066020158753303804e+01) (21, 2.99252052678346958103e+00) (22, 2.06178221777380299429e+00) (23, 2.50778300665935605096e+00) (24, 3.40306236959815899823e+00) (25, 4.65165317576069980987e+02) (26, 4.54936686672885315375e+00) (27, 6.08328638332477034112e+00) (28, 5.66962974778320027980e-01) (29, 9.26772201195267797402e+00) (30, 4.67425867338495322656e+02) (31, -3.06053556826147676873e+00) (32, 4.88322170296444824089e+00) (33, 8.92081050641967543413e+00) (34, 2.57856619439007658912e+02) (35, 3.04786074578942445257e+00) (36, 9.34442165756797749054e+02) (37, 2.06357275659394057143e+00) (38, 1.94280211645943943211e+01) (39, 3.84303142701309567997e+01) (40, 4.41036131275022746934e+00) (41, 7.23065292431501916326e+02) (42, 5.69575259878945416858e+02) (43, 8.75392512692407187558e+00) (44, 5.85752401086603846636e+00) (45, 2.22471978615994707695e+01) (46, 1.84512016916684231660e+01) (47, 2.29729712746591374639e+00) (48, 5.59923068142813917802e+01) (49, 1.29534729348445495134e+02) (50, 5.76274887189968865187e+01) (51, 5.77511224790098243176e+00) (52, 4.14105380534655012070e+01) (53, 1.42202621161303941477e+01) (54, 1.29531171563328683760e+02) (55, 2.05780730755925578279e+00) (56, 5.23252295791369760991e+02) (57, 2.42969827072773583154e+01) (58, 3.33409135395960198878e+00) (59, 1.76580377326269877258e+00) (60, 4.53645129684465908682e-01) (61, 5.24595558053157784428e+00) (62, 4.75295015524982655819e+00) (63, 4.37941393165040704361e+00) (64, 5.21500119553478835854e+00) (65, 5.41718361422302940866e+00) (66, 4.54468853007856168347e+01) (67, 1.15673821841917257025e+00) (68, 2.06950234693542434172e+00) (69, 3.67900714275147144861e+00) (70, 1.24477233895265499086e+03) (71, 1.53448871428192639144e+01) (72, 5.65053630476308033082e+00) (73, 5.80163887151699420031e-01) (74, 1.86378838014482783869e+00) (75, 5.32846283242704199523e+00) (76, 2.11352947064946983247e+00) (77, 4.85569568438964509483e+01) (78, 3.80441196894392819061e+00) (79, 3.41406869730581092881e+02) (80, 4.59115128262161391604e+01) (81, 5.19137482901751354802e+02) (82, 2.84197073440161943836e+02) (83, 1.24471317496501842470e+03) (84, 9.58880334968910119642e-01) (85, 6.83198286700403059513e+02) (86, 1.18875418604180254079e+02) (87, -2.84021973860344223439e+00) (88, 1.53438491632935791742e+00) (89, 4.91003463846625550104e+02) (90, 7.63339665314231030635e+00) (91, -7.05341198563491644791e-01) (92, 3.09001528208829199684e+02) (93, 3.25571061585957295392e+01) (94, 3.50258883554154909490e+00) (95, -1.34061237009358213967e+00) (96, 3.82096540313171839642e+00) (97, 1.29501789707620218906e+02) (98, -4.53947226428067551751e+00) (99, 5.94391964817140888044e+02) (100, 5.45751128171981605419e+01) (101, 3.76769327104256790406e+00) (102, 