FANN_FLO_2.1
num_layers=3
learning_rate=0.700000
connection_rate=1.000000
network_type=0
learning_momentum=0.000000
training_algorithm=2
train_error_function=1
train_stop_function=0
cascade_output_change_fraction=0.010000
quickprop_decay=-0.000100
quickprop_mu=1.750000
rprop_increase_factor=1.200000
rprop_decrease_factor=0.500000
rprop_delta_min=0.000000
rprop_delta_max=50.000000
rprop_delta_zero=0.100000
cascade_output_stagnation_epochs=12
cascade_candidate_change_fraction=0.010000
cascade_candidate_stagnation_epochs=12
cascade_max_out_epochs=150
cascade_min_out_epochs=50
cascade_max_cand_epochs=150
cascade_min_cand_epochs=50
cascade_num_candidate_groups=2
bit_fail_limit=3.49999999999999977796e-01
cascade_candidate_limit=1.00000000000000000000e+03
cascade_weight_multiplier=4.00000000000000022204e-01
cascade_activation_functions_count=10
cascade_activation_functions=3 5 7 8 10 11 14 15 16 17 
cascade_activation_steepnesses_count=4
cascade_activation_steepnesses=2.50000000000000000000e-01 5.00000000000000000000e-01 7.50000000000000000000e-01 1.00000000000000000000e+00 
layer_sizes=328 167 7 
scale_included=0
neurons (num_inputs, activation_function, activation_steepness)=(0, 0, 0.00000000000000000000e+00) (0, 0, 0.00000000000000000000e+00) (0, 0, 0.00000000000000000000e+00) (0, 0, 0.00000000000000000000e+00) (0, 0, 0.00000000000000000000e+00) (0, 0, 0.00000000000000000000e+00) (0, 0, 0.00000000000000000000e+00) (0, 0, 0.00000000000000000000e+00) (0, 0, 0.00000000000000000000e+00) (0, 0, 0.00000000000000000000e+00) (0, 0, 0.00000000000000000000e+00) (0, 0, 0.00000000000000000000e+00) (0, 0, 0.00000000000000000000e+00) (0, 0, 0.00000000000000000000e+00) (0, 0, 0.00000000000000000000e+00) (0, 0, 0.00000000000000000000e+00) (0, 0, 0.00000000000000000000e+00) (0, 0, 0.00000000000000000000e+00) (0, 0, 0.00000000000000000000e+00) (0, 0, 0.00000000000000000000e+00) (0, 0, 0.00000000000000000000e+00) (0, 0, 0.00000000000000000000e+00) (0, 0, 0.00000000000000000000e+00) (0, 0, 0.00000000000000000000e+00) (0, 0, 0.00000000000000000000e+00) (0, 0, 0.00000000000000000000e+00) (0, 0, 0.00000000000000000000e+00) (0, 0, 0.00000000000000000000e+00) (0, 0, 0.00000000000000000000e+00) (0, 0, 0.00000000000000000000e+00) (0, 0, 0.00000000000000000000e+00) (0, 0, 0.00000000000000000000e+00) (0, 0, 0.00000000000000000000e+00) (0, 0, 0.00000000000000000000e+00) (0, 0, 0.00000000000000000000e+00) (0, 0, 0.00000000000000000000e+00) (0, 0, 0.00000000000000000000e+00) (0, 0, 0.00000000000000000000e+00) (0, 0, 0.00000000000000000000e+00) (0, 0, 0.00000000000000000000e+00) (0, 0, 0.00000000000000000000e+00) (0, 0, 0.00000000000000000000e+00) (0, 0, 0.00000000000000000000e+00) (0, 0, 0.00000000000000000000e+00) (0, 0, 0.00000000000000000000e+00) (0, 0, 0.00000000000000000000e+00) (0, 0, 0.00000000000000000000e+00) (0, 0, 0.00000000000000000000e+00) (0, 0, 0.00000000000000000000e+00) (0, 0, 0.00000000000000000000e+00) (0, 0, 0.00000000000000000000e+00) (0, 0, 0.00000000000000000000e+00) (0, 0, 0.00000000000000000000e+00) (0, 0, 0.00000000000000000000e+00) (0, 0, 0.00000000000000000000e+00) (0, 0, 0.00000000000000000000e+00) (0, 0, 0.00000000000000000000e+00) (0, 0, 0.00000000000000000000e+00) (0, 0, 0.00000000000000000000e+00) (0, 0, 0.00000000000000000000e+00) (0, 0, 0.00000000000000000000e+00) (0, 0, 0.00000000000000000000e+00) (0, 0, 0.00000000000000000000e+00) (0, 0, 0.00000000000000000000e+00) (0, 0, 0.00000000000000000000e+00) (0, 0, 0.00000000000000000000e+00) (0, 0, 0.00000000000000000000e+00) (0, 0, 0.00000000000000000000e+00) (0, 0, 0.00000000000000000000e+00) (0, 0, 0.00000000000000000000e+00) (0, 0, 0.00000000000000000000e+00) (0, 0, 0.00000000000000000000e+00) (0, 0, 0.00000000000000000000e+00) (0, 0, 0.00000000000000000000e+00) (0, 0, 0.00000000000000000000e+00) (0, 0, 0.00000000000000000000e+00) (0, 0, 0.00000000000000000000e+00) (0, 0, 0.00000000000000000000e+00) (0, 0, 0.00000000000000000000e+00) (0, 0, 0.00000000000000000000e+00) (0, 0, 0.00000000000000000000e+00) (0, 0, 0.00000000000000000000e+00) (0, 0, 0.00000000000000000000e+00) (0, 0, 0.00000000000000000000e+00) (0, 0, 0.00000000000000000000e+00) (0, 0, 0.00000000000000000000e+00) (0, 0, 0.00000000000000000000e+00) (0, 0, 0.00000000000000000000e+00) (0, 0, 0.00000000000000000000e+00) (0, 0, 0.00000000000000000000e+00) (0, 0, 0.00000000000000000000e+00) (0, 0, 0.00000000000000000000e+00) (0, 0, 0.00000000000000000000e+00) (0, 0, 0.00000000000000000000e+00) (0, 0, 0.00000000000000000000e+00) (0, 0, 0.00000000000000000000e+00) (0, 0, 0.00000000000000000000e+00) (0, 0, 0.00000000000000000000e+00) (0, 0, 0.00000000000000000000e+00) (0, 0, 0.00000000000000000000e+00) (0, 0, 0.00000000000000000000e+00) (0, 0, 0.00000000000000000000e+00) (0, 0, 0.00000000000000000000e+00) (0, 0, 0.00000000000000000000e+00) (0, 0, 0.00000000000000000000e+00) (0, 0, 0.00000000000000000000e+00) (0, 0, 0.00000000000000000000e+00) (0, 0, 0.00000000000000000000e+00) (0, 0, 0.00000000000000000000e+00) (0, 0, 0.00000000000000000000e+00) (0, 0, 0.00000000000000000000e+00) (0, 0, 0.00000000000000000000e+00) (0, 0, 0.00000000000000000000e+00) (0, 0, 0.00000000000000000000e+00) (0, 0, 0.00000000000000000000e+00) (0, 0, 0.00000000000000000000e+00) (0, 0, 0.00000000000000000000e+00) (0, 0, 0.00000000000000000000e+00) (0, 0, 0.00000000000000000000e+00) (0, 0, 0.00000000000000000000e+00) (0, 0, 0.00000000000000000000e+00) (0, 0, 0.00000000000000000000e+00) (0, 0, 0.00000000000000000000e+00) (0, 0, 0.00000000000000000000e+00) (0, 0, 0.00000000000000000000e+00) (0, 0, 0.00000000000000000000e+00) (0, 0, 0.00000000000000000000e+00) (0, 0, 0.00000000000000000000e+00) (0, 0, 0.00000000000000000000e+00) (0, 0, 0.00000000000000000000e+00) (0, 0, 0.00000000000000000000e+00) (0, 0, 0.00000000000000000000e+00) (0, 0, 0.00000000000000000000e+00) (0, 0, 0.00000000000000000000e+00) (0, 0, 0.00000000000000000000e+00) (0, 0, 0.00000000000000000000e+00) (0, 0, 0.00000000000000000000e+00) (0, 0, 0.00000000000000000000e+00) (0, 0, 0.00000000000000000000e+00) (0, 0, 0.00000000000000000000e+00) (0, 0, 0.00000000000000000000e+00) (0, 0, 0.00000000000000000000e+00) (0, 0, 0.00000000000000000000e+00) (0, 0, 0.00000000000000000000e+00) (0, 0, 0.00000000000000000000e+00) (0, 0, 0.00000000000000000000e+00) (0, 0, 0.00000000000000000000e+00) (0, 0, 0.00000000000000000000e+00) (0, 0, 0.00000000000000000000e+00) (0, 0, 0.00000000000000000000e+00) (0, 0, 0.00000000000000000000e+00) (0, 0, 0.00000000000000000000e+00) (0, 0, 0.00000000000000000000e+00) (0, 0, 0.00000000000000000000e+00) (0, 0, 0.00000000000000000000e+00) (0, 0, 0.00000000000000000000e+00) (0, 0, 0.00000000000000000000e+00) (0, 0, 0.00000000000000000000e+00) (0, 0, 0.00000000000000000000e+00) (0, 0, 0.00000000000000000000e+00) (0, 0, 0.00000000000000000000e+00) (0, 0, 0.00000000000000000000e+00) (0, 0, 0.00000000000000000000e+00) (0, 0, 0.00000000000000000000e+00) (0, 0, 0.00000000000000000000e+00) (0, 0, 0.00000000000000000000e+00) (0, 0, 0.00000000000000000000e+00) (0, 0, 0.00000000000000000000e+00) (0, 0, 0.00000000000000000000e+00) (0, 0, 0.00000000000000000000e+00) (0, 0, 0.00000000000000000000e+00) (0, 0, 0.00000000000000000000e+00) (0, 0, 0.00000000000000000000e+00) (0, 0, 0.00000000000000000000e+00) (0, 0, 0.00000000000000000000e+00) (0, 0, 0.00000000000000000000e+00) (0, 0, 0.00000000000000000000e+00) (0, 0, 0.00000000000000000000e+00) (0, 0, 0.00000000000000000000e+00) (0, 0, 0.00000000000000000000e+00) (0, 0, 0.00000000000000000000e+00) (0, 0, 0.00000000000000000000e+00) (0, 0, 0.00000000000000000000e+00) (0, 0, 0.00000000000000000000e+00) (0, 0, 0.00000000000000000000e+00) (0, 0, 0.00000000000000000000e+00) (0, 0, 0.00000000000000000000e+00) (0, 0, 0.00000000000000000000e+00) (0, 0, 0.00000000000000000000e+00) (0, 0, 0.00000000000000000000e+00) (0, 0, 0.00000000000000000000e+00) (0, 0, 0.00000000000000000000e+00) (0, 0, 0.00000000000000000000e+00) (0, 0, 0.00000000000000000000e+00) (0, 0, 0.00000000000000000000e+00) (0, 0, 0.00000000000000000000e+00) (0, 0, 0.00000000000000000000e+00) (0, 0, 0.00000000000000000000e+00) (0, 0, 0.00000000000000000000e+00) (0, 0, 0.00000000000000000000e+00) (0, 0, 0.00000000000000000000e+00) (0, 0, 0.00000000000000000000e+00) (0, 0, 0.00000000000000000000e+00) (0, 0, 0.00000000000000000000e+00) (0, 0, 0.00000000000000000000e+00) (0, 0, 0.00000000000000000000e+00) (0, 0, 0.00000000000000000000e+00) (0, 0, 0.00000000000000000000e+00) (0, 0, 0.00000000000000000000e+00) (0, 0, 0.00000000000000000000e+00) (0, 0, 0.00000000000000000000e+00) (0, 0, 0.00000000000000000000e+00) (0, 0, 0.00000000000000000000e+00) (0, 0, 0.00000000000000000000e+00) (0, 0, 0.00000000000000000000e+00) (0, 0, 0.00000000000000000000e+00) (0, 0, 0.00000000000000000000e+00) (0, 0, 0.00000000000000000000e+00) (0, 0, 0.00000000000000000000e+00) (0, 0, 0.00000000000000000000e+00) (0, 0, 0.00000000000000000000e+00) (0, 0, 0.00000000000000000000e+00) (0, 0, 0.00000000000000000000e+00) (0, 0, 0.00000000000000000000e+00) (0, 0, 0.00000000000000000000e+00) (0, 0, 0.00000000000000000000e+00) (0, 0, 0.00000000000000000000e+00) (0, 0, 0.00000000000000000000e+00) (0, 0, 0.00000000000000000000e+00) (0, 0, 0.00000000000000000000e+00) (0, 0, 0.00000000000000000000e+00) (0, 0, 0.00000000000000000000e+00) (0, 0, 0.00000000000000000000e+00) (0, 0, 0.00000000000000000000e+00) (0, 0, 0.00000000000000000000e+00) (0, 0, 0.00000000000000000000e+00) (0, 0, 0.00000000000000000000e+00) (0, 0, 0.00000000000000000000e+00) (0, 0, 0.00000000000000000000e+00) (0, 0, 0.00000000000000000000e+00) (0, 0, 0.00000000000000000000e+00) (0, 0, 0.00000000000000000000e+00) (0, 0, 0.00000000000000000000e+00) (0, 0, 0.00000000000000000000e+00) (0, 0, 0.00000000000000000000e+00) (0, 0, 0.00000000000000000000e+00) (0, 0, 0.00000000000000000000e+00) (0, 0, 0.00000000000000000000e+00) (0, 0, 0.00000000000000000000e+00) (0, 0, 0.00000000000000000000e+00) (0, 0, 0.00000000000000000000e+00) (0, 0, 0.00000000000000000000e+00) (0, 0, 0.00000000000000000000e+00) (0, 0, 0.00000000000000000000e+00) (0, 0, 0.00000000000000000000e+00) (0, 0, 0.00000000000000000000e+00) (0, 0, 0.00000000000000000000e+00) (0, 0, 0.00000000000000000000e+00) (0, 0, 0.00000000000000000000e+00) (0, 0, 0.00000000000000000000e+00) (0, 0, 0.00000000000000000000e+00) (0, 0, 0.00000000000000000000e+00) (0, 0, 0.00000000000000000000e+00) (0, 0, 0.00000000000000000000e+00) (0, 0, 0.00000000000000000000e+00) (0, 0, 0.00000000000000000000e+00) (0, 0, 0.00000000000000000000e+00) (0, 0, 0.00000000000000000000e+00) (0, 0, 0.00000000000000000000e+00) (0, 0, 0.00000000000000000000e+00) (0, 0, 0.00000000000000000000e+00) (0, 0, 0.00000000000000000000e+00) (0, 0, 0.00000000000000000000e+00) (0, 0, 0.00000000000000000000e+00) (0, 0, 0.00000000000000000000e+00) (0, 0, 0.00000000000000000000e+00) (0, 0, 0.00000000000000000000e+00) (0, 0, 0.00000000000000000000e+00) (0, 0, 0.00000000000000000000e+00) (0, 0, 0.00000000000000000000e+00) (0, 0, 0.00000000000000000000e+00) (0, 0, 0.00000000000000000000e+00) (0, 0, 0.00000000000000000000e+00) (0, 0, 0.00000000000000000000e+00) (0, 0, 0.00000000000000000000e+00) (0, 0, 0.00000000000000000000e+00) (0, 0, 0.00000000000000000000e+00) (0, 0, 0.00000000000000000000e+00) (0, 0, 0.00000000000000000000e+00) (0, 0, 0.00000000000000000000e+00) (0, 0, 0.00000000000000000000e+00) (0, 0, 0.00000000000000000000e+00) (0, 0, 0.00000000000000000000e+00) (0, 0, 0.00000000000000000000e+00) (0, 0, 0.00000000000000000000e+00) (0, 0, 0.00000000000000000000e+00) (0, 0, 0.00000000000000000000e+00) (0, 0, 0.00000000000000000000e+00) (0, 0, 0.00000000000000000000e+00) (0, 0, 0.00000000000000000000e+00) (0, 0, 0.00000000000000000000e+00) (0, 0, 0.00000000000000000000e+00) (0, 0, 0.00000000000000000000e+00) (0, 0, 0.00000000000000000000e+00) (0, 0, 0.00000000000000000000e+00) (0, 0, 0.00000000000000000000e+00) (0, 0, 0.00000000000000000000e+00) (0, 0, 0.00000000000000000000e+00) (0, 0, 0.00000000000000000000e+00) (0, 0, 0.00000000000000000000e+00) (0, 0, 0.00000000000000000000e+00) (0, 0, 0.00000000000000000000e+00) (0, 0, 0.00000000000000000000e+00) (0, 0, 0.00000000000000000000e+00) (0, 0, 0.00000000000000000000e+00) (0, 0, 0.00000000000000000000e+00) (0, 0, 0.00000000000000000000e+00) (0, 0, 0.00000000000000000000e+00) (0, 0, 0.00000000000000000000e+00) (0, 0, 0.00000000000000000000e+00) (0, 0, 0.00000000000000000000e+00) (0, 0, 0.00000000000000000000e+00) (0, 0, 0.00000000000000000000e+00) (0, 0, 0.00000000000000000000e+00) (0, 0, 0.00000000000000000000e+00) (0, 0, 0.00000000000000000000e+00) (0, 0, 0.00000000000000000000e+00) (0, 0, 0.00000000000000000000e+00) (328, 4, 5.00000000000000000000e-01) (328, 4, 5.00000000000000000000e-01) (328, 4, 5.00000000000000000000e-01) (328, 4, 5.00000000000000000000e-01) (328, 4, 5.00000000000000000000e-01) (328, 4, 5.00000000000000000000e-01) (328, 4, 5.00000000000000000000e-01) (328, 4, 5.00000000000000000000e-01) (328, 4, 5.00000000000000000000e-01) (328, 4, 5.00000000000000000000e-01) (328, 4, 5.00000000000000000000e-01) (328, 4, 5.00000000000000000000e-01) (328, 4, 5.00000000000000000000e-01) (328, 4, 5.00000000000000000000e-01) (328, 4, 5.00000000000000000000e-01) (328, 4, 5.00000000000000000000e-01) (328, 4, 5.00000000000000000000e-01) (328, 4, 5.00000000000000000000e-01) (328, 4, 5.00000000000000000000e-01) (328, 4, 5.00000000000000000000e-01) (328, 4, 5.00000000000000000000e-01) (328, 4, 5.00000000000000000000e-01) (328, 4, 5.00000000000000000000e-01) (328, 4, 5.00000000000000000000e-01) (328, 4, 5.00000000000000000000e-01) (328, 4, 5.00000000000000000000e-01) (328, 4, 5.00000000000000000000e-01) (328, 4, 5.00000000000000000000e-01) (328, 4, 5.00000000000000000000e-01) (328, 4, 5.00000000000000000000e-01) (328, 4, 5.00000000000000000000e-01) (328, 4, 5.00000000000000000000e-01) (328, 4, 5.00000000000000000000e-01) (328, 4, 5.00000000000000000000e-01) (328, 4, 5.00000000000000000000e-01) (328, 4, 5.00000000000000000000e-01) (328, 4, 5.00000000000000000000e-01) (328, 4, 5.00000000000000000000e-01) (328, 4, 5.00000000000000000000e-01) (328, 4, 5.00000000000000000000e-01) (328, 4, 5.00000000000000000000e-01) (328, 4, 5.00000000000000000000e-01) (328, 4, 5.00000000000000000000e-01) (328, 4, 5.00000000000000000000e-01) (328, 4, 5.00000000000000000000e-01) (328, 4, 5.00000000000000000000e-01) (328, 4, 5.00000000000000000000e-01) (328, 4, 5.00000000000000000000e-01) (328, 4, 5.00000000000000000000e-01) (328, 4, 5.00000000000000000000e-01) (328, 4, 5.00000000000000000000e-01) (328, 4, 5.00000000000000000000e-01) (328, 4, 5.00000000000000000000e-01) (328, 4, 5.00000000000000000000e-01) (328, 4, 5.00000000000000000000e-01) (328, 4, 5.00000000000000000000e-01) (328, 4, 5.00000000000000000000e-01) (328, 4, 5.00000000000000000000e-01) (328, 4, 5.00000000000000000000e-01) (328, 4, 5.00000000000000000000e-01) (328, 4, 5.00000000000000000000e-01) (328, 4, 5.00000000000000000000e-01) (328, 4, 5.00000000000000000000e-01) (328, 4, 5.00000000000000000000e-01) (328, 4, 5.00000000000000000000e-01) (328, 4, 5.00000000000000000000e-01) (328, 4, 5.00000000000000000000e-01) (328, 4, 5.00000000000000000000e-01) (328, 4, 5.00000000000000000000e-01) (328, 4, 5.00000000000000000000e-01) (328, 4, 5.00000000000000000000e-01) (328, 4, 5.00000000000000000000e-01) (328, 4, 5.00000000000000000000e-01) (328, 4, 5.00000000000000000000e-01) (328, 4, 5.00000000000000000000e-01) (328, 4, 5.00000000000000000000e-01) (328, 4, 5.00000000000000000000e-01) (328, 4, 5.00000000000000000000e-01) (328, 4, 5.00000000000000000000e-01) (328, 4, 5.00000000000000000000e-01) (328, 4, 5.00000000000000000000e-01) (328, 4, 5.00000000000000000000e-01) (328, 4, 5.00000000000000000000e-01) (328, 4, 5.00000000000000000000e-01) (328, 4, 5.00000000000000000000e-01) (328, 4, 5.00000000000000000000e-01) (328, 4, 5.00000000000000000000e-01) (328, 4, 5.00000000000000000000e-01) (328, 4, 5.00000000000000000000e-01) (328, 4, 5.00000000000000000000e-01) (328, 4, 5.00000000000000000000e-01) (328, 4, 5.00000000000000000000e-01) (328, 4, 5.00000000000000000000e-01) (328, 4, 5.00000000000000000000e-01) (328, 4, 5.00000000000000000000e-01) (328, 4, 5.00000000000000000000e-01) (328, 4, 5.00000000000000000000e-01) (328, 4, 5.00000000000000000000e-01) (328, 4, 5.00000000000000000000e-01) (328, 4, 5.00000000000000000000e-01) (328, 4, 5.00000000000000000000e-01) (328, 4, 5.00000000000000000000e-01) (328, 4, 5.00000000000000000000e-01) (328, 4, 5.00000000000000000000e-01) (328, 4, 5.00000000000000000000e-01) (328, 4, 5.00000000000000000000e-01) (328, 4, 5.00000000000000000000e-01) (328, 4, 5.00000000000000000000e-01) (328, 4, 5.00000000000000000000e-01) (328, 4, 5.00000000000000000000e-01) (328, 4, 5.00000000000000000000e-01) (328, 4, 5.00000000000000000000e-01) (328, 4, 5.00000000000000000000e-01) (328, 4, 5.00000000000000000000e-01) (328, 4, 5.00000000000000000000e-01) (328, 4, 5.00000000000000000000e-01) (328, 4, 5.00000000000000000000e-01) (328, 4, 5.00000000000000000000e-01) (328, 4, 5.00000000000000000000e-01) (328, 4, 5.00000000000000000000e-01) (328, 4, 5.00000000000000000000e-01) (328, 4, 5.00000000000000000000e-01) (328, 4, 5.00000000000000000000e-01) (328, 4, 5.00000000000000000000e-01) (328, 4, 5.00000000000000000000e-01) (328, 4, 5.00000000000000000000e-01) (328, 4, 5.00000000000000000000e-01) (328, 4, 5.00000000000000000000e-01) (328, 4, 5.00000000000000000000e-01) (328, 4, 5.00000000000000000000e-01) (328, 4, 5.00000000000000000000e-01) (328, 4, 5.00000000000000000000e-01) (328, 4, 5.00000000000000000000e-01) (328, 4, 5.00000000000000000000e-01) (328, 4, 5.00000000000000000000e-01) (328, 4, 5.00000000000000000000e-01) (328, 4, 5.00000000000000000000e-01) (328, 4, 5.00000000000000000000e-01) (328, 4, 5.00000000000000000000e-01) (328, 4, 5.00000000000000000000e-01) (328, 4, 5.00000000000000000000e-01) (328, 4, 5.00000000000000000000e-01) (328, 4, 5.00000000000000000000e-01) (328, 4, 5.00000000000000000000e-01) (328, 4, 5.00000000000000000000e-01) (328, 4, 5.00000000000000000000e-01) (328, 4, 5.00000000000000000000e-01) (328, 4, 5.00000000000000000000e-01) (328, 4, 5.00000000000000000000e-01) (328, 4, 5.00000000000000000000e-01) (328, 4, 5.00000000000000000000e-01) (328, 4, 5.00000000000000000000e-01) (328, 4, 5.00000000000000000000e-01) (328, 4, 5.00000000000000000000e-01) (328, 4, 5.00000000000000000000e-01) (328, 4, 5.00000000000000000000e-01) (328, 4, 5.00000000000000000000e-01) (328, 4, 5.00000000000000000000e-01) (328, 4, 5.00000000000000000000e-01) (328, 4, 5.00000000000000000000e-01) (328, 4, 5.00000000000000000000e-01) (328, 4, 5.00000000000000000000e-01) (328, 4, 5.00000000000000000000e-01) (328, 4, 5.00000000000000000000e-01) (328, 4, 5.00000000000000000000e-01) (328, 4, 5.00000000000000000000e-01) (0, 0, 0.00000000000000000000e+00) (167, 4, 5.00000000000000000000e-01) (167, 4, 5.00000000000000000000e-01) (167, 4, 5.00000000000000000000e-01) (167, 4, 5.00000000000000000000e-01) (167, 4, 5.00000000000000000000e-01) (167, 4, 5.00000000000000000000e-01) (0, 0, 0.00000000000000000000e+00) 
connections (connected_to_neuron, weight)=(0, 3.90264148646176534108e-01) (1, 8.19844603145220451879e-01) (2, 1.50000000000000000000e+03) (3, 1.50000000000000000000e+03) (4, -2.98922332805909019005e-01) (5, 8.77630064516173979960e-01) (6, -4.89439389743454444925e+00) (7, 1.14451286247665143492e+03) (8, 5.93241006384180313837e-02) (9, 2.41818740407423206307e+02) (10, -1.29011173151376667967e+00) (11, 2.16897338346140067245e+00) (12, 4.48656156240371501553e+02) (13, 2.11550233216230196831e+01) (14, -1.31992480928254996009e-01) (15, -3.23210907203517638919e+00) (16, 8.41698232370186929074e+02) (17, -1.15494827100781538576e+01) (18, 7.09495707402049049506e+01) (19, 3.73457081430503690100e+00) (20, 1.31938349453343750639e+01) (21, 7.23035727891566448733e+00) (22, 1.07663714550670541747e+00) (23, 1.28159790255107064461e+00) (24, -3.25067147228298714001e-02) (25, 1.09643982205211023029e+03) (26, -9.32566986924509500057e+00) (27, -1.52988991245341626746e-01) (28, -1.82231132163263120916e+00) (29, 1.44900536537024970940e+00) (30, 4.56589052226477861041e+02) (31, 1.08857153621050292713e+03) (32, 2.83648155756183015797e+01) (33, 1.94534915011152542696e+00) (34, -1.04842664349136676094e+01) (35, -9.56634724905653655025e-02) (36, 7.55813008463373080303e+02) (37, -1.12849957333880479560e-01) (38, 1.78986952708800437506e+01) (39, 2.01511306316524837712e+02) (40, -1.92213765521528356928e-01) (41, 9.61381196654482778285e+02) (42, 4.85613411671320591267e+02) (43, 3.15612591483586668595e-01) (44, -1.23217118338445050796e+01) (45, -6.29339610112905178951e-01) (46, 1.77066882232138400610e+00) (47, -1.08153367324382898573e+00) (48, 4.53454456178879866002e+02) (49, 1.50000000000000000000e+03) (50, 9.79180625007751892497e+00) (51, 1.11268200239709837973e+01) (52, 1.50096295003314168071e+02) (53, 4.00714736064094001478e+00) (54, 6.34061321210405282045e+00) (55, 1.22476569094139509097e+00) (56, 3.83240994690587911009e+02) (57, 6.08813628362526770843e+01) (58, 5.16430060656403400188e-01) (59, -1.07678860701385298304e-01) (60, -4.97174362455340343447e-02) (61, -5.51802739526877195075e-01) (62, 9.45841088016278419559e-01) (63, 1.13904854280408218692e+00) (64, -6.56688717668121313409e-01) (65, 9.99842539375890709819e-02) (66, 1.98834979162082163384e+02) (67, 5.41825103242893679756e-01) (68, 9.88401266083165780385e-03) (69, 9.11535880389015895631e-01) (70, 1.50000000000000000000e+03) (71, 7.78028568794835617695e+00) (72, 1.19191788956819685885e-01) (73, 1.24163832452335065604e+00) (74, 8.71671687826396091037e-02) (75, -1.59797727611322104568e-01) (76, -5.19558755771019550873e-02) (77, -1.72334516521119751609e-01) (78, 4.25426527138618004731e-01) (79, 6.98346528655080874159e+02) (80, 6.75640003835125185105e+02) (81, 1.03415306768080631628e+03) (82, 1.08513675029194314448e+03) (83, 8.83405034520339711435e+01) (84, -1.38880399960766676148e-01) (85, 5.64505924814989043625e+02) (86, -3.65390286323836619431e+02) (87, 7.19389942190478937079e+00) (88, 8.53787984919125442218e-01) (89, 3.66799882399257171528e+02) (90, 6.53502055263268477603e+00) (91, 6.22574401449513370466e-01) (92, 1.79536991453132372953e+02) (93, 1.68464655594446455211e+01) (94, 8.63817497935711831047e-01) (95, 8.80088976556945956631e-01) (96, 4.02474450402778938241e+00) (97, 3.74945358830467625921e+02) (98, 1.67603693426309918735e+00) (99, 6.65735542118174450366e+00) (100, 3.21050740213694680847e+01) (101, 4.67597074360843578678e-01) (102, 3.82195381967502534337e+00) (103, 8.76310527386126636884e+02) (104, 4.57523848721676642981e+02) (105, -1.13202258015010284731e-01) (106, -1.97216917144572256859e+00) (107, -1.39809374307702927176e+00) (108, -5.05010917808117376637e+00) (109, -9.58213587734457472589e-02) (110, -9.95547396656941474546e-01) (111, 1.99684486141785400015e+00) (112, 7.55030284092871273316e+00) (113, 2.60254723474325100341e-01) (114, 3.03170291579512807267e-01) (115, -1.56537657214735920208e-01) (116, 4.96658934402789157048e+02) (117, 1.00713927241293692560e+01) (118, 2.25480669358076202258e+00) (119, 2.92407760728679910756e+00) (120, 3.09226814182380804752e+00) (121, -3.45175446656615869667e-01) (122, 4.30417091136285989705e+02) (123, 2.03179300452349082207e+02) (124, 1.87418071912653638744e-01) (125, 7.69591758801073069662e+02) (126, 6.63875458226691989694e+02) (127, 1.61611243014201644286e+00) (128, 9.22770776318078667089e+00) (129, 6.75997387637521374160e-01) (130, 4.64185540553859596002e+02) (131, -2.22024370257910463877e+00) (132, 4.84431704818351590802e+02) (133, -9.44615121208413022202e+00) (134, -3.60553536560596683103e+02) (135, 4.91126977325055804613e+02) (136, 1.06006231712904263986e+03) (137, 1.65889475093817850393e+02) (138, -3.53341916517372012230e-01) (139, 6.78938396682541300819e-01) (140, 4.23077902396187425893e+02) (141, -2.22204160677309925376e+00) (142, 2.60429095169467586857e+02) (143, 1.46906158015722461130e+01) (144, 8.35726896396258666755e+02) (145, -5.62477597320822225724e-02) (146, 3.60928626321852075165e-01) (147, 8.77752400060825038963e+02) (148, 1.22847180013673607846e+02) (149, 1.11595117262626788990e-01) (150, 3.16262205413185348846e+00) (151, -4.86539067536107605605e+00) (152, 1.86355502778835898425e+02) (153, 1.25711832320686367481e+00) (154, 5.08327061445023975494e+00) (155, 1.12857591015076463847e+00) (156, 8.17520210808963421201e-01) (157, -1.36765079767111763509e+00) (158, -3.85247585058761665699e-02) (159, -1.93868366429992704525e+01) (160, -3.84913549381533048876e-01) (161, 1.19516478142868606938e+02) (162, -8.80650947876988055008e-01) (163, 6.52105473074883534856e-01) (164, 4.91697619816092446055e-01) (165, 1.14430863547350190856e+03) (166, -4.67635288277249316913e-01) (167, -1.80881230567658723984e+00) (168, 3.78708872935222062850e+00) (169, -7.71417148901951121864e-02) (170, 1.50616124385676314335e-01) (171, 1.26793651297108866949e+00) (172, 1.28371005377274666204e-01) (173, 6.47537629291017463595e-02) (174, 1.53861834458809720871e+00) (175, 7.20717223258670980357e+00) (176, -1.24388454606238679778e-01) (177, 6.91692370997839930169e+02) (178, 1.09271272102513350433e+02) (179, -2.97667509204505187359e-01) (180, 9.83766752665343746642e-02) (181, -4.63013709521180913953e+01) (182, 1.50000000000000000000e+03) (183, 5.35888159237432262216e+01) (184, -3.90629551090441062833e-01) (185, 4.46608090883927655312e+00) (186, 4.52649516341801505526e-01) (187, -2.14760801598235129273e-01) (188, 1.66295493442520370131e+00) (189, 7.01827198273628027891e+00) (190, -4.69278081441421335285e+00) (191, -6.55430904851198453676e-02) (192, -1.33131093077774015354e-01) (193, 2.88705894300487706516e+01) (194, -2.71407762198201785164e-01) (195, 3.20864351822919813273e+00) (196, 4.77587573705260570733e+00) (197, 3.31593952576047046321e+00) (198, 1.09929883609344142315e+03) (199, -2.55973853435789450855e-03) (200, -2.32665806401583241669e-01) (201, 2.47939623370443996464e+02) (202, -6.04231417807680304399e-01) (203, 2.57748487650156843376e-01) (204, -7.82903038200020717774e-02) (205, 5.25282016429220348641e+01) (206, -5.35529988700422010517e-01) (207, 4.99370614226443798600e+00) (208, -1.71995842422471611144e+02) (209, 5.74440359163594815861e-01) (210, -3.73719996711021351654e-01) (211, -3.90702576285505143172e-03) (212, 1.70576493079421076526e-01) (213, 8.50188526284213139661e+02) (214, 1.14930429379555629765e+01) (215, 9.41952401837554475605e+02) (216, 4.55969541888284479736e-02) (217, -4.36341590471515522465e-02) (218, 9.05956245951696215180e-01) (219, 2.55641493703563205120e-01) (220, 6.21090248893112857331e+02) (221, 8.89353847447786165503e+01) (222, -8.88162457792976312021e+00) (223, 5.64568314546396209153e+02) (224, 3.43678076628837558815e+01) (225, -9.68892987023508289735e-02) (226, -1.21227218305025613576e-01) (227, 4.53191201915541796996e-01) (228, -1.88304734258733530439e+00) (229, 2.30198401590235013359e+00) (230, -9.21542328922698317228e+01) (231, 1.50000000000000000000e+03) (232, -4.48174662526116263095e-01) (233, -5.43152794570946229058e-01) (234, -3.41380215882750082113e-01) (235, 1.07394820201452648689e+03) (236, 1.49957341509491641318e+02) (237, 1.23662718549457326844e+03) (238, -2.57325536928661724456e-01) (239, 1.49057183682533263891e+02) (240, 3.74539609009242768778e+00) (241, 7.05945648753382897667e+02) (242, -1.31894826269339682234e-01) (243, -4.63014350594988036147e-02) (244, 1.12708666352280317824e+00) (245, 1.07643290640985545004e-01) (246, -4.68873351912379305872e+01) (247, -3.22630141232711453725e+00) (248, 5.75960174115307495413e+02) (249, -4.54833953571101679003e-01) (250, 4.09502916167727715191e-01) (251, 3.10915412894657405829e+00) (252, 3.56022247915065008783e+01) (253, 6.74488934859247848408e+01) (254, -1.39511824843470189084e-01) (255, -6.11109828631916873753e-01) (256, 1.49217093579791515445e+00) (257, -4.50458598379136265777e-01) (258, -6.45914239084365571220e-02) (259, -5.44443207017868302522e-01) (260, -1.64578194801643762357e-01) (261, -3.10050187791770737178e+00) (262, -1.45059431159699325775e-01) (263, 3.90037806067311310088e-01) (264, 2.54753663311229172628e-01) (265, 2.20592130802410082424e+01) (266, 4.57093239488634139889e+02) (267, -8.12252186972021034128e-02) (268, 1.34658064576175795501e+00) (269, 2.22805000416944676278e-01) (270, -1.52923334395534488150e-01) (271, 1.29667165382234259141e+02) (272, -1.83819071848633690536e+01) (273, -5.65334263020982552561e-01) (274, 3.77543809827055767414e+01) (275, 4.65401622641967716021e+00) (276, 1.39043040080519177820e-02) (277, 1.28225642831450361570e+01) (278, -8.14263428241099873617e-02) (279, -1.75431753900791659317e-01) (280, -4.86499393626677600899e-02) (281, -8.26642421754110898746e+01) (282, 6.38025087101676945167e+02) (283, 1.18903077518647020128e+01) (284, 5.67352249456994695009e-01) (285, -1.55638635787198165161e-01) (286, 1.68606330697980162370e+01) (287, 1.14245185354395630384e+03) (288, 2.74998539757533233541e+00) (289, 1.82833751000197852754e+00) (290, -6.92366197387179660439e+00) (291, -2.30344655170684475820e+01) (292, 2.99561387145108817265e+01) (293, -4.04176010017329900847e+00) (294, -9.04844841066888339043e-01) (295, 5.30962610607062330814e+01) (296, -7.44284355693603655313e-02) (297, 1.21109025840725962553e+03) (298, 2.95627113254967295933e-03) (299, -2.78705883141591587160e-02) (300, 8.99372021290014367345e-01) (301, 4.40684419214445597390e+01) (302, 2.55137892662276488664e+00) (303, -2.22669192914170395170e+01) (304, 8.33395661294619616299e-01) (305, -3.74187436395921266263e-02) (306, 8.16343733747792654754e+00) (307, 4.93248098282233038425e-01) (308, -1.39369270060011896106e+00) (309, 6.27746395046631960213e+02) (310, 7.87196125672326843414e+02) (311, -7.32064198311749403381e-01) (312, 5.66621548217413506521e-01) (313, -1.36703597882109217920e+00) (314, 6.37829603083697960209e-01) (315, 4.27577965878918320186e+00) (316, -5.21582313232634153799e-01) (317, 1.27249637710530726781e-02) (318, -1.89489498938259393057e-01) (319, 6.00717756174768346966e+00) (320, 7.18736841622678639396e+02) (321, -2.43452880889348487192e-02) (322, -3.79795795592957549647e-02) (323, 5.74187183087143395710e+01) (324, 1.76342468639099592131e+00) (325, 1.34172491672183014089e+00) (326, 2.07063619990893199585e+00) (327, 3.95240243769039434341e-01) (0, -4.65390916290666154964e+02) (1, -1.55407799162824256101e+00) (2, 2.37827884195889112107e+01) (3, 1.50000000000000000000e+03) (4, -4.87967459063193054192e-01) (5, -1.66367313710596459453e-01) (6, 1.73786823593670902710e+00) (7, 5.25547079808000944467e+02) (8, 5.38264304422355732704e-01) (9, 6.96428127683530647118e+02) (10, 8.19658925626524870189e-01) (11, -2.98805746478709055580e-01) (12, 3.56665293410115737061e+02) (13, 2.05558575011314161429e+02) (14, -3.71989006497409069318e-01) (15, 9.05961582828870737316e-01) (16, 6.26855911712426177473e+02) (17, 2.79575379076603553585e+02) (18, 1.43507801368394757446e+03) (19, -1.20831927489709425316e+01) (20, -3.23804577623700311051e+02) (21, -1.39220438284238010596e+01) (22, -2.72907705450389281854e-01) (23, -6.64890336611278387480e-01) (24, 6.85380495856252047737e-01) (25, 2.54298022117754840110e+02) (26, -3.40069833471773108613e+00) (27, 6.57676173939763519805e-01) (28, 4.66905507007038256262e-01) (29, -4.71037105671297418041e+00) (30, 4.83402666902323517206e+02) (31, -4.45789029093308784013e+01) (32, -3.23767111063091803658e+01) (33, -2.47639736892687478687e-01) (34, -5.52315647546444843385e+00) (35, 8.03088675466826829030e-01) (36, 2.22072472864344263144e+02) (37, 8.95522504803413499364e-02) (38, -3.67140716056465743478e+00) (39, 2.46430893265147631155e+02) (40, -1.27654066743468908030e-01) (41, 4.12600153055863302143e+02) (42, 4.41942862450932977936e+02) (43, -3.58933023706757059479e-01) (44, -9.29657280220957993322e+00) (45, 1.84608969491389607320e+00) (46, -1.95687549988752564900e+01) (47, 8.62133969122943266683e-01) (48, 3.87862420454328741926e+02) (49, -1.73244050304824241948e+01) (50, 4.79388873921346436724e-02) (51, -3.67779189749598722781e-01) (52, 1.22643820148854501895e+02) (53, -2.32399667106584550957e-01) (54, 5.40269316415676037479e+00) (55, -1.34788774919271464592e-01) (56, 9.29522541692232806554e+01) (57, 1.80452617014252858496e-02) (58, -9.98392286924806339476e-03) (59, -1.69773147928400085505e+01) (60, 1.35823169134658111590e-01) (61, -1.74393485405541948108e-01) (62, -6.77663835125074442978e-01) (63, -7.93180221026519860494e-02) (64, 9.81329212069670053786e-01) (65, -1.00176111479632901080e+00) (66, -1.02031083557029660369e+01) (67, -3.06830446837456471965e-01) (68, -5.08622615527774768474e-01) (69, -6.73488268855768978938e+01) (70, 1.50000000000000000000e+03) (71, -2.51117041429072829217e+00) (72, 1.37041173034401358999e-01) (73, -3.15547650547170044355e-01) (74, -4.74392479265650535147e-01) (75, 1.27554299730587461514e-01) (76, 7.02384574489373747497e-01) (77, 2.15266586630076250941e+00) (78, -3.59221015187486880649e+00) (79, 1.09758203049556095721e+03) (80, 9.38830105700495550991e+02) (81, 7.65753608867418734008e+02) (82, 3.65562350223200041910e+02) (83, 2.22078344039258013254e+02) (84, -2.66216916469367319564e+01) (85, 4.75162573914906374739e+02) (86, -7.58754327063428379851e-01) (87, 5.09584873987947578611e-02) (88, -3.77868949900104098560e+01) (89, 4.86495708715408099465e+01) (90, -2.97147607612900577223e+00) (91, 7.59323031537705417371e-01) (92, 1.16544352521108240950e+01) (93, 4.23589014456632284578e+00) (94, -9.72298559925223884193e+01) (95, -2.78561575606775058134e+00) (96, -9.11097280587455138345e+00) (97, 4.31358241784790124029e+01) (98, -2.51665661335548795918e-01) (99, 6.83194860403323360742e+01) (100, 1.92225347282340663924e+01) (101, -1.42695290253653439549e+00) (102, -1.36156967574576792668e-01) (103, 6.78164174420307972468e+02) (104, 6.02704122726424884604e+02) (105, 1.53401850552933038951e-01) (106, 1.21372662566679201390e+00) (107, 6.98762234549584970722e-01) (108, -1.66973881515220989868e+00) (109, 3.39828033772393789391e-01) (110, -2.33237589485342425633e+02) (111, 1.66480424780038624988e+01) (112, -4.90525185281729836362e-01) (113, -6.28899698747182545056e-01) (114, 1.06312695659061958509e+02) (115, 1.14390414565136058767e-01) (116, 5.86673796431139294327e+02) (117, -8.02945167759208189295e+00) (118, -6.01383746420997553628e+01) (119, -1.55781835257410672391e+00) (120, -3.95653866424540590074e-01) (121, 5.62736900848640919648e-01) (122, 3.10593434880875278736e+01) (123, 2.60822614934707814882e+02) (124, -9.82316597314680017838e-01) (125, 5.03749878381143219030e+01) (126, 8.82466379007348336927e+02) (127, 4.03941132917529782675e-02) (128, 1.90383207141781895189e+02) (129, 2.19922894775462007821e-01) (130, 1.53757429038154896261e+02) (131, 3.33974506980262098033e-01) (132, 1.45293569730102888116e+02) (133, -5.11464912790519221630e+00) (134, 4.77434243560237980830e+00) (135, 6.10407975308042068718e+02) (136, 9.92068349912779808619e+02) (137, 1.15332223730561651109e+02) (138, 1.81827066841008733178e+00) (139, -3.78718088742323322204e-01) (140, 6.65846940632804717097e+02) (141, 6.43228994442885682048e+00) (142, 1.56722738347637822187e+01) (143, 8.58472237144467840153e+01) (144, 4.68206770792144595816e+02) (145, -1.71458477828269867382e-01) (146, 1.40485422850280261553e-01) (147, 4.30754291923224798211e+02) (148, 6.13457735095504972378e+02) (149, 4.64302564716758958685e-02) (150, 1.33062316223040610907e+00) (151, 1.02698176747686428789e-01) (152, 3.34902884437202658319e+02) (153, -1.70422615844692622034e+01) (154, -4.67216064478267911753e-01) (155, 5.33712111966859055201e+01) (156, -4.15152231649645819811e-01) (157, -2.97673267408878871265e+02) (158, -6.69676670806867657681e-01) (159, 3.52298048527704033006e+00) (160, -2.36409638562388446648e-01) (161, 1.91159690635558803251e+01) (162, 1.40517572677531094039e-01) (163, -6.92144580833430334010e-01) (164, -3.21146218301594399414e-01) (165, 6.91870115250913841010e+02) (166, 4.83901161858503070512e-01) (167, 5.09152645710050436034e-02) (168, -3.30232926723304953676e-01) (169, 2.72452609079543717208e-01) (170, -1.10756420463613469707e+00) (171, 2.15998910695806817239e-01) (172, 1.22135930943777851199e-01) (173, 5.37010543116807070874e-02) (174, -1.60101632855823849955e-01) (175, 5.21300450460855557822e+00) (176, 1.32520471909534909294e+00) (177, 3.84755845367487893327e+02) (178, -2.25484865654835360260e+01) (179, -2.50784116384408450884e+00) (180, -7.72606592928567037504e-01) (181, 2.27474613934650271574e+00) (182, 1.94704122266560943899e+01) (183, -7.45739903202196074972e+00) (184, 1.00983924834281690863e+00) (185, 9.88237153712842797404e+01) (186, -5.13099191006859634001e-01) (187, -5.76768959088179017369e-02) (188, -2.09530305350616231408e+02) (189, -1.26482692211242281344e-01) (190, 2.37562368095076124064e+01) (191, 7.29156843384268449348e-01) (192, -7.20246338761483806401e-01) (193, -4.34351176413480857263e+01) (194, 2.32664251124623078226e+00) (195, 1.93856170929962488003e+01) (196, -1.10097401455674415161e+00) (197, -2.31449933929244991759e+02) (198, 1.50000000000000000000e+03) (199, 8.21345898241445326882e-01) (200, 2.05166212949026011136e-01) (201, 1.90565961151554219555e-01) (202, 3.33066735929402502059e-01) (203, -1.91958583333387933223e+00) (204, 4.61511054647712859467e-01) (205, 3.09506565659043388905e+01) (206, 3.15463485065700766086e-01) (207, -9.58429820649559949253e-01) (208, -3.09827876415206882044e+00) (209, -4.02979460657650463418e+02) (210, 1.56374053296629789145e+00) (211, -1.25228732250907643930e+01) (212, -6.44354974814797670790e-02) (213, 4.88355861808284544168e+02) (214, -2.90653830511003796744e-01) (215, 4.37586605858229120258e+02) (216, -1.79512453020693851791e+00) (217, -4.27436853719317777500e-01) (218, -2.85132150527870886769e-02) (219, 6.57969475089758004671e-02) (220, 6.64100490009329632812e+02) (221, 1.29336553598549556909e+02) (222, 1.87285336616115882791e+00) (223, 4.75220968734404436873e+02) (224, 2.41029791342639441609e+02) (225, 8.67987893539101662554e-01) (226, 7.91545595325262474340e-01) (227, -1.70562868327053323014e+01) (228, -1.74773199783194638224e-01) (229, -4.26703702437881204901e+00) (230, 2.74924021441078032524e+01) (231, 2.11514164309033887434e+01) (232, 1.84881387095538984866e+00) (233, 9.00941857511172727868e-01) (234, 2.69902852805760096189e-01) (235, 1.03004984899002874954e+03) (236, 3.35118281001568163902e+02) (237, -3.08335098766287728722e+02) (238, 8.35607140052565977584e-01) (239, -2.84089162411127915675e-01) (240, 1.05676203743639817390e+02) (241, 1.63087528818151810128e+02) (242, 8.33704263952956714512e-01) (243, 6.86843238194117966522e-01) (244, -3.48973526728600380586e-01) (245, -7.73899076085940063052e+00) (246, -8.08242963055780272441e+00) (247, -9.98845314673744688605e+00) (248, -5.89797724502209845809e+01) (249, -1.12309142881258794411e+00) (250, -2.12810996952647990543e-01) (251, -1.91181251025080314321e+02) (252, -7.80029537494249591845e+00) (253, 4.06405549593531318919e+01) (254, 1.10017410100571061404e-01) (255, 1.03091479050411538587e+00) (256, -3.13269059930222290578e-02) (257, 2.47879380571361673802e+00) (258, -5.55309726711723570247e+01) (259, 1.09776599758324810985e+00) (260, 6.74294610198480581786e-01) (261, 4.85049107982804483807e-01) (262, 3.45165999397409467564e-02) (263, -2.17193629541575616848e-01) (264, -3.94015623874854838959e+01) (265, 6.97766085799990605665e+02) (266, -9.98353291062244920795e+01) (267, 5.37780637969028155188e-02) (268, -1.30186568569672181184e+03) (269, -7.05612602084845548234e+02) (270, 7.35014205655064811751e-01) (271, 7.49819320671483424690e+00) (272, -2.45888924422772991996e-01) (273, 1.79893653499130834472e-01) (274, 4.87612927064715051984e+02) (275, -1.89297778175536279832e-01) (276, 1.72954795288198848180e-01) (277, 1.12396645012728839674e+02) (278, 5.51419149617609294367e-01) (279, -2.84015411963369525383e-02) (280, 1.50992166385968740183e-01) (281, -7.32734856554150409957e-02) (282, 3.94015861799925176001e+02) (283, 4.03072752803226634910e+01) (284, -4.67013027516147219420e-02) (285, -9.73877111600350425791e-02) (286, -1.29212505309918401775e-01) (287, 4.41051540347972775180e+02) (288, -4.46579565586457505333e-01) (289, -1.74824757829944950061e+01) (290, 9.33236005644613314525e-02) (291, 1.04995839741084773244e+00) (292, 8.92800105913677732872e+00) (293, 9.95370575910777155570e+00) (294, -3.05276995591213240466e-01) (295, -2.47673778498608498921e-01) (296, 3.47327110305698960602e-01) (297, -8.16024177131059218482e+01) (298, -2.27788943371160845786e-01) (299, -2.46474005075209205984e+01) (300, -1.96883942258789346624e+02) (301, 7.80754710757360026463e+00) (302, -6.52946752496051345815e+01) (303, 3.01659174780219387912e+01) (304, -3.36623371412425931304e-01) (305, -1.43336045000563894192e+00) (306, 3.81815396650799755207e+02) (307, -1.66365083481093689599e-02) (308, 1.01226464445418717908e+00) (309, 4.74791133775865290545e+01) (310, 1.37751449871547447401e+03) (311, 1.21238531150423684002e-02) (312, -2.61556873750133753731e+01) (313, 1.45053444630687200512e-01) (314, -3.04557221206915640366e+00) (315, -5.14654558838549047728e-01) (316, 7.07672095084581287416e-01) (317, -4.40045668080255525378e-01) (318, 3.20789369642882182809e-01) (319, -4.92254911115747617600e+00) (320, 7.44848367475005716187e+02) (321, -1.54557799834433295949e+00) (322, 4.08724863230511339940e-02) (323, 2.80821258444050442904e+02) (324, -2.20081198058317752952e+01) (325, -6.51306722745611743619e+00) (326, -6.53433177589400893126e-01) (327, 7.37640813745691681369e-01) (0, 1.20968810435126332692e+01) (1, 5.86197402249841648114e+00) (2, 7.64618114130710637255e+02) (3, 1.50000000000000000000e+03) (4, 5.86649906506583662669e-01) (5, -2.48431650260866554447e-01) (6, 2.76639117970325143503e+00) (7, 1.14781809457460485646e+03) (8, 6.43381319121305805808e-01) (9, 1.50000000000000000000e+03) (10, 4.53043526767089088647e-01) (11, 1.68463779051518192098e+00) (12, 1.50000000000000000000e+03) (13, 7.09749995190147046742e+02) (14, 1.86463048798499855252e+01) (15, 1.17566427381356088944e+01) (16, 1.42540232289765663154e+03) (17, 7.60295466912593042252e+02) (18, 4.62269681657626335891e+02) (19, 9.26393752117019908532e-01) (20, 1.00097243543283582312e+03) (21, 3.12764021989356511000e+00) (22, 1.04723613538219306740e+00) (23, 3.65852466094299000332e-01) (24, 1.12572933726812185462e+00) (25, 9.44631818424416223934e+02) (26, 2.24387189200599550531e+01) (27, 2.44969602619579118752e+00) (28, 2.41175078606488080268e+00) (29, -3.83275293478554868187e+00) (30, 1.50000000000000000000e+03) (31, 2.24480204330028811910e+02) (32, 2.94021774948134906325e+00) (33, 4.21555939536310120275e+00) (34, 3.88897133820408527072e+01) (35, 2.56361654027835683678e+00) (36, 1.34801315866262780219e+03) (37, 1.88164131698302572460e+00) (38, -9.23832622714628737270e-01) (39, 1.50000000000000000000e+03) (40, 3.04503894291396193239e+00) (41, 1.50000000000000000000e+03) (42, 1.45860413523682223058e+03) (43, 2.44255620274964702077e+00) (44, 2.87533070449965357795e+01) (45, 4.31181180589349288823e+00) (46, 1.21199945897100377579e+02) (47, 5.49632117847600798477e-01) (48, 2.27675953798157649999e+02) (49, 6.34098718860437656986e+02) (50, 2.73887048184697334818e+02) (51, 9.40480280194456668141e+01) (52, 7.05312867934545124626e+02) (53, 2.91660814895814457515e+00) (54, 1.04285843335246823926e+02) (55, 1.23880301257671021631e+00) (56, 1.50000000000000000000e+03) (57, 5.38232032908014890182e+00) (58, 1.95024020766592709464e+00) (59, 1.20428856592393462854e+00) (60, 3.31193230544247674274e+00) (61, 1.22843779813581566174e+01) (62, 2.36710430916825442793e+00) (63, 1.35724919885343031645e+00) (64, 2.38424706638044492379e+00) (65, 7.10748408825709265813e+00) (66, 1.13123031163856853709e+03) (67, 8.21962080243987869288e-01) (68, 1.69052339298632747777e+00) (69, 2.92248567662308289528e+00) (70, 1.50000000000000000000e+03) (71, 5.03832430996486380081e+00) (72, 8.17774978108343986172e-01) (73, 4.04407316602629463009e-01) (74, 5.71554650844112388519e-01) (75, 2.29883870403259482629e+00) (76, 1.22906177280330086710e+00) (77, 5.02634038239864633368e+00) (78, 3.17454712626274080378e+01) (79, 1.50000000000000000000e+03) (80, 1.49664982351938579086e+03) (81, 1.14992920751908695820e+03) (82, 1.50000000000000000000e+03) (83, 1.50000000000000000000e+03) (84, 8.71230833412216743028e-01) (85, 1.50000000000000000000e+03) (86, 9.82568437577618283285e+02) (87, 2.06688910826789751241e+00) (88, 3.14682951463364046774e+00) (89, 7.02900746084108277500e+02) (90, 3.94873150454307531021e+00) (91, 1.31859373820886127682e+00) (92, 8.62796007702913584581e+02) (93, 4.68025838507077082795e+02) (94, 3.30493025751789737399e+00) (95, 1.06329311249443225762e+01) (96, 8.86916118403457787167e+00) (97, 1.43424695272732719786e+03) (98, 2.38846438342982442249e-01) (99, 1.50000000000000000000e+03) (100, 7.29201962724284157957e+02) (101, 3.02585269697036229886e+00) (102, 5.48664213523160881891e+00) (103, 1.50000000000000000000e+03) (104, 1.50000000000000000000e+03) (105, 2.63068366422690536055e+00) (106, 1.97067647509133170303e+00) (107, -1.42547594982206038416e-01) (108, 7.43221900829574195768e+01) (109, -1.18343526571385937451e+00) (110, 3.22230444761518253216e+00) (111, 3.10747900827541059243e+02) (112, 9.57974595901262659936e-01) (113, 1.60098453826875952721e+00) (114, 2.84926562845561988979e+02) (115, 1.04058123136405944464e+00) (116, 1.50000000000000000000e+03) (117, 3.60969235655404041552e+00) (118, 3.02854583473683533157e+02) (119, 4.45047106843712825253e+00) (120, 1.30647648309750952222e+00) (121, 1.11698538605187991379e+00) (122, 1.10524551715881852942e+03) (123, 1.50000000000000000000e+03) (124, 3.47193468681857453362e+00) (125, 1.50000000000000000000e+03) (126, 1.50000000000000000000e+03) (127, 6.43358660627603118343e+00) (128, 1.02792385127154784641e+03) (129, 7.35999925359809514802e-01) (130, 1.42540279812548942573e+03) (131, 1.16615272220055232744e+00) (132, 1.42446846741497120092e+03) (133, 3.88278657176250163729e+01) (134, 2.01165528754705125181e+00) (135, 1.50000000000000000000e+03) (136, 1.50000000000000000000e+03) (137, 1.18474604544974840792e+03) (138, -5.02579709031049284146e-03) (139, 1.75893150182515656255e+00) (140, 7.96454139540443065926e+02) (141, -3.82337480528328832463e-01) (142, 1.33481030353562141499e+03) (143, 1.10422877854944795217e+03) (144, 1.50000000000000000000e+03) (145, 2.46580439396582828948e+00) (146, 1.02230629262297760818e+01) (147, 9.43952379359919632407e+02) (148, 9.68043828000121607147e+02) (149, 3.45461804698181751405e+00) (150, 6.45770148813520528108e+00) (151, 1.62699174182211558914e+00) (152, 1.17959249702575334595e+03) (153, 7.89895672051429276195e+00) (154, 3.63151953471220911851e+00) (155, 4.27217665574700475872e+01) (156, 2.93679224157937435180e+00) (157, 2.48116162929083081679e+01) (158, 1.34956060717130421622e+00) (159, 1.47494314058546693857e+00) (160, 3.17473704643339704745e+00) (161, 9.70243049044686131310e+02) (162, 2.36758523914726115578e+00) (163, 1.68801434498156655017e+00) (164, 4.90757836930011706045e+01) (165, 1.50000000000000000000e+03) (166, 2.68930643515808487365e+00) (167, 1.27177494817295544394e+00) (168, 4.31384028098106675486e+00) (169, 3.10393161732990963131e+00) (170, 1.20550089268971216683e+00) (171, 2.17798529410568209030e+00) (172, -1.25348214103212307613e+00) (173, 3.22327493096241957105e+00) (174, 1.83987981008282752704e+00) (175, 2.57725731107695537503e+02) (176, 5.93360708406945547289e-01) (177, 1.50000000000000000000e+03) (178, 1.89303115933541334925e+01) (179, 5.25438166382425109191e+00) (180, 2.95255357067811230465e+00) (181, 3.73348463482742731756e+00) (182, 1.17768549039648041799e+03) (183, 7.70808215119631086054e+02) (184, 3.83543171069764987635e+00) (185, 7.40099565261229486168e+02) (186, 3.09726143627213712506e+00) (187, 1.50709057592119743951e+00) (188, 4.36702998935565460670e+02) (189, 3.04463577221884884594e+00) (190, 1.05888794685406219287e+03) (191, 1.01413189261744673964e+00) (192, 3.08832790523261113691e+00) (193, 4.53117874639371009948e+00) (194, 9.29269435252977893391e-01) (195, 1.48310963431139157365e+03) (196, 8.26736211371195928166e+00) (197, 4.25676072298707719455e+00) (198, 9.40317811699226695055e+02) (199, -3.32195119095384372443e+00) (200, 5.11187571445926547398e+00) (201, 8.89557599611594355338e+02) (202, 7.67492281565608114313e-01) (203, 1.43685405678412547736e+00) (204, 1.09534232169120948619e+00) (205, 1.87550840021013584646e+02) (206, 1.20339022269781947827e+00) (207, 8.27929480103873238761e+00) (208, 5.04884146374429576554e+02) (209, 1.99163919710887000747e+02) (210, 3.07269388457045034002e+00) (211, 1.45591923818246660183e+00) (212, 8.45117084097168103085e+00) (213, 9.42373763579970386672e+02) (214, 1.11161580116722169542e+00) (215, 1.50000000000000000000e+03) (216, 8.66207984226144422912e-01) (217, -1.48979544359407550802e-01) (218, 1.55774522287327910064e+00) (219, 2.74115996450348369251e+01) (220, 1.50000000000000000000e+03) (221, 1.32573421833117185997e+03) (222, 1.89012103801518236423e+01) (223, 1.50000000000000000000e+03) (224, 7.06991174571946885408e+02) (225, 3.07709936931701699692e+00) (226, 3.21777025165429364506e+00) (227, 3.09669336341263257140e+00) (228, 6.95043716551181489649e+00) (229, 1.09976226888168469031e+01) (230, 3.92879349639745534262e+00) (231, 6.94817200402872913401e+02) (232, 7.99862079610487386461e-01) (233, 2.11946224498217850041e+00) (234, 9.29484821849493547674e-01) (235, 9.43793464304912959051e+02) (236, 4.64120671930860169141e+02) (237, 4.68590564751928653209e+01) (238, 6.09628728527446095420e-01) (239, 2.95020194410947347308e+01) (240, 1.39586055993745958403e+03) (241, 8.73083275636736061642e+02) (242, 1.19416254634938456825e+00) (243, 9.26686872696107055702e-01) (244, 2.43110424511701639361e+00) (245, 3.85704319627138403348e+00) (246, 2.54260431025732245303e+01) (247, 3.59269194734395611590e+01) (248, 1.89636936109611070833e+02) (249, 3.49636722293756818658e+00) (250, 3.08264754672333873842e+00) (251, 1.66191521919822875475e+01) (252, 7.70803047843963895502e+02) (253, 4.70878241520670485443e+02) (254, 8.25012042997190553351e-01) (255, 8.00341537806109926123e+00) (256, 1.98247904714287526140e+00) (257, 3.50528848386862845743e+00) (258, 2.99432490066843026710e+00) (259, 2.81655443614135692076e-01) (260, 1.60662424356006745541e+01) (261, 1.21803708522544305026e+01) (262, 1.89475894893742058400e+00) (263, 1.84538752377142151184e-01) (264, 1.75826814071466985823e+00) (265, 1.50000000000000000000e+03) (266, 1.24972506708110472573e+03) (267, 3.75405678202378956243e+00) (268, 3.62784672880903880099e+00) (269, 2.95652062962523665135e+00) (270, 8.41452354744996799951e-01) (271, 1.35865248826056335929e+03) (272, 9.53145046418497088325e+01) (273, 7.66401972526967067978e-01) (274, 1.50000000000000000000e+03) (275, 4.63211551003882693323e+00) (276, 1.30503786234175711556e+00) (277, 6.94085142825784600973e+02) (278, 2.00802017012628963855e+00) (279, 7.98333380281101012699e-01) (280, -8.56253537627712946190e-01) (281, 3.84222508247418261362e+02) (282, 1.23427951149858972713e+03) (283, 9.53961730115367117833e+02) (284, -1.76108818828353469454e-01) (285, 1.52965956720454498985e+00) (286, 1.27380640250975485372e+00) (287, 1.50000000000000000000e+03) (288, 1.71020691196349483576e+00) (289, 2.08632105322881699294e+02) (290, 1.45405175235070274198e+01) (291, 1.26829196754139648107e+01) (292, 1.18462285927939137764e+03) (293, -5.28767415230371007340e+00) (294, 1.42409539875467161529e+00) (295, 1.37761957943235347557e+03) (296, 9.36870065627349979387e-01) (297, 1.13900174762449159971e+03) (298, 9.94636502939193922757e-01) (299, 7.60117146767003037944e-01) (300, 5.11540590212419221672e+00) (301, 1.06069300034275784128e+03) (302, 3.88149463356265878033e+00) (303, 8.31579664895758924104e+02) (304, 3.68104971219472298927e+00) (305, 4.33572864274715738531e-02) (306, 1.22368003578030538847e+03) (307, 2.25682160477682902666e+00) (308, 3.26710699631255874209e-01) (309, 1.35868649200260256293e+03) (310, 9.51741351482103254966e+02) (311, 1.07733344452004509151e+00) (312, 3.09205706438447602835e+00) (313, 7.86898200705054318149e+00) (314, 5.19682600151157725321e+00) (315, 2.51378295735102108566e+00) (316, 6.72498954033072804393e-01) (317, 1.49473172852354729834e+00) (318, 3.38934241535671754164e-01) (319, 3.30970249763740369531e+01) (320, 1.29790948454702424897e+03) (321, 1.41200433358958221675e+00) (322, 1.06945596759266337017e+00) (323, 9.01594765192887962257e+02) (324, 2.93004529081461750906e+00) (325, 4.24978433959002259712e+01) (326, 2.01709583103988077113e+00) (327, -1.49846769191256778964e-01) (0, 5.82458028663232596500e+00) (1, 5.43009412947675684791e+00) (2, 1.50000000000000000000e+03) (3, 1.50000000000000000000e+03) (4, 2.89766365232944789199e+00) (5, 3.74593400950428234708e+00) (6, 1.93288351219367338096e+00) (7, 1.14790337818257785329e+03) (8, -6.28379466240007455990e-02) (9, 1.50000000000000000000e+03) (10, 1.43782500767505383443e+00) (11, 2.34171840418346377533e+00) (12, 1.32621181234003597638e+03) (13, 4.66670248885508897274e+02) (14, 4.46005399156237913871e+01) (15, 1.23589519990711202979e+01) (16, 1.50000000000000000000e+03) (17, 7.53479457664223673419e+02) (18, 6.49512972807039886902e+02) (19, 1.91977724602322141756e+00) (20, 7.53321200457009695128e+02) (21, 4.16651567887988250050e+00) (22, 1.84372253168467947759e+00) (23, 6.61224543622530580578e-01) (24, 1.33081605019865567563e+00) (25, 1.18476415156228063097e+03) (26, 2.18876932026714001722e+01) (27, 2.21507174123138828037e+00) (28, 5.28392456296790236081e+00) (29, -4.40093614161717550104e+00) (30, 1.50000000000000000000e+03) (31, 1.10645106971169616372e+03) (32, 3.12229776829282812400e+00) (33, 3.50875197859156084945e+00) (34, 1.29909820667745037781e+02) (35, 1.75645156095621457482e+00) (36, 8.69734332165140131110e+02) (37, 4.16983094161533607291e+00) (38, 8.08225750596032299633e-01) (39, 1.37758682431437910054e+03) (40, 3.11369726877651453734e+00) (41, 7.74484926256743960948e+02) (42, 1.43488957878660721690e+03) (43, 2.60789425938139407535e+00) (44, 2.79633078309713916099e+01) (45, 1.90721684407357372493e+00) (46, 3.93263377118741672689e+01) (47, 1.90409019391540090815e+00) (48, 2.29081311680323551627e+02) (49, 1.50000000000000000000e+03) (50, 4.58565665861817208793e+01) (51, 4.49128674425967062689e+01) (52, 1.18966116707629248594e+03) (53, 2.87795932922318531411e+00) (54, 2.50034294637588573096e+02) (55, 3.73646547300207920728e+00) (56, 1.42084194398728686792e+03) (57, 2.91895052749853007867e+01) (58, 7.97476897758753544565e+00) (59, 1.89669168200011917236e+00) (60, 7.49838153961827558192e+00) (61, 7.55681736851599481497e+01) (62, 3.19401774923819692376e+00) (63, 2.31823408019576326922e+00) (64, 2.05353176403179604748e+00) (65, 3.40164957105736576182e+01) (66, 1.13048151669012986531e+03) (67, 2.50626817921947653289e+00) (68, 3.93451908449203857643e+00) (69, 3.03197674829728969215e+00) (70, 1.50000000000000000000e+03) (71, 4.98704780436108663366e+00) (72, 1.63266645660148190800e+00) (73, 4.04558312846490686354e+00) (74, 3.86471385565567171483e+00) (75, 3.69433842885750118867e+00) (76, 1.87416286927657571582e+00) (77, 2.93786366521573105715e+00) (78, 1.63369302435965266795e+01) (79, 1.50000000000000000000e+03) (80, 1.49596520567801303514e+03) (81, 9.39816156817623323150e+02) (82, 1.03485252490544644388e+03) (83, 1.18776198152851247869e+03) (84, 2.83699490611182580935e+00) (85, 1.50000000000000000000e+03) (86, 1.31035147534632551469e+03) (87, 1.30641324531205249571e+00) (88, 7.21943433308980164753e+00) (89, 7.02900093335745168588e+02) (90, 3.68963167634212174661e+00) (91, 2.80198671569761614819e+00) (92, 1.07890430227024762644e+03) (93, 7.13951944125059526414e+02) (94, 3.21854662814639613799e+00) (95, 5.61548084851684503604e+00) (96, 5.51520180444045582391e+00) (97, 8.44105332266362779592e+02) (98, 1.05783213764358876574e+01) (99, 1.09142729523142998005e+03) (100, 1.00341429392596660364e+03) (101, 3.03352662270991846327e+00) (102, 6.27774697045127894057e+00) (103, 1.50000000000000000000e+03) (104, 1.50000000000000000000e+03) (105, 3.12712819755557047685e+00) (106, 1.89638902430059963500e+00) (107, 9.33387584204138920363e-01) (108, 7.41529566490551559355e+01) (109, 1.57387544653754596347e+00) (110, 3.34073320421297692562e+00) (111, 6.58760432835779567995e+01) (112, 1.05321457174445654026e+00) (113, 3.38876550345033011880e+00) (114, 5.54069993836800094300e+01) (115, 2.43631990534462472553e+00) (116, 1.50000000000000000000e+03) (117, 1.00025815702024072351e+01) (118, 1.17951670507158183909e+01) (119, 4.44670424118944485059e+00) (120, 2.63360949772749552977e+00) (121, 2.84627645855182853651e+00) (122, 1.10267428826324203328e+03) (123, 1.19070656298449512178e+03) (124, 6.57355144950244074664e+00) (125, 1.50000000000000000000e+03) (126, 1.50000000000000000000e+03) (127, 1.59633543823976751241e+01) (128, 6.65430755032248043790e+02) (129, 2.53554945140340848297e+00) (130, 1.42407877115129713275e+03) (131, 2.13355348521799204065e+00) (132, 1.50000000000000000000e+03) (133, 1.29829863122941418396e+02) (134, 5.06367809697977921957e+00) (135, 1.50000000000000000000e+03) (136, 1.50000000000000000000e+03) (137, 1.42495137719532067422e+03) (138, 6.38732838209568165588e-01) (139, 2.37729038611935417080e+00) (140, 7.95410997925742094594e+02) (141, -4.16119235184579827624e-01) (142, 8.75903776044362189168e+02) (143, 3.83767995854875493933e+02) (144, 1.50000000000000000000e+03) (145, 2.05339436377701689551e+00) (146, 9.89469007569641512134e+00) (147, 1.42314423014679687185e+03) (148, 7.40414633811230601168e+02) (149, 3.40706883583720898656e+00) (150, 1.24246796098657412699e+01) (151, 1.81856018614892733787e+00) (152, 1.31351700613921298100e+03) (153, 2.50573127281254626197e+00) (154, 3.69269801707656775136e+00) (155, 9.94659134543847756049e+01) (156, 3.10087351950557010838e+00) (157, 4.17474002441866964830e+00) (158, 2.63398397951849494447e+00) (159, -2.96356493195477910252e-01) (160, 7.80234207483201913647e+00) (161, 1.33621261694110194185e+03) (162, 5.21241991875105359355e+00) (163, 5.75831463728827053217e+00) (164, 1.60315223574758327629e+01) (165, 1.35857938978436413890e+03) (166, 1.88452917340287640080e+00) (167, 2.56137956511391351455e+00) (168, 5.51906296562130016525e+00) (169, 2.54889494802994365230e+00) (170, 4.99308779016472303880e+00) (171, 1.68938343133401724927e+00) (172, 3.92890327102570047213e-01) (173, 2.32547314170844465764e+00) (174, 6.03192573217153338305e+00) (175, 2.24569915399094206521e+01) (176, 1.34457078748438307869e+00) (177, 1.50000000000000000000e+03) (178, 1.87969644583169497309e+01) (179, 1.26068394274669355326e+01) (180, 3.10934163762668447362e+00) (181, 1.21046574744959900549e+00) (182, 1.50000000000000000000e+03) (183, 1.10290436501642466283e+03) (184, 3.02713028508126802407e+00) (185, 3.43020419580855161712e+02) (186, 3.05912981793189420188e+00) (187, 4.78904441401257141564e+00) (188, 4.96949284246029634460e+01) (189, 3.65013891755024122432e+00) (190, 1.29899631705411707117e+03) (191, 1.75108924543540145358e+00) (192, 3.27365395968782113556e+00) (193, 4.52352223174908729675e+00) (194, 1.23723797089102616198e+00) (195, 1.24177065284217860608e+03) (196, 8.24549595606101171086e+00) (197, 2.17611024394403962390e+00) (198, 9.47900211781608049932e+02) (199, -5.52721970743118085068e+00) (200, 1.18308667985073014961e+01) (201, 1.14363630917896693973e+03) (202, 2.43998452999290371679e+00) (203, 9.50694589898934161454e+00) (204, 1.71302335006532735484e+00) (205, 1.88008134675532858182e+02) (206, 2.33970781308855668712e+00) (207, 3.14579803188330453523e+00) (208, 8.05578069621665122213e+02) (209, 2.09717714819640299595e+01) (210, 3.51232364284115394781e+00) (211, 2.93116757017879869807e+00) (212, 1.97313170334684677698e+01) (213, 1.17810440456460855785e+03) (214, 4.23717509271002690241e+00) (215, 1.50000000000000000000e+03) (216, 5.33687489241612311730e+00) (217, 2.66376329022287228199e+00) (218, 8.65417862724116471185e-01) (219, 6.61277717518445840028e+00) (220, 1.50000000000000000000e+03) (221, 9.76531236681688710632e+02) (222, 1.07337873631596139035e+02) (223, 1.50000000000000000000e+03) (224, 7.04787783898726729603e+02) (225, 3.18958804890485803085e+00) (226, 2.62104394868291024068e+00) (227, 2.95324416414763746275e+00) (228, 9.70209073078779660193e+00) (229, 1.44721415365496373084e+01) (230, 8.69508201240039646507e+00) (231, 5.65303081889767099710e+02) (232, 5.50505801206107592272e-01) (233, 2.18068262467825224604e+00) (234, 2.35036369678964085494e+00) (235, 1.41935201871371009474e+03) (236, 7.03949108743003307609e+02) (237, 4.68534406224196757762e+01) (238, 9.00291493114389607122e-01) (239, 2.98101195095915194599e+01) (240, 1.07903803579010968861e+03) (241, 1.09558644960188144069e+03) (242, 1.62310201656071551035e+00) (243, 1.72091079429298021708e+00) (244, 3.68854281978336473458e+00) (245, 4.23086469464971592913e+00) (246, 1.45026405079296495160e+02) (247, 8.58255884976549197063e+01) (248, 4.66367813907999277490e+02) (249, 1.03949055023568295297e+01) (250, 3.32388776759425219609e+00) (251, 2.85415639437764712127e+00) (252, 1.10281349321668744778e+03) (253, 7.16190904007193466896e+02) (254, 4.16496732797099511458e+00) (255, 3.32927254602583699850e+00) (256, 1.51656833359643883341e+00) (257, 2.60621227955604650717e+00) (258, 3.03983638481454843117e+00) (259, 1.51440579661895835528e+00) (260, 3.13103193113740418951e+00) (261, 2.88766937660893781015e+01) (262, 6.64752334571909031524e+00) (263, 2.65726864180857091924e+00) (264, 3.82904782755100558944e+00) (265, 1.50000000000000000000e+03) (266, 7.91443276841791771403e+02) (267, 4.37795580177157006574e+00) (268, 2.92910818261909877691e+00) (269, 3.19340974931078980248e+00) (270, 1.34446783072730924324e+00) (271, 1.50000000000000000000e+03) (272, 2.27655955743499987420e+02) (273, 3.01604805651845131464e+00) (274, 1.33642490366812535285e+03) (275, 5.24192631306027934102e+00) (276, 7.64087478912134265840e+00) (277, 1.35176376596561368615e+02) (278, 9.45924456683938785773e+00) (279, 2.86486395512281966091e+00) (280, 7.16438731141154527826e-01) (281, 9.61377979084272510590e+02) (282, 1.23337678205276483823e+03) (283, 7.07906478249981319095e+02) (284, 2.14198475207635796735e+00) (285, 3.82626272221680396868e+00) (286, 3.06001605759502526283e+00) (287, 1.26877620652038990556e+03) (288, 2.14213165534765792586e+00) (289, 1.84929891549741753920e+01) (290, 6.10917495338394758164e+01) (291, 3.00855853337422907146e+01) (292, 5.32089578426901425701e+02) (293, 1.69843905269536354918e-01) (294, 4.09392001833050045434e+00) (295, 1.37676732274523897104e+03) (296, 1.63887289394851443092e+00) (297, 1.50000000000000000000e+03) (298, 1.52123257453266069739e+00) (299, 1.56664754504135372848e+00) (300, 9.28512770833904355072e+00) (301, 1.35957312973040643556e+03) (302, 3.99274252011755104164e+00) (303, 1.24878359625271741606e+03) (304, 2.66320468709206314983e+00) (305, 2.25933717589844773599e+00) (306, 6.57080001247628615602e+02) (307, 2.74097357962597643066e+00) (308, 1.78234122132791616977e+00) (309, 1.50000000000000000000e+03) (310, 9.52382104873457365102e+02) (311, 1.75674970500328453404e+00) (312, 6.35001135206448541481e+00) (313, 1.86159116883204838189e+01) (314, 2.72740410215192685683e+00) (315, 1.97048115684769586942e+00) (316, 1.98263358524422872442e+00) (317, 3.34088591166745851879e+00) (318, 1.13545067597845483753e+00) (319, 3.47180651842312357758e+01) (320, 9.92286960079803407098e+02) (321, 2.94290734744777893184e+00) (322, 6.37870299079118652230e+00) (323, 7.69003342798521089207e+02) (324, 2.98320587474792553451e+00) (325, 1.00019112047189310033e+02) (326, 3.52608524540296874861e+00) (327, -3.24214664514384853788e+00) (0, 4.29477689606031720615e+00) (1, 7.36966499395323548782e+00) (2, 1.35843691837673168266e+03) (3, 1.50000000000000000000e+03) (4, 1.66337455439900916421e-01) (5, 2.30011954380701488798e-01) (6, -2.16866730807868113295e-01) (7, 7.62824573484796928824e+02) (8, -3.97540994200132224989e-01) (9, 5.26846712656058784319e+01) (10, 8.31575182832714893122e-02) (11, 8.15563041694524093472e-01) (12, 3.01943548718533122610e+02) (13, -3.79495425074464449722e+01) (14, 2.41851928264312698857e+00) (15, -1.21398224266112961800e+01) (16, 6.16981401107714191312e+02) (17, -1.56546059807657407248e+01) (18, -2.82950029698894525154e+01) (19, 7.97103961680304506920e-01) (20, 1.15228657751255858521e+00) (21, -4.94469360877599850568e+00) (22, -3.56915665748345090763e-03) (23, 5.06331091026120810872e-02) (24, 4.17010534453108872022e-02) (25, 6.10740006556049138453e+02) (26, -4.27802935462706535041e-01) (27, 1.93523611896004116284e-01) (28, 1.24102827649882936356e+01) (29, 2.07661455794981719691e+00) (30, 5.79900475259319478027e+02) (31, 3.95864618869287312464e+02) (32, 3.81647636683417612602e-02) (33, 7.53759008604543007115e-02) (34, 6.22521980817910680628e+00) (35, -3.83936494958966824040e-03) (36, 1.30592642055518357580e+01) (37, 1.25127639154338471394e-01) (38, -1.24556767675843227394e+00) (39, 2.30110986588222147020e+02) (40, 1.22944582082968351111e-01) (41, 1.09296091295541970112e+02) (42, 6.50686579901327064590e+01) (43, 6.59938469784983938737e-01) (44, -3.71863819549602014902e+00) (45, 9.52822477106366583222e-01) (46, 1.42963857416241091336e+00) (47, -6.25455983578078467122e-02) (48, 2.77655695186299567467e+02) (49, 1.18285379065464030646e+03) (50, 3.75586522641562936542e+00) (51, -5.54221553006310863054e+00) (52, -9.92584081922119310093e+00) (53, -2.64551252027491967667e-01) (54, 3.05529779184006073933e+01) (55, 1.94230840658074499494e-01) (56, 4.03257756625467038702e+01) (57, 5.22110397813643967169e+00) (58, 2.25187804944436686938e+00) (59, 4.77451827884463469998e-02) (60, 2.36919250103370382377e+00) (61, 5.27861928675516844933e-01) (62, 8.46929757194825549860e-01) (63, 4.66575595208025661886e-01) (64, 1.67021387806325499747e-01) (65, 5.90113053654390123937e-02) (66, 1.09448784243187162701e+01) (67, 5.76593731228271955125e-01) (68, 1.53183764672028488452e-01) (69, -1.04133395580527499114e+00) (70, 1.50000000000000000000e+03) (71, -7.09868287254597607472e-01) (72, 1.53280573529863156645e-01) (73, -2.32443639973321597436e-01) (74, 3.02872632920638262810e-02) (75, 6.73599999573447516532e-01) (76, 1.52321266377441089102e-01) (77, 1.02992584089040906115e+00) (78, 1.78469219837163461939e-02) (79, 4.65613011176845475347e+02) (80, 9.36203923794922957313e+02) (81, 7.51944988643207011592e+02) (82, 1.93268540549288218244e+02) (83, 1.39325701221909594096e+03) (84, -1.03399565843827345724e+00) (85, 1.07702884483496609391e+03) (86, 1.64750978569223285319e+01) (87, 9.88856188500214372539e+00) (88, -2.75722317166052832693e-01) (89, 1.17356461214321981856e+02) (90, -1.37730724129469433992e-01) (91, 4.61301744116727030498e-01) (92, 6.58520188245487588574e+02) (93, 7.51942655698291559929e+01) (94, 6.30641344196329001193e-01) (95, -3.41130709248551433621e-01) (96, 9.31416693663941891446e-02) (97, 1.37088261341808568261e+01) (98, 4.17357267644648866067e-01) (99, 9.82613899529337231797e+02) (100, 3.33550811084867405043e+02) (101, -2.38382624484456337455e-02) (102, -1.28287172546957184416e+00) (103, 9.92728350299396851142e+01) (104, 5.93540436709538312243e+02) (105, 1.59388350637527709264e-01) (106, 6.97616158479807957349e-01) (107, 8.08640670567197829277e-03) (108, 5.33294415062883242484e+00) (109, -5.74757302577940743307e-04) (110, 4.30196983362487905822e+00) (111, 7.25775952648709976600e-01) (112, -2.39779512946937245488e+00) (113, -1.01048568310617770116e+00) (114, 5.81654838106933311792e+02) (115, -3.55869743993563565285e-04) (116, 6.37082349883971943427e+01) (117, -1.25764427865694061737e+00) (118, 7.27699186309019863117e-01) (119, -4.41228941921886086419e+00) (120, 9.97497000832139546489e-01) (121, 4.64004392941313958953e-01) (122, 6.14968071713715403348e+02) (123, 2.87911941921867082783e+02) (124, 9.44986278862116196864e-02) (125, 9.60915154784972358470e+00) (126, 6.98607590669824730867e+02) (127, 1.65724167549428780255e+00) (128, 6.13889494053054018963e+00) (129, 1.14687718740900113090e-01) (130, 1.07546042380757626233e+02) (131, 1.29358117729720412115e+01) (132, 1.42906201167298172550e+03) (133, 5.78353463655846589120e+00) (134, 4.63490597762605816001e+00) (135, 7.26232096191278287733e+02) (136, 4.70394786025712221544e+02) (137, 6.37150069233147860359e+02) (138, -7.28765571065827066910e-01) (139, -1.11713247867156639792e+00) (140, -2.19366814005273056409e+01) (141, -2.36414140783503778920e+00) (142, 2.34012998514490050184e+02) (143, 2.35324737848051540823e+02) (144, 2.81083962693219916673e+02) (145, -2.73661797464963621462e-02) (146, -1.99558261354023755985e+01) (147, 4.49670051795653876070e+02) (148, -1.67555819111170023916e+02) (149, 1.88924675701297728470e-01) (150, 1.45317532814054994894e+00) (151, -2.45519747968651724790e-01) (152, -2.82928367314678261835e+01) (153, 2.53704131476361922637e+01) (154, -1.75727438811306746480e+00) (155, 2.54978833095087731309e+00) (156, 1.61054908975096694457e-01) (157, -6.33045567766767330181e-03) (158, 1.06212393020346232073e-03) (159, 9.84506546461894754829e-03) (160, 1.07484328041054885694e-01) (161, 2.79892908028172314516e+02) (162, 2.61789437536588387445e+00) (163, 1.75691691431945594404e-02) (164, -1.49878698554408579247e-01) (165, 5.70552103476786214742e+02) (166, -9.16219264570010683002e-02) (167, 1.58028870454151681990e+00) (168, -9.09843631674807223897e-02) (169, 2.51161954816751298303e-01) (170, 5.11813655234647613135e-01) (171, -3.65864064823498091883e-01) (172, -3.19914163663522876924e-01) (173, 1.64785265394483015911e-01) (174, 5.12054889657903800071e-01) (175, 4.52919291172627325182e+01) (176, -7.93225525961799154961e-02) (177, 9.38094120588800819860e+02) (178, -3.15143343321276470093e+00) (179, 3.95688315336497842267e-01) (180, 4.86240806509727271911e-02) (181, 1.50083558959789448162e-01) (182, 1.06032705278189587261e+03) (183, 4.10185955646849208733e+02) (184, 2.16186223883324063477e-01) (185, 6.41138462818347942829e+00) (186, -2.01189513473217611306e-02) (187, 2.67250662882227874029e-01) (188, 8.06725301433320329814e-01) (189, -2.21737189331903872258e+00) (190, 5.90297089831918864178e+00) (191, -6.71446782329800095912e-03) (192, 1.10189375185799076640e-01) (193, -6.54851531492808902613e+00) (194, -1.20400438268697687616e-01) (195, 3.58400624037951956780e+02) (196, -1.16059761164540448108e-02) (197, 1.38626781235775853318e+00) (198, 8.54717949847872660030e+02) (199, -8.21737885372785525906e-02) (200, 5.32104052662275450736e-01) (201, 8.96313694465825392399e+02) (202, 1.10199030928694485798e-01) (203, 2.17023970921500941600e-01) (204, 1.54466850269064814860e-01) (205, 5.50786779308029892377e+01) (206, 1.65484583436165610948e+00) (207, -2.40583232488064213683e+00) (208, 3.20281836233340300168e+01) (209, 9.71771807663999176441e-01) (210, 1.21718010978822466228e+01) (211, -1.52021449165028854633e-01) (212, 1.90450557389718805323e-01) (213, 6.75653853267810063699e+02) (214, 1.21515115768985118572e-01) (215, 5.08781878078754459693e+02) (216, -1.56588558975875508095e-01) (217, 1.50180540498896231139e-01) (218, 4.56308740796836254106e-01) (219, 8.89269406418341068488e-01) (220, 8.24301105100133213455e+02) (221, 2.48533585575178392446e+02) (222, 6.30896268108643880623e+01) (223, 1.07685649170885744752e+03) (224, 3.07769143341421624882e+01) (225, 9.15095380412659642477e-02) (226, 4.70997499963156374125e-02) (227, 6.11147453294582435057e-02) (228, 2.41215648963018338691e+01) (229, 1.09783127890486165157e+00) (230, -4.40985780752239520552e+02) (231, 1.99380573253113482224e+01) (232, -5.39643948068043860511e-02) (233, 7.74891242365577520568e-02) (234, -5.82912350740482070738e-03) (235, 6.86001403089675022784e+02) (236, 3.20791056715351174944e+00) (237, 2.54056609797329624456e+00) (238, -2.01017360017222701529e-01) (239, 3.47747313822111037140e+00) (240, 8.94055015871378827796e+02) (241, 1.58516552572361973716e+02) (242, 6.41907239381863392591e-02) (243, -3.30795925524191500311e-02) (244, 7.01852547403972626405e-01) (245, 1.90631028863064572176e-02) (246, 2.19335635641466843992e+01) (247, 3.02616388813269985292e+01) (248, 9.14810441027567691208e+01) (249, 9.58504793269471244699e-02) (250, 2.56516903824475124563e-02) (251, 7.79759415410992140494e-01) (252, 5.20756787420021737489e+02) (253, 3.10484550331758484276e+01) (254, 1.69948206881842062144e-01) (255, -3.65537697846462572571e+00) (256, 4.59674559555571238256e-02) (257, 6.03259673135834284530e-01) (258, -8.12972832812528314883e-03) (259, 1.13846102760978645785e-01) (260, -2.39381023985893361811e-03) (261, 9.87358306097886218033e-01) (262, 2.77170417864099176419e-02) (263, 5.29445805822377546512e-01) (264, -2.71233073640930397175e-02) (265, 8.57087832415591606150e+01) (266, 2.37266097922556440381e+01) (267, 1.81141249327069459030e-01) (268, 4.69084376923859114328e+00) (269, -1.30336213947210982633e-01) (270, -1.29493644352980052936e-01) (271, 5.91624339348967964725e+02) (272, 7.12672767672778473269e+00) (273, 3.18234402816391126478e+00) (274, 1.50000000000000000000e+03) (275, 6.87264357638730227773e-02) (276, 9.28502762049744356787e-02) (277, 2.27661244561101439032e+00) (278, 1.07589887449575552503e-01) (279, 2.79044044977090399673e-01) (280, 5.37869734187409395676e-02) (281, 1.24281891243673072722e+01) (282, 9.71613913309401908691e+01) (283, 6.84498890348298459685e+02) (284, 6.10733791957548677320e-02) (285, 3.52138542054158676375e-01) (286, -1.09010271103023836936e+00) (287, 5.12213138618958510051e+02) (288, 7.22414743979875040303e-01) (289, 1.26600646389755966403e+00) (290, 4.85278823656312940926e+00) (291, 9.70335083765338346495e+00) (292, 1.21192049253106102213e+01) (293, 6.45365257574151751641e-01) (294, 3.00803707802081099487e-01) (295, 1.88093408954370687525e+02) (296, -4.13919375573765999099e-02) (297, 1.50000000000000000000e+03) (298, 3.33154972073704189195e-02) (299, 2.73700846548130227731e+00) (300, 1.57012610836358779132e+00) (301, 5.10908894170797339029e+02) (302, 4.46302465786634905420e-02) (303, 5.79177512025774717586e+02) (304, 5.86150186622870883468e-01) (305, -9.58376499493996669710e-02) (306, 7.51633319709051647806e+02) (307, 1.70377599757115139045e-01) (308, -2.83171140968442425212e-01) (309, 8.59688861135888714671e+02) (310, 7.52748308142433870671e+02) (311, 6.79069803255725763097e-03) (312, -3.99365005957856233909e-01) (313, 1.19228986316103768850e+00) (314, 2.80918045930868720550e-01) (315, 1.90366699181944953878e+00) (316, 1.81570400775799861703e-01) (317, -3.15719193849882187597e-02) (318, -7.98337071225893812887e-01) (319, -4.33989460856754405427e+00) (320, 9.48600512087951841522e+01) (321, -1.62012831701970783094e-01) (322, 3.32485725999472157138e-03) (323, 1.73175287787676204232e+01) (324, -6.37805785123284674221e-01) (325, -1.86782825091680260154e-01) (326, 9.96051303703093582342e-01) (327, 2.95427080510691886239e-01) (0, 1.41537262384402007243e-01) (1, 1.42748992241449244034e+01) (2, 7.04599427279257270129e+02) (3, 1.50000000000000000000e+03) (4, 1.38791977917308351209e+00) (5, 2.18084817693980109743e-01) (6, 3.16709596394711134781e-01) (7, 1.50000000000000000000e+03) (8, 4.77400013136247380885e+00) (9, 2.51422016874655923857e+02) (10, 6.57535492835287505020e-02) (11, 2.00650446167986462598e+00) (12, 1.05926360739879640960e+02) (13, 1.50000000000000000000e+03) (14, 1.72155230189424268694e+00) (15, 1.85612772590737784562e+00) (16, 6.92055631726985211571e+02) (17, -6.17885749490883284807e+00) (18, 1.50000000000000000000e+03) (19, -1.44481002194219970702e-01) (20, 6.29938647539569096523e+00) (21, -7.13002801947788422687e-01) (22, 1.78911342800235373396e+00) (23, 3.04813186428528171135e+00) (24, 3.71518244215099269212e-01) (25, 1.50000000000000000000e+03) (26, 1.19854511795309576883e+02) (27, -1.68736466672801205258e-01) (28, 1.25323236291622697181e+00) (29, 2.75953987866386474259e-01) (30, 1.04289139312552379124e+03) (31, 1.76680226546377838304e+02) (32, -3.53950138173848438683e+00) (33, 1.14104970163793772997e+00) (34, 6.11871069430913117060e+00) (35, -1.01178146076783478935e-01) (36, 5.99247220583510014080e+01) (37, 1.41911166842492408868e+00) (38, -1.85468427839239735633e+00) (39, 1.44533835661461665723e+02) (40, 1.39309118608613569101e+00) (41, 6.10419538435803360699e+02) (42, 7.35783907287522083607e+02) (43, 2.82400233567872693818e-01) (44, 1.18471466525684343551e+00) (45, -4.39965848016696692291e-01) (46, 1.13988346423203878999e+01) (47, 1.79728232635293500019e-01) (48, 1.50000000000000000000e+03) (49, 9.64693426642709141561e+02) (50, 1.24494207250317288072e+01) (51, 8.16614886162158049032e-01) (52, 1.50000000000000000000e+03) (53, 1.14589495679366404346e+00) (54, 1.53015448980017282565e+02) (55, 4.09310496747352814406e-01) (56, 1.09791053394100579510e+01) (57, -1.20247857854519565879e-01) (58, 2.23695927841795683122e+00) (59, 2.09495601379014600996e-01) (60, 1.83979632066981735328e+00) (61, 7.07872803248536097698e+00) (62, 8.23983164220989050541e-01) (63, 1.91838600699898359503e-01) (64, -2.67394176827192686652e-01) (65, 7.96932541886677814347e+00) (66, 1.72276162486900794590e+01) (67, 3.22546869743780106887e-01) (68, 8.91762536217120871385e-01) (69, -1.26911404089838542042e+00) (70, 1.50000000000000000000e+03) (71, 9.15985162196385371836e-01) (72, 4.19662396472260890157e-01) (73, 9.06507207326970920747e+00) (74, 3.26840469734865302076e-01) (75, -2.43954449430135250632e-01) (76, 1.60876470145396716083e-01) (77, -1.78555048272323055869e+01) (78, 1.20981097335482279398e+00) (79, 7.55745962582145580200e+02) (80, 9.61815418410381425929e+02) (81, 1.50000000000000000000e+03) (82, 5.90819339097383362969e+02) (83, 6.41931069448533833111e+01) (84, -2.18654696468076981120e+00) (85, 1.24638177413115522540e+03) (86, 2.02695194779984255717e+01) (87, 3.18631039570197049926e+00) (88, -1.88960361940139098813e+00) (89, 1.50000000000000000000e+03) (90, 6.30691387496847166716e-01) (91, 4.07471505421930668689e+00) (92, 4.56590235527190770881e+02) (93, 5.25508403931592198433e+01) (94, -9.54434996353240028277e-01) (95, 2.05279659501470277405e+01) (96, 6.48663591540018273918e+01) (97, 3.51988669122660326138e+02) (98, 1.20339235168880717697e-01) (99, 1.52962815292275138290e+02) (100, 7.91117198527305589550e+01) (101, 1.06416683096541286879e+00) (102, 5.94203116850606227750e-01) (103, 9.26077917531007187790e+02) (104, 6.35532627769473037915e+02) (105, 1.62760896392374482256e-01) (106, 4.98125662328507023968e-01) (107, 3.01636380373930201859e-01) (108, 1.15879426671036539487e-02) (109, 2.42846617561205735392e-01) (110, -1.07658691037516485167e+00) (111, 1.98141333333261537852e+00) (112, 4.22876647062023902635e+00) (113, 5.47569193556983635496e-01) (114, 1.49341079507083918543e+02) (115, 3.19896726783877649591e-01) (116, 3.62238852496847187012e+02) (117, 1.42911357419488425080e+01) (118, 1.41055398623222405519e+00) (119, 3.43189758797422139747e-01) (120, 4.22058815373013374028e+00) (121, 1.65411117306081356659e+00) (122, 1.00589916891577217939e+02) (123, 4.51618938592588961001e+02) (124, -1.35571390596234252895e-02) (125, 9.17540655843983330442e+01) (126, 1.14944270897108049212e+03) (127, 1.58423036965558350353e+00) (128, 2.52587509102571807773e+01) (129, 3.73539450850314314057e-01) (130, 7.34396105791105355820e+01) (131, 2.73622799428032914548e+00) (132, 2.93220438448968081957e+02) (133, 8.34805492986561148427e+00) (134, 8.94679743615119882350e+00) (135, 5.75748405313430339447e+02) (136, 5.52060752391259711658e+02) (137, 5.73895762394663961459e+02) (138, 6.39736091168247611449e+00) (139, 7.82784095865400075809e+00) (140, 1.50000000000000000000e+03) (141, 1.46870174787207872669e+02) (142, 1.50000000000000000000e+03) (143, 1.05633769435243550561e+02) (144, 4.75473555992966282702e+02) (145, 5.93112272929798400867e-01) (146, 6.60901654907255720062e-01) (147, 1.50000000000000000000e+03) (148, 1.50000000000000000000e+03) (149, 1.15079393991018519294e+00) (150, -2.45772247350816916422e-02) (151, 1.93042428064763837980e+00) (152, 1.50000000000000000000e+03) (153, -6.27532022779700882076e-01) (154, 3.73626949704398247931e-01) (155, 5.29016677404651659344e+02) (156, 9.00239708012278705418e-01) (157, 6.35501355160043995829e-02) (158, 2.02140870120466692450e-01) (159, 1.87625593051206018824e-01) (160, 2.84399731206029704467e+00) (161, 2.09635452519559606799e+02) (162, 1.68559071924421077782e+00) (163, 1.96714113187384687098e-01) (164, 5.58679406149538237969e+01) (165, 1.27949716561684340377e+03) (166, 3.74306320464631436806e+00) (167, 1.91292742812842964106e+00) (168, 8.10050633403484265926e-01) (169, 2.53360510638651881266e+00) (170, 2.44742422933262593343e-01) (171, 1.94030320885124041297e+01) (172, 1.12911306347427320418e+01) (173, 2.00301616921838232521e-01) (174, 1.12871164955439029498e+00) (175, 2.62789224924435815822e+00) (176, 8.67910649988473115179e-01) (177, 2.14293956641879390190e+02) (178, 8.50064407709282543468e-02) (179, 2.04704787342652423376e+01) (180, 1.59946564522589129709e+00) (181, -8.42388958482613026124e-02) (182, 1.25770460789527533052e+03) (183, 4.21430267231533619565e+01) (184, -5.63469973615580710380e-01) (185, 5.63879015373289504964e+00) (186, 6.66198124307790684462e-01) (187, 1.40544209929547281313e+00) (188, 1.33383265241250059674e+00) (189, 2.56229909518254028722e-01) (190, 2.09451220443235285984e+02) (191, 1.28864039786234868545e-01) (192, 1.07186674017243532830e+00) (193, -9.98123241557468787732e+00) (194, 2.36168774200550796172e-01) (195, 1.54318656389315577826e+02) (196, 6.21626591093040858915e-01) (197, -3.78701977683202239966e-01) (198, 1.50000000000000000000e+03) (199, 2.85480828406326958557e+00) (200, 3.38627109622429278701e+00) (201, 3.61981275696272035702e+01) (202, -1.09645011723361364420e-02) (203, 1.62781348532578973298e+00) (204, 1.33476728057215471290e-01) (205, 9.90841334941972490924e+02) (206, 1.47187860812785942244e+00) (207, -6.18658885612983211466e-02) (208, 1.50168970237742005480e+01) (209, 8.80133498535955793862e-01) (210, 4.54409827060997389969e-02) (211, 8.02444522290699513434e-01) (212, 1.03726038194146807925e+00) (213, 1.50000000000000000000e+03) (214, 4.66846251061109773772e-01) (215, 4.02080331603484125935e+02) (216, 4.67227741524592090627e+01) (217, 1.10213989196874155851e+01) (218, 6.23473274617543427034e-01) (219, 3.07725152658757705737e+00) (220, 5.90721419979100346609e+02) (221, 1.82585021345758718780e+02) (222, 4.15847790184496489019e+02) (223, 1.24636031803855917133e+03) (224, 1.48909630342182526874e+03) (225, -2.77997954666435120874e-01) (226, -4.14101860508387820126e-01) (227, 1.08590534699682694786e+00) (228, -1.56977601939414582177e-02) (229, 9.33018322125836907510e-01) (230, 1.50000000000000000000e+03) (231, 9.80877647523907683080e+01) (232, 7.69741304189629271804e-01) (233, -6.84028806814045431395e-02) (234, -1.84961409490593114979e-01) (235, 1.50000000000000000000e+03) (236, 1.29974641785445442110e+03) (237, 2.08575075327532118763e+02) (238, 3.01863697686191478908e-01) (239, 1.19018785761754450903e+01) (240, 9.93516635723440515449e+01) (241, 1.50000000000000000000e+03) (242, 2.32041008467165854601e-01) (243, 1.34130049753165336845e-01) (244, 9.40694757116147473042e-01) (245, -2.52806309730238742972e+00) (246, 5.38029428842343282469e+00) (247, 2.40747750544014404994e+00) (248, 1.09436324241462834550e+01) (249, 1.19961996697544903689e+00) (250, 1.14599078314317193161e+00) (251, 5.91996586840350391689e-01) (252, 1.92039881769857800009e+02) (253, 2.94631554100328330037e+01) (254, 3.83981870940786826352e-02) (255, 2.52399666492775587301e+01) (256, 9.69804947270288542072e-02) (257, -2.45335707418372517274e-01) (258, 9.69648240992485255241e-01) (259, 8.94798203665756797243e-01) (260, 3.09074934979354953857e-01) (261, 2.20013579474013143411e+00) (262, 1.10284553493314474437e+00) (263, -6.54694353296669251385e-02) (264, 8.88575008570350877157e-01) (265, 4.37404366990717790031e+02) (266, 8.17244185818647821407e+01) (267, 3.53595268222588954288e+00) (268, -2.11800297292827011120e-01) (269, 4.70437902762392390343e-01) (270, 9.21529260748661649405e-02) (271, 2.67252659043629023472e+02) (272, 5.52899410604697649774e+00) (273, 2.78815346490897120191e+00) (274, 1.64045445473431811934e+02) (275, 1.67748860348116957120e+00) (276, -2.69113314840272233042e-01) (277, 1.56377479842581603720e+01) (278, -3.75741578869059733581e-01) (279, 1.06594532007378361982e+00) (280, 2.42477513792514498547e+00) (281, 3.57789959892328397473e+01) (282, 5.59563353762465339969e+02) (283, 2.17851888932578461322e+01) (284, 2.15070066641701529431e-01) (285, 8.34365441766545701263e-01) (286, 3.20926146790251276553e-01) (287, 6.36190972497988582290e+02) (288, 4.90903544454030560384e-01) (289, 1.39247229761594959463e+00) (290, 2.96660280462782299793e+00) (291, 9.04217895623797929261e+00) (292, 8.28132246557528262088e+00) (293, -4.04269182504645163689e-01) (294, 4.76847848693386477947e+00) (295, 8.89075884700617677936e+01) (296, 8.56248081720937359584e-01) (297, 7.05166521829138787325e+02) (298, 1.81105718865996401234e+01) (299, 8.81017943993280372439e-01) (300, -2.03845922685619240777e-01) (301, 8.48630149949752308203e+02) (302, 7.67424574581989649147e-01) (303, 7.37070901488235790566e+02) (304, 3.17649644950009968358e-01) (305, 4.58025940886433613475e-01) (306, 1.27903471163098387819e+02) (307, 3.50976646648087975411e-01) (308, 1.61309808171632482754e+01) (309, 3.29015013059389389127e+02) (310, 1.50000000000000000000e+03) (311, 2.21396223608203035482e+00) (312, -1.72851313266679323943e-01) (313, 5.40646148167038287369e+00) (314, 7.00826635083977911300e-01) (315, 1.54704560360066856184e+00) (316, 1.94269369281750453604e-01) (317, 5.43356873390408279256e-01) (318, 1.00159855865252076512e+01) (319, 1.41415014315816423007e+00) (320, 5.65384540059290884528e+02) (321, 1.14269393218891792685e+01) (322, 8.83243134965477627585e-02) (323, 1.52975943868045078489e+02) (324, -1.96802363830901239083e+00) (325, 2.62782645542164402741e+02) (326, 1.25973978183946150322e-01) (327, -4.98749068676146156687e-02) (0, 8.55656727096956970513e+00) (1, 1.53036591316868753054e+00) (2, 4.88905621532934105744e+02) (3, 1.50000000000000000000e+03) (4, 3.16396867346098753515e+00) (5, 4.82214092454149978462e-01) (6, 5.63091441628430722233e+00) (7, 1.48389461526327681895e+03) (8, 1.54455863086228606385e+00) (9, 1.50000000000000000000e+03) (10, 4.35449655346123876143e+00) (11, 1.37623657775820062987e+00) (12, 1.32639779737623030087e+03) (13, 1.48966119777322501250e+03) (14, 4.55265750107442102035e+01) (15, 1.61097576134223800182e+02) (16, 1.50000000000000000000e+03) (17, 5.38269847692275334339e+02) (18, 1.18529754343124250227e+03) (19, -1.23512501448566680562e-01) (20, 7.53756471741687960275e+02) (21, 4.74198296345878234082e-01) (22, 1.22382788608897463689e+00) (23, 4.08718749486556454098e-01) (24, 1.63181425688886339032e+00) (25, 1.50000000000000000000e+03) (26, 2.92489157690039007775e+01) (27, 3.79653792317893756803e+00) (28, 3.19611776310939319501e+02) (29, -4.71906666511863637226e+00) (30, 1.50000000000000000000e+03) (31, 9.43035617438678883673e+01) (32, 1.67031484675110886151e+00) (33, 1.68599726227982360527e+00) (34, 6.61697667510413111813e+02) (35, 1.76545897430959208840e+00) (36, 8.70812612237186272068e+02) (37, 2.85082362065964822762e+00) (38, -4.17280612877027579088e+00) (39, 1.37799547117669635554e+03) (40, 2.64613529946283598804e+00) (41, 7.73403930190948472045e+02) (42, 1.43547807160771321833e+03) (43, 3.40325354998975582177e+00) (44, 3.59790628912620604751e+02) (45, 3.06275323713909397583e+00) (46, 3.47261164501378374325e+01) (47, 1.93835233811680707205e+00) (48, 7.11762802408667994314e+02) (49, 6.33990370022198135302e+02) (50, 4.59973581488869456280e+01) (51, 8.21274306489008409926e+00) (52, 1.44103962733954176656e+03) (53, 1.70535616019783553554e+00) (54, 1.50000000000000000000e+03) (55, 4.29784664215442635538e+00) (56, 1.50000000000000000000e+03) (57, 2.03781078302276341674e+01) (58, 1.07097275040509121169e+01) (59, 3.05538967684243312206e+00) (60, 6.75448050379988362835e+00) (61, 1.58134183446373643989e+01) (62, 4.03274077937967501128e+00) (63, 1.68004811478819671144e+00) (64, 6.63605054290746476653e+00) (65, 8.03907621415982731605e+00) (66, 1.13108168409046879788e+03) (67, 1.57986675996385073084e+00) (68, 4.59594511483671119834e+00) (69, 1.53047794539738357678e+00) (70, 1.50000000000000000000e+03) (71, 4.69009250625986640060e-01) (72, 1.23095130680217956787e+00) (73, 5.91366434236991977969e+00) (74, 1.32956268091298568379e+00) (75, 8.53514170093953872254e+00) (76, 1.15766205700597346606e+00) (77, 1.30496818771558897865e+00) (78, 2.06478611415344870395e+00) (79, 1.50000000000000000000e+03) (80, 1.49650453124231671609e+03) (81, 1.41457782637590707964e+03) (82, 1.34548840446707094998e+03) (83, 4.30763414223476729603e+02) (84, 4.33465488156231870676e+00) (85, 1.50000000000000000000e+03) (86, 1.50000000000000000000e+03) (87, 4.49088528728005265123e+00) (88, 1.29988152311920313053e+00) (89, 9.45879688500815518637e+02) (90, 1.14623641278580579161e+00) (91, 2.85986915139123221152e+00) (92, 1.50000000000000000000e+03) (93, 1.50000000000000000000e+03) (94, 1.67550752245963296971e+00) (95, 1.08735630297031926617e+00) (96, 2.18107132533709524580e+00) (97, 8.43382232373755982735e+02) (98, 8.59181918105891107018e+00) (99, 8.48127431176549407610e+02) (100, 1.50000000000000000000e+03) (101, 2.72680651437846544027e+00) (102, 4.22583341225344888414e+00) (103, 1.50000000000000000000e+03) (104, 1.50000000000000000000e+03) (105, 3.16022440168665363913e+00) (106, 7.72814357014245612021e+00) (107, 1.47595873823809387027e+00) (108, 8.75500937127821202921e+02) (109, 5.65191986981248839506e-01) (110, 3.46589812454601808867e+00) (111, 6.65325857851254909292e+01) (112, 5.30899678232004457179e-01) (113, 4.46010648151648481097e-01) (114, 1.27466853200227376419e+02) (115, 3.07004246238277911374e+00) (116, 1.50000000000000000000e+03) (117, 2.45175397387765663382e+01) (118, 2.62488570626690247423e+01) (119, 1.48189225178747174816e+00) (120, 2.17524747535380758023e+00) (121, 4.46082229880780456455e+00) (122, 1.10267550367645480947e+03) (123, 1.19130139225245284251e+03) (124, 2.32124819777253321718e+00) (125, 1.50000000000000000000e+03) (126, 1.50000000000000000000e+03) (127, 6.28315579991662165327e+00) (128, 6.52443055561194000802e+02) (129, 1.22546900146805626264e+00) (130, 1.42473218141386064417e+03) (131, 1.01505550548816110279e+01) (132, 1.50000000000000000000e+03) (133, 6.61852069472127141125e+02) (134, 8.46527798251848118127e+00) (135, 1.50000000000000000000e+03) (136, 1.50000000000000000000e+03) (137, 1.50000000000000000000e+03) (138, 1.26450226862025516539e+01) (139, 1.56773531915939212666e+00) (140, 1.08696793322921212166e+03) (141, 6.29373975286738751578e+00) (142, 1.50000000000000000000e+03) (143, 4.54903941133073260517e+02) (144, 1.40392339476487632055e+03) (145, 1.86026838806143812732e+00) (146, 3.39507821382947083677e+00) (147, 1.50000000000000000000e+03) (148, 1.21031622150360362866e+03) (149, 3.05105869915727812014e+00) (150, 9.38082776057166256578e+00) (151, 1.67699007789581977512e+00) (152, 1.50000000000000000000e+03) (153, 4.60533119784243538675e+00) (154, 6.42384213736655884652e-01) (155, 4.81301590346288392652e+01) (156, 1.68186035527420485458e+00) (157, 5.03758857805606474756e+00) (158, 6.53147394468938458090e+00) (159, -2.38593109850997076027e-01) (160, 9.11189346375589970251e+00) (161, 1.33747159525278880210e+03) (162, 1.99956028914973273913e+01) (163, 2.60146775706810640116e+00) (164, 2.65935504478571349551e+00) (165, 1.35910794937518903680e+03) (166, 7.24276153506860781439e-02) (167, 8.72075817673247755124e+00) (168, 1.35391494118372013311e+00) (169, 2.40485961309569251654e+00) (170, 1.78252103830583630284e+00) (171, 1.84315912358819988803e+00) (172, 8.25874961816884689547e-01) (173, 1.81368158961434855492e+00) (174, 8.70113399814991028691e-01) (175, 3.17813271057504342920e+00) (176, 1.18416866520538004437e+01) (177, 1.50000000000000000000e+03) (178, 2.53892278722590125639e+00) (179, 7.75248596082125551732e+00) (180, 2.78510077951327783552e+00) (181, 3.64183720914332020868e+00) (182, 7.75318569336456903329e+02) (183, 1.10418087833660160868e+03) (184, 3.74215496395355717851e+00) (185, 3.43704197590367812154e+02) (186, 1.75476341294750803890e+00) (187, 4.26801674697016508730e+00) (188, 3.30859192611163379638e+01) (189, -6.15730962642011103725e-01) (190, 1.50000000000000000000e+03) (191, 2.41046624202853143615e+00) (192, 2.93169732334994348477e+00) (193, 1.30082608987081949081e+00) (194, 5.20573393552600638401e+00) (195, 1.10929256117510340118e+03) (196, 3.16276665504003684504e+00) (197, -3.39319601049819175032e+00) (198, 1.19711210009488650030e+03) (199, -1.14894355158588918897e+01) (200, 1.05825942832647807990e+01) (201, 1.14494207228647451302e+03) (202, 1.46190144034899138781e+00) (203, 9.03255940322845063406e+00) (204, 9.87076232833014821644e-01) (205, 2.06449254416157202741e+02) (206, 3.63929649786670106337e+00) (207, 2.11000322733429035438e+00) (208, 1.50000000000000000000e+03) (209, 5.17408483754708186098e+01) (210, 1.73061990391100839481e+00) (211, 1.64386141230904980759e+00) (212, 2.27399163803546286999e+01) (213, 1.42028259947456785994e+03) (214, 1.89705724178172130401e+00) (215, 1.50000000000000000000e+03) (216, 4.00032927720809272643e+00) (217, 2.08169606382408645118e+00) (218, 1.51663345284184059025e+00) (219, 6.56357574131703369602e+00) (220, 1.50000000000000000000e+03) (221, 9.76978827367273424898e+02) (222, 8.89835876918751182529e+02) (223, 1.50000000000000000000e+03) (224, 9.16106070708591914808e+02) (225, 5.76836531582372291638e+00) (226, 4.99529823031801889499e+00) (227, 1.64025512068346812633e+00) (228, 1.34827964585379138640e+01) (229, 1.52373851380092295571e+00) (230, 1.17858074566144182427e+02) (231, 5.06784978431609616223e+01) (232, 2.14540569106736889182e+00) (233, 4.65113661817214296690e+00) (234, 2.30737210861022878916e+00) (235, 1.42751373823751146119e+03) (236, 1.18118907187848367357e+03) (237, 7.30855606171467897525e+00) (238, 1.24955292098869774620e+00) (239, 1.24829013481299639921e+01) (240, 3.67313416483942319246e+02) (241, 1.36309366205394121607e+03) (242, 1.25311594912698121007e+00) (243, 9.06558200774402744848e-01) (244, 1.39462613523538836446e+00) (245, 3.27623149485407783033e+00) (246, 1.50000000000000000000e+03) (247, 2.05842370674241976758e+02) (248, 8.12940007212551662974e+00) (249, 5.51606126485564196571e+00) (250, 1.72151760934160491523e+00) (251, 3.94655540691177719737e+00) (252, 1.10416988609271561472e+03) (253, 7.20588139383439738594e+02) (254, 1.45992400725447080134e+00) (255, 1.08341083628293802121e+02) (256, 1.49185833754499008741e+00) (257, 1.58593635796669785165e+00) (258, 2.56867586287641325171e+00) (259, 2.18641145736870123883e+00) (260, 3.74887959206670231538e+01) (261, 1.64790746947185709814e+02) (262, 3.23953480276209981881e+00) (263, 4.42796713138066622140e-01) (264, 1.71107338759837901421e+00) (265, 9.47373051201407974986e+02) (266, 1.24975238150561949624e+03) (267, 4.60668836534116543646e+00) (268, 6.15600893713989183453e+00) (269, 2.52766104342131381344e+00) (270, 1.34851104388022968728e+00) (271, 1.50000000000000000000e+03) (272, 1.39526077085288557100e+03) (273, 5.54067296120855523611e+00) (274, 8.98118107224549589773e+02) (275, 1.12921684430076330052e+00) (276, 1.62984693860423890399e+00) (277, 1.36021986883340787244e+02) (278, 2.01694139860390064811e+00) (279, 2.83688168981168686855e+00) (280, 7.07722266253361098620e-01) (281, 1.50000000000000000000e+03) (282, 1.23404580032055400807e+03) (283, 9.22762882136429539059e+02) (284, 1.27307788838004376508e+00) (285, 3.02666625726877924762e+00) (286, 7.93005687054092689436e-01) (287, 1.50000000000000000000e+03) (288, 1.09625213916621211396e+00) (289, 1.14540741040326032874e+01) (290, 1.01138763848647599275e+02) (291, 2.03670525052747564132e+02) (292, 5.32153103783253754955e+02) (293, -1.54153802792747596229e+00) (294, 6.59883635634571241724e+00) (295, 1.37738045464010406249e+03) (296, 7.68336460073507199198e-01) (297, 8.99551770647316629947e+02) (298, -6.26752552313737165690e+00) (299, 4.76030419566485551996e+00) (300, 3.69557465889274805448e+00) (301, 1.50000000000000000000e+03) (302, 1.45499116386928695199e+00) (303, 1.45000000000000000000e+03) (304, 1.16134925536572897187e+00) (305, 1.32950552686930789648e+00) (306, 1.74486177049780593507e+02) (307, 3.57501000044779804199e+00) (308, 1.67699287421676968002e+00) (309, 1.50000000000000000000e+03) (310, 1.20623974202927888655e+03) (311, 2.39998987212001368974e+00) (312, 1.69861089189662939347e+00) (313, 5.04243179060529556068e+01) (314, 2.19873196882701282817e+00) (315, 1.20668659833547153859e+00) (316, 1.75286352566911851625e+00) (317, 3.02490623049318907434e+00) (318, 1.92908794576863718007e+00) (319, 1.42097791653413150215e+01) (320, 9.92897092203282227274e+02) (321, 2.50099263664906379390e+00) (322, 4.26356483510649830748e+00) (323, 7.69592868404208161337e+02) (324, 1.54428978576045250470e+00) (325, 1.04270194840787723933e+02) (326, 1.66750238505457937244e+00) (327, -8.98053534454935076248e-01) (0, 4.34362345259020354860e+00) (1, 1.84792502686358217634e-01) (2, 4.89332988875433272824e+02) (3, 1.50000000000000000000e+03) (4, 1.39819094780153285740e+00) (5, 7.66143932244218589522e-02) (6, 7.99315452349826927048e-01) (7, 1.14052922474750130277e+03) (8, -3.83412237206001371703e+00) (9, 1.13064035881160134522e+03) (10, 1.87020170551301312400e+00) (11, 2.86924410002686425258e-01) (12, 8.75739151768498686579e+02) (13, 7.08866421647089509861e+02) (14, 1.05349864270700180668e+02) (15, 1.91700988915994763317e+01) (16, 1.18344142424300457606e+03) (17, 5.51435760111497529579e+02) (18, 6.88459386179098942193e+02) (19, 1.47701794213756754104e+00) (20, 2.66965173484927845493e+02) (21, 8.58414095704513790963e+00) (22, 9.49340209513285099296e-03) (23, -1.36993788633993279769e-01) (24, 1.60799277068599621998e+00) (25, 1.18053773682881114837e+03) (26, 8.90600176640282192864e+00) (27, 4.25130240686012950135e+00) (28, 1.89637618629543491799e+00) (29, -1.08076974254158120203e+01) (30, 1.39251406874695794613e+03) (31, 4.62678940535113326860e+02) (32, 2.18354398868198940065e+00) (33, 3.86493292545317501663e+00) (34, 1.29151261845858726929e+02) (35, 4.28326294882462565994e+00) (36, 3.97276143455872670529e+02) (37, 2.83773715924267966315e+00) (38, 1.30447025831547280816e+00) (39, 1.12608216898641694570e+03) (40, 1.47113270302018039892e+00) (41, 4.92767810519814645431e+02) (42, 8.48531661309585842901e+02) (43, 2.27288036230589840514e+00) (44, 1.14755377923443457888e+01) (45, 6.03778072491685957601e+00) (46, 6.46313415335387464467e+00) (47, 1.79926210331107050422e+00) (48, 9.48787232336621002560e+01) (49, 8.68189340271267496973e+02) (50, 7.48849074002997650013e+00) (51, 3.88979704800225860595e+01) (52, 7.04811218258436838369e+02) (53, 4.13785806824967394846e+00) (54, 5.13190871452271494491e+02) (55, 7.31885767879285875637e+00) (56, 8.35236280497286088575e+02) (57, 5.71962465710938694485e+00) (58, 7.26825994005069819792e+00) (59, 4.09787129798075522302e+00) (60, 5.72077287537959566777e+00) (61, 7.01446456590441869139e+00) (62, 6.63868337118325602120e+00) (63, 1.20859701145927633803e+00) (64, 4.13331955074426815600e+00) (65, 2.46416502511977020262e+00) (66, 6.40781107481279718741e+02) (67, 1.79018753035182953681e+00) (68, 3.13348676513371282581e+00) (69, 1.67074437934524389071e+00) (70, 1.50000000000000000000e+03) (71, 2.35711194863926039034e+01) (72, 4.92070347353661730061e-01) (73, 3.75213288161788982578e+00) (74, 6.31575638876145539768e-01) (75, 1.10153618036748461861e+01) (76, 2.38375985046400895584e+00) (77, 4.99474594361531210041e+00) (78, 2.33692873475763907010e+00) (79, 9.68721951142511443322e+02) (80, 9.56971346680020815256e+02) (81, 1.14946055512779958008e+03) (82, 7.64381676839407646185e+02) (83, 1.50000000000000000000e+03) (84, 7.49746545860409674411e-01) (85, 1.04405237614027146265e+03) (86, 9.82953612370057385306e+02) (87, -8.66540136936566174342e-01) (88, 2.28150206150739887079e+00) (89, 4.63021520524529250906e+02) (90, 4.06249546964390706449e+00) (91, 1.56480424752940483479e+00) (92, 1.23892235969786906935e+03) (93, 9.62020246513748816142e+02) (94, 1.72663535386632482904e+00) (95, 